<?xml version="1.0"?>
<MethodSetup Method="MLP::MLP">
  <GeneralInfo>
    <Info name="TMVA Release" value="4.2.0 [262656]"/>
    <Info name="ROOT Release" value="5.34/10 [336394]"/>
    <Info name="Creator" value="amassiro"/>
    <Info name="Date" value="Mon Dec 30 17:22:48 2013"/>
    <Info name="Host" value="Linux amassiro-XPS-L421X 3.8.0-31-generic #46-Ubuntu SMP Tue Sep 10 20:03:44 UTC 2013 x86_64 x86_64 x86_64 GNU/Linux"/>
    <Info name="Dir" value="/home/amassiro/Cern/Code/VBF/qqHWW/AnalysisPackage_qqHWWlnulnu"/>
    <Info name="Training events" value="2000"/>
    <Info name="TrainingTime" value="6.38355241e+01"/>
    <Info name="AnalysisType" value="Classification"/>
  </GeneralInfo>
  <Options>
    <Option name="NCycles" modified="Yes">1000</Option>
    <Option name="HiddenLayers" modified="Yes">N+5,N+3</Option>
    <Option name="NeuronType" modified="Yes">tanh</Option>
    <Option name="RandomSeed" modified="No">1</Option>
    <Option name="EstimatorType" modified="No">MSE</Option>
    <Option name="NeuronInputType" modified="No">sum</Option>
    <Option name="V" modified="Yes">False</Option>
    <Option name="VerbosityLevel" modified="No">Default</Option>
    <Option name="VarTransform" modified="Yes">G,N</Option>
    <Option name="H" modified="Yes">True</Option>
    <Option name="CreateMVAPdfs" modified="No">False</Option>
    <Option name="IgnoreNegWeightsInTraining" modified="No">False</Option>
    <Option name="TrainingMethod" modified="No">BP</Option>
    <Option name="LearningRate" modified="No">2.000000e-02</Option>
    <Option name="DecayRate" modified="No">1.000000e-02</Option>
    <Option name="TestRate" modified="Yes">5</Option>
    <Option name="EpochMonitoring" modified="No">False</Option>
    <Option name="Sampling" modified="No">1.000000e+00</Option>
    <Option name="SamplingEpoch" modified="No">1.000000e+00</Option>
    <Option name="SamplingImportance" modified="No">1.000000e+00</Option>
    <Option name="SamplingTraining" modified="No">True</Option>
    <Option name="SamplingTesting" modified="No">False</Option>
    <Option name="ResetStep" modified="No">50</Option>
    <Option name="Tau" modified="No">3.000000e+00</Option>
    <Option name="BPMode" modified="No">sequential</Option>
    <Option name="BatchSize" modified="No">-1</Option>
    <Option name="ConvergenceImprove" modified="No">1.000000e-30</Option>
    <Option name="ConvergenceTests" modified="No">-1</Option>
    <Option name="UseRegulator" modified="Yes">False</Option>
    <Option name="UpdateLimit" modified="No">10000</Option>
    <Option name="CalculateErrors" modified="No">False</Option>
    <Option name="WeightRange" modified="No">1.000000e+00</Option>
  </Options>
  <Variables NVar="8">
    <Variable VarIndex="0" Expression="jetpt1" Label="jetpt1" Title="jetpt1" Unit="" Internal="jetpt1" Type="F" Min="3.09530430e+01" Max="8.77396057e+02"/>
    <Variable VarIndex="1" Expression="jetpt2" Label="jetpt2" Title="jetpt2" Unit="" Internal="jetpt2" Type="F" Min="3.00011177e+01" Max="7.19324402e+02"/>
    <Variable VarIndex="2" Expression="detajj" Label="detajj" Title="detajj" Unit="" Internal="detajj" Type="F" Min="1.00921893e+00" Max="7.77490711e+00"/>
    <Variable VarIndex="3" Expression="log(mjj)" Label="log(mjj)" Title="log(mjj)" Unit="" Internal="log_mjj_" Type="F" Min="5.29855871e+00" Max="8.33952141e+00"/>
    <Variable VarIndex="4" Expression="abs(eta1-(jeteta1+jeteta2)/2)/detajj" Label="abs(eta1-(jeteta1+jeteta2)/2)/detajj" Title="abs(eta1-(jeteta1+jeteta2)/2)/detajj" Unit="" Internal="abs_eta1_M__jeteta1_P_jeteta2__D_2__D_detajj" Type="F" Min="3.67753848e-04" Max="2.80900383e+00"/>
    <Variable VarIndex="5" Expression="abs(eta2-(jeteta1+jeteta2)/2)/detajj" Label="abs(eta2-(jeteta1+jeteta2)/2)/detajj" Title="abs(eta2-(jeteta1+jeteta2)/2)/detajj" Unit="" Internal="abs_eta2_M__jeteta1_P_jeteta2__D_2__D_detajj" Type="F" Min="1.09058863e-04" Max="3.25051808e+00"/>
    <Variable VarIndex="6" Expression="abs(yll-(jeteta1+jeteta2)/2)/detajj" Label="abs(yll-(jeteta1+jeteta2)/2)/detajj" Title="abs(yll-(jeteta1+jeteta2)/2)/detajj" Unit="" Internal="abs_yll_M__jeteta1_P_jeteta2__D_2__D_detajj" Type="F" Min="8.27697586e-05" Max="2.82863212e+00"/>
    <Variable VarIndex="7" Expression="dphilljetjet" Label="dphilljetjet" Title="dphilljetjet" Unit="" Internal="dphilljetjet" Type="F" Min="8.71723983e-03" Max="3.14107585e+00"/>
  </Variables>
  <Spectators NSpec="0"/>
  <Classes NClass="2">
    <Class Name="Signal" Index="0"/>
    <Class Name="Background" Index="1"/>
  </Classes>
  <Transformations NTransformations="2">
    <Transform Name="Gauss" FlatOrGauss="Gauss">
      <Selection>
        <Input NInputs="8">
          <Input Type="Variable" Label="jetpt1" Expression="jetpt1"/>
          <Input Type="Variable" Label="jetpt2" Expression="jetpt2"/>
          <Input Type="Variable" Label="detajj" Expression="detajj"/>
          <Input Type="Variable" Label="log(mjj)" Expression="log(mjj)"/>
          <Input Type="Variable" Label="abs(eta1-(jeteta1+jeteta2)/2)/detajj" Expression="abs(eta1-(jeteta1+jeteta2)/2)/detajj"/>
          <Input Type="Variable" Label="abs(eta2-(jeteta1+jeteta2)/2)/detajj" Expression="abs(eta2-(jeteta1+jeteta2)/2)/detajj"/>
          <Input Type="Variable" Label="abs(yll-(jeteta1+jeteta2)/2)/detajj" Expression="abs(yll-(jeteta1+jeteta2)/2)/detajj"/>
          <Input Type="Variable" Label="dphilljetjet" Expression="dphilljetjet"/>
        </Input>
        <Output NOutputs="8">
          <Output Type="Variable" Label="jetpt1" Expression="jetpt1"/>
          <Output Type="Variable" Label="jetpt2" Expression="jetpt2"/>
          <Output Type="Variable" Label="detajj" Expression="detajj"/>
          <Output Type="Variable" Label="log(mjj)" Expression="log(mjj)"/>
          <Output Type="Variable" Label="abs(eta1-(jeteta1+jeteta2)/2)/detajj" Expression="abs(eta1-(jeteta1+jeteta2)/2)/detajj"/>
          <Output Type="Variable" Label="abs(eta2-(jeteta1+jeteta2)/2)/detajj" Expression="abs(eta2-(jeteta1+jeteta2)/2)/detajj"/>
          <Output Type="Variable" Label="abs(yll-(jeteta1+jeteta2)/2)/detajj" Expression="abs(yll-(jeteta1+jeteta2)/2)/detajj"/>
          <Output Type="Variable" Label="dphilljetjet" Expression="dphilljetjet"/>
        </Output>
      </Selection>
      <Variable VarIndex="0">
        <CumulativePDF_cls0>
          <PDF Name="GaussTransform var0 cls0" MinNSmooth="0" MaxNSmooth="0" InterpolMethod="1" KDE_type="0" KDE_iter="1" KDE_border="1" KDE_finefactor="0.0000000000000000e+00">
            <Histogram Name="Cumulative_Var0_cls0_original" NBins="874" XMin="3.3927955627441406e+01" XMax="8.6411688232421875e+02" HasEquidistantBins="0">
              0.00000000e+00 8.32527410e-04 1.94808783e-03 3.07270628e-03 4.20082593e-03 5.30325202e-03 6.38232753e-03 7.44049391e-03 8.38794559e-03 9.20334645e-03 1.01627419e-02 1.13620870e-02 1.25704072e-02 1.37377586e-02 1.48693165e-02 1.59873497e-02 1.71626024e-02 1.83266867e-02 1.94139816e-02 2.04355661e-02 2.15483252e-02 2.27753241e-02 2.39432044e-02 2.50932481e-02 2.64026765e-02 2.77992971e-02 2.89987270e-02 3.01717576e-02 3.15911472e-02 3.30091193e-02 3.42899561e-02 3.54389772e-02 3.64102535e-02 3.73793878e-02 3.84923555e-02 3.97361889e-02 4.09337431e-02 4.19783667e-02 4.32500318e-02 4.47414853e-02 4.58509214e-02 4.66560796e-02 4.75436822e-02 4.85886857e-02 4.97018695e-02 5.08112833e-02 5.19851707e-02 5.31266779e-02 5.41631877e-02 5.53105548e-02 5.65075167e-02 5.74309379e-02 5.82514480e-02 5.92510849e-02 6.03167564e-02 6.14426769e-02 6.26023263e-02 6.36825413e-02 6.47939295e-02 6.59524128e-02 6.71680346e-02 6.84624538e-02 6.99631721e-02 7.14847147e-02 7.28913024e-02 7.42902979e-02 7.54166618e-02 7.65099898e-02 7.77540281e-02 7.88690224e-02 7.99730197e-02 8.11267048e-02 8.23451132e-02 8.36640373e-02 8.49739909e-02 8.62810835e-02 8.74565542e-02 8.84218365e-02 8.93418193e-02 9.04370993e-02 9.15976912e-02 9.25814807e-02 9.35180485e-02 9.47694108e-02 9.62204486e-02 9.74102169e-02 9.84447002e-02 9.95168090e-02 1.00597017e-01 1.01713255e-01 1.02934822e-01 1.04311801e-01 1.05571538e-01 1.06775463e-01 1.08196303e-01 1.09493695e-01 1.10644020e-01 1.11881085e-01 1.13197625e-01 1.14305101e-01 1.15125842e-01 1.16213247e-01 1.17461137e-01 1.18501984e-01 1.19549915e-01 1.20661587e-01 1.21780746e-01 1.22916773e-01 1.24104381e-01 1.25368521e-01 1.26485884e-01 1.27444178e-01 1.28332853e-01 1.29117951e-01 1.30206764e-01 1.31596521e-01 1.32762223e-01 1.33791089e-01 1.34932488e-01 1.36086911e-01 1.37034297e-01 1.37937739e-01 1.39151603e-01 1.40551239e-01 1.41999185e-01 1.43229723e-01 1.43971086e-01 1.44666448e-01 1.45693928e-01 1.46880418e-01 1.47970498e-01 1.48959965e-01 1.50041699e-01 1.51217848e-01 1.52327403e-01 1.53592303e-01 1.55074269e-01 1.56350955e-01 1.57460377e-01 1.58621088e-01 1.59823358e-01 1.61054268e-01 1.62299544e-01 1.63511425e-01 1.64563477e-01 1.65562153e-01 1.66956440e-01 1.68592423e-01 1.69868708e-01 1.71072558e-01 1.72504321e-01 1.73774406e-01 1.74852893e-01 1.75964504e-01 1.77119419e-01 1.78265154e-01 1.79356411e-01 1.80414051e-01 1.81504130e-01 1.82644933e-01 1.83852047e-01 1.85091615e-01 1.86224356e-01 1.87256768e-01 1.88329607e-01 1.89346537e-01 1.90250978e-01 1.91288292e-01 1.92534968e-01 1.93818852e-01 1.95041001e-01 1.96344823e-01 1.97637439e-01 1.98976800e-01 2.00449049e-01 2.01679006e-01 2.02812195e-01 2.04048365e-01 2.05195278e-01 2.06322938e-01 2.07515568e-01 2.08603472e-01 2.09764138e-01 2.11196154e-01 2.12571234e-01 2.13774279e-01 2.14996785e-01 2.16203690e-01 2.17374697e-01 2.18453780e-01 2.19620660e-01 2.21125513e-01 2.22344190e-01 2.23060176e-01 2.23962650e-01 2.25309864e-01 2.26733536e-01 2.27906570e-01 2.29183674e-01 2.30636045e-01 2.31938511e-01 2.33252391e-01 2.34425172e-01 2.35498384e-01 2.36704096e-01 2.38029897e-01 2.39301726e-01 2.40156397e-01 2.40926906e-01 2.42050022e-01 2.43397653e-01 2.44680837e-01 2.45821863e-01 2.46790633e-01 2.47921690e-01 2.49402449e-01 2.50698835e-01 2.51747817e-01 2.52853751e-01 2.54187822e-01 2.55522221e-01 2.56616175e-01 2.57575721e-01 2.58480579e-01 2.59386152e-01 2.60303378e-01 2.61359394e-01 2.62573808e-01 2.63827056e-01 2.64974982e-01 2.66018569e-01 2.67057031e-01 2.68083841e-01 2.69221604e-01 2.70565808e-01 2.72014737e-01 2.73387194e-01 2.74587333e-01 2.75650620e-01 2.76754469e-01 2.77851254e-01 2.78784424e-01 2.79877216e-01 2.81032830e-01 2.81943768e-01 2.82915622e-01 2.84037709e-01 2.85130978e-01 2.86202788e-01 2.87331462e-01 2.88467258e-01 2.89533377e-01 2.90766239e-01 2.92219758e-01 2.93511331e-01 2.94704169e-01 2.95933872e-01 2.97064811e-01 2.98164278e-01 2.99309164e-01 3.00431460e-01 3.01485449e-01 3.02579135e-01 3.03770751e-01 3.04880410e-01 3.05939823e-01 3.07185858e-01 3.08466434e-01 3.09608549e-01 3.10606092e-01 3.11492771e-01 3.12718451e-01 3.14197332e-01 3.15308154e-01 3.16284776e-01 3.17394584e-01 3.18505764e-01 3.19777548e-01 3.21034938e-01 3.21944773e-01 3.22847337e-01 3.23920608e-01 3.25028598e-01 3.26257795e-01 3.27686220e-01 3.29316109e-01 3.30914170e-01 3.32185626e-01 3.33441526e-01 3.34800184e-01 3.36035430e-01 3.37266564e-01 3.38317275e-01 3.39080065e-01 3.39937866e-01 3.40908498e-01 3.41875404e-01 3.43036890e-01 3.44141811e-01 3.44979793e-01 3.46018553e-01 3.47361356e-01 3.48558605e-01 3.49583864e-01 3.50633413e-01 3.51949513e-01 3.53467911e-01 3.54695827e-01 3.55768204e-01 3.57078910e-01 3.58605206e-01 3.60010147e-01 3.61248106e-01 3.62496257e-01 3.63651395e-01 3.64690632e-01 3.65709811e-01 3.66933256e-01 3.68573576e-01 3.70006442e-01 3.71007890e-01 3.72247130e-01 3.73570859e-01 3.74719471e-01 3.75791878e-01 3.76822084e-01 3.77940476e-01 3.78931522e-01 3.79756153e-01 3.80771577e-01 3.81828874e-01 3.82886261e-01 3.84120703e-01 3.85311604e-01 3.86439323e-01 3.87659878e-01 3.88695836e-01 3.89512002e-01 3.90512556e-01 3.91872525e-01 3.93383473e-01 3.94437253e-01 3.95126075e-01 3.95995647e-01 3.97269964e-01 3.98683876e-01 3.99983704e-01 4.01420116e-01 4.02727425e-01 4.03880507e-01 4.05027568e-01 4.06043857e-01 4.07026678e-01 4.08050179e-01 4.09181088e-01 4.10309464e-01 4.11344379e-01 4.12611276e-01 4.14119303e-01 4.15428400e-01 4.16492105e-01 4.17355269e-01 4.18443710e-01 4.19842422e-01 4.21207607e-01 4.22708839e-01 4.24001515e-01 4.24936861e-01 4.26055104e-01 4.27418649e-01 4.28627938e-01 4.29638624e-01 4.30814952e-01 4.32224840e-01 4.33521807e-01 4.34634268e-01 4.35756028e-01 4.36883628e-01 4.37977761e-01 4.39092278e-01 4.40169781e-01 4.41394806e-01 4.42809254e-01 4.44160581e-01 4.45660621e-01 4.47185338e-01 4.48461175e-01 4.49616700e-01 4.50823009e-01 4.52076614e-01 4.53294009e-01 4.54523414e-01 4.55696493e-01 4.56840932e-01 4.57909912e-01 4.58874762e-01 4.59953040e-01 4.61126149e-01 4.62139219e-01 4.63138521e-01 4.64430660e-01 4.65549648e-01 4.66373682e-01 4.67325687e-01 4.68568265e-01 4.70029444e-01 4.71333772e-01 4.72325891e-01 4.73183066e-01 4.74165231e-01 4.75188553e-01 4.76178616e-01 4.77255285e-01 4.78312790e-01 4.79453683e-01 4.80753779e-01 4.81991708e-01 4.83032912e-01 4.83985156e-01 4.85109180e-01 4.86314535e-01 4.87461448e-01 4.88667041e-01 4.90008205e-01 4.91357177e-01 4.92699713e-01 4.94248748e-01 4.95648712e-01 4.96750146e-01 4.97863442e-01 4.98968661e-01 5.00168324e-01 5.01245499e-01 5.02212286e-01 5.03655136e-01 5.04959166e-01 5.05795777e-01 5.06799459e-01 5.08082211e-01 5.09428084e-01 5.10431707e-01 5.11117816e-01 5.11932313e-01 5.12983501e-01 5.14196575e-01 5.15314579e-01 5.16139090e-01 5.17085135e-01 5.18233716e-01 5.19332945e-01 5.20487309e-01 5.21658719e-01 5.22755265e-01 5.23931444e-01 5.25220335e-01 5.26529610e-01 5.27845263e-01 5.29007494e-01 5.30220330e-01 5.31650066e-01 5.32908559e-01 5.33927441e-01 5.34889162e-01 5.35939336e-01 5.37076294e-01 5.38236618e-01 5.39323151e-01 5.40318668e-01 5.41175783e-01 5.41907430e-01 5.42904854e-01 5.44081986e-01 5.45221388e-01 5.46431422e-01 5.47471821e-01 5.48249245e-01 5.49176276e-01 5.50307155e-01 5.51472902e-01 5.52503645e-01 5.53394914e-01 5.54293215e-01 5.55155814e-01 5.56155860e-01 5.57290971e-01 5.58320642e-01 5.59256911e-01 5.60203910e-01 5.61416328e-01 5.62859774e-01 5.64257801e-01 5.65626800e-01 5.67067206e-01 5.68551660e-01 5.69768965e-01 5.70852041e-01 5.71854830e-01 5.72665870e-01 5.73524296e-01 5.74382901e-01 5.75454533e-01 5.76955140e-01 5.78500867e-01 5.79745650e-01 5.80956459e-01 5.82397699e-01 5.83767056e-01 5.84920108e-01 5.86049080e-01 5.87208331e-01 5.88350713e-01 5.89576185e-01 5.90856135e-01 5.91817856e-01 5.92544556e-01 5.93537390e-01 5.94574690e-01 5.95601857e-01 5.96971035e-01 5.98218381e-01 5.99419832e-01 6.00905776e-01 6.02084517e-01 6.03257120e-01 6.04673564e-01 6.05728805e-01 6.06621087e-01 6.07657552e-01 6.08822703e-01 6.09992743e-01 6.11089528e-01 6.12235844e-01 6.13388658e-01 6.14427209e-01 6.15545034e-01 6.16787732e-01 6.17923617e-01 6.19061053e-01 6.20234072e-01 6.21321261e-01 6.22743130e-01 6.24440610e-01 6.25651717e-01 6.26467228e-01 6.27251446e-01 6.28209710e-01 6.29370987e-01 6.30563915e-01 6.31758034e-01 6.32911980e-01 6.34040713e-01 6.35078371e-01 6.36012971e-01 6.37006402e-01 6.38079941e-01 6.39020205e-01 6.39836371e-01 6.40754104e-01 6.41622245e-01 6.42423749e-01 6.43378615e-01 6.44645572e-01 6.46083176e-01 6.47279084e-01 6.48360074e-01 6.49452627e-01 6.50504470e-01 6.51831746e-01 6.53364956e-01 6.54647887e-01 6.55759990e-01 6.56949759e-01 6.58191502e-01 6.59339607e-01 6.60409033e-01 6.61469519e-01 6.62500560e-01 6.63515747e-01 6.64616048e-01 6.65876031e-01 6.67096734e-01 6.68243408e-01 6.69364631e-01 6.70404553e-01 6.71413898e-01 6.72672391e-01 6.74181640e-01 6.75507069e-01 6.76484287e-01 6.77290380e-01 6.78323448e-01 6.79540634e-01 6.80782557e-01 6.82294190e-01 6.83757007e-01 6.84846342e-01 6.85947299e-01 6.86959386e-01 6.88015223e-01 6.89477324e-01 6.90644562e-01 6.91354215e-01 6.92249000e-01 6.93393767e-01 6.94455266e-01 6.95681155e-01 6.97251439e-01 6.98667943e-01 6.99780107e-01 7.00830817e-01 7.01808393e-01 7.02695489e-01 7.03856766e-01 7.05221057e-01 7.06409156e-01 7.07551062e-01 7.08749533e-01 7.09903240e-01 7.11011529e-01 7.12078393e-01 7.13121772e-01 7.14172661e-01 7.15490639e-01 7.17060745e-01 7.18302488e-01 7.19362319e-01 7.20575094e-01 7.21728384e-01 7.22815573e-01 7.24139035e-01 7.25671947e-01 7.26886928e-01 7.27831185e-01 7.28910804e-01 7.30081201e-01 7.31354237e-01 7.32702911e-01 7.33932137e-01 7.35101342e-01 7.36257970e-01 7.37443566e-01 7.38475323e-01 7.39247620e-01 7.40114272e-01 7.41372347e-01 7.42812991e-01 7.43908703e-01 7.44835675e-01 7.46027291e-01 7.47403085e-01 7.48567879e-01 7.49510229e-01 7.50422955e-01 7.51304746e-01 7.52328277e-01 7.53565967e-01 7.54902959e-01 7.56141722e-01 7.57176697e-01 7.58199036e-01 7.59444356e-01 7.60552347e-01 7.61389017e-01 7.62312174e-01 7.63243139e-01 7.64321864e-01 7.65696406e-01 7.66991258e-01 7.68056929e-01 7.69151151e-01 7.70375848e-01 7.71639228e-01 7.72829771e-01 7.73903072e-01 7.74972558e-01 7.76243329e-01 7.77616978e-01 7.78713644e-01 7.79629529e-01 7.80556202e-01 7.81589091e-01 7.82821774e-01 7.84063578e-01 7.85112798e-01 7.85971522e-01 7.87154078e-01 7.88614869e-01 7.90003061e-01 7.91491926e-01 7.92769730e-01 7.93860376e-01 7.95266271e-01 7.96962917e-01 7.98538029e-01 7.99644589e-01 8.00506413e-01 8.01501751e-01 8.02646637e-01 8.03873181e-01 8.05085301e-01 8.06210935e-01 8.07265997e-01 8.08276951e-01 8.09169352e-01 8.10061932e-01 8.11182857e-01 8.12226832e-01 8.12941313e-01 8.13686192e-01 8.14674318e-01 8.15808117e-01 8.16982448e-01 8.18129361e-01 8.19285095e-01 8.20525944e-01 8.21825624e-01 8.23093653e-01 8.24355066e-01 8.25408220e-01 8.26347530e-01 8.27529669e-01 8.28704953e-01 8.29754531e-01 8.30683947e-01 8.31458032e-01 8.32430363e-01 8.33529055e-01 8.34526539e-01 8.35591853e-01 8.36893976e-01 8.38343978e-01 8.39575171e-01 8.40665281e-01 8.41737270e-01 8.42672169e-01 8.43630195e-01 8.44699740e-01 8.45854700e-01 8.47031772e-01 8.48180950e-01 8.49372685e-01 8.50552559e-01 8.51607442e-01 8.52753520e-01 8.53884578e-01 8.54797423e-01 8.55853200e-01 8.56991649e-01 8.57882440e-01 8.58613014e-01 8.59513998e-01 8.60617518e-01 8.61708641e-01 8.62971663e-01 8.64405930e-01 8.65607858e-01 8.66670907e-01 8.67795765e-01 8.68926764e-01 8.70067120e-01 8.71095657e-01 8.71986747e-01 8.72945309e-01 8.74004424e-01 8.75087202e-01 8.76216650e-01 8.77390325e-01 8.78504217e-01 8.79611254e-01 8.80603611e-01 8.81407678e-01 8.82331371e-01 8.83320630e-01 8.84307384e-01 8.85198832e-01 8.86184335e-01 8.87479961e-01 8.88642609e-01 8.89581919e-01 8.90501201e-01 8.91555488e-01 8.92749429e-01 8.93939972e-01 8.95072103e-01 8.96164179e-01 8.97334874e-01 8.98584843e-01 8.99720848e-01 9.00751472e-01 9.01794791e-01 9.03066039e-01 9.04741585e-01 9.06288505e-01 9.07468915e-01 9.08695221e-01 9.09786761e-01 9.10827637e-01 9.12170112e-01 9.13419187e-01 9.14455593e-01 9.15478647e-01 9.16571438e-01 9.17693496e-01 9.18713272e-01 9.19835865e-01 9.21371579e-01 9.23013747e-01 9.24277127e-01 9.25430834e-01 9.26732063e-01 9.28008497e-01 9.29033697e-01 9.29830790e-01 9.30791438e-01 9.32019293e-01 9.33294296e-01 9.34449852e-01 9.35539126e-01 9.36598361e-01 9.37656283e-01 9.38622355e-01 9.39416647e-01 9.40379918e-01 9.41521823e-01 9.42424059e-01 9.43318129e-01 9.44656610e-01 9.46217239e-01 9.47674394e-01 9.48814929e-01 9.49911654e-01 9.51193035e-01 9.52408612e-01 9.53556478e-01 9.54693377e-01 9.55820501e-01 9.56969202e-01 9.58091319e-01 9.59206998e-01 9.60168719e-01 9.61025536e-01 9.62059438e-01 9.63059366e-01 9.64066744e-01 9.65338588e-01 9.66696978e-01 9.67876554e-01 9.68976557e-01 9.70081329e-01 9.71092343e-01 9.72148776e-01 9.73284841e-01 9.74622190e-01 9.76081312e-01 9.77040827e-01 9.77712750e-01 9.78942275e-01 9.80493605e-01 9.81926143e-01 9.83396530e-01 9.84633207e-01 9.85746443e-01 9.87123549e-01 9.88257110e-01 9.89216149e-01 9.90619779e-01 9.92044032e-01 9.93167698e-01 9.94235575e-01 9.95432019e-01 9.96632278e-01 9.97673690e-01 9.98824000e-01 1.00000000e+00 
            </Histogram>
            <HistogramBinning NBins="874">
              3.39279556e+01 3.39280548e+01 3.45925179e+01 3.54378738e+01 3.82361565e+01 4.00102615e+01 4.07290497e+01 4.13172379e+01 4.16875038e+01 4.16881256e+01 4.24704819e+01 4.24914780e+01 4.26435547e+01 4.28257370e+01 4.31686325e+01 4.39358521e+01 4.40904312e+01 4.54756355e+01 4.55355110e+01 4.57467766e+01 4.59663544e+01 4.62055092e+01 4.66958885e+01 4.69131508e+01 4.71359482e+01 4.72087021e+01 4.77664757e+01 4.77858505e+01 4.86065254e+01 4.88988037e+01 4.91591492e+01 4.97357101e+01 4.99391823e+01 5.01962090e+01 5.07578697e+01 5.08174973e+01 5.09097404e+01 5.19942932e+01 5.22433662e+01 5.24172783e+01 5.24857483e+01 5.29883499e+01 5.31890068e+01 5.37023354e+01 5.39121971e+01 5.40013695e+01 5.40367126e+01 5.41614151e+01 5.41950989e+01 5.44586716e+01 5.45745354e+01 5.47677689e+01 5.50444069e+01 5.50820999e+01 5.51395302e+01 5.52555847e+01 5.60184364e+01 5.61184921e+01 5.62003784e+01 5.64006310e+01 5.66631546e+01 5.68604202e+01 5.69984436e+01 5.74382095e+01 5.75261650e+01 5.76361351e+01 5.76662254e+01 5.81041985e+01 5.82283897e+01 5.86606140e+01 5.88741188e+01 5.90892067e+01 5.93284454e+01 6.01507721e+01 6.05489311e+01 6.07190704e+01 6.12090149e+01 6.16204491e+01 6.17903633e+01 6.19198837e+01 6.22393532e+01 6.23758965e+01 6.25729179e+01 6.26098785e+01 6.26337013e+01 6.30511780e+01 6.34437218e+01 6.38116951e+01 6.38195419e+01 6.38845291e+01 6.41731720e+01 6.43876953e+01 6.45478287e+01 6.46905746e+01 6.48002167e+01 6.49606018e+01 6.53790588e+01 6.57471161e+01 6.58616791e+01 6.61373901e+01 6.68886261e+01 6.71195984e+01 6.74441833e+01 6.74767227e+01 6.79773712e+01 6.79946365e+01 6.81330719e+01 6.83012009e+01 6.83789368e+01 6.85102768e+01 6.88782883e+01 6.91673889e+01 6.92465363e+01 6.94318771e+01 6.94661026e+01 7.00726929e+01 7.02080002e+01 7.02960815e+01 7.04059753e+01 7.04097061e+01 7.05335159e+01 7.06470871e+01 7.07064362e+01 7.11188431e+01 7.14353409e+01 7.17491608e+01 7.20747986e+01 7.21045380e+01 7.22667694e+01 7.24087524e+01 7.28989334e+01 7.30083542e+01 7.32408066e+01 7.33253632e+01 7.34924011e+01 7.35342712e+01 7.37561951e+01 7.39643555e+01 7.40081253e+01 7.40504456e+01 7.41210632e+01 7.42314758e+01 7.42978210e+01 7.46193237e+01 7.48710251e+01 7.50342178e+01 7.52106171e+01 7.56673660e+01 7.57341919e+01 7.58605576e+01 7.60498047e+01 7.65573120e+01 7.66519852e+01 7.68065262e+01 7.70766296e+01 7.71342010e+01 7.71506042e+01 7.72047958e+01 7.76548080e+01 7.78922348e+01 7.80278473e+01 7.82865219e+01 7.85767975e+01 7.86451187e+01 7.89247360e+01 7.89304581e+01 7.89876251e+01 7.91355362e+01 7.92973557e+01 7.95031967e+01 7.98283081e+01 8.06620560e+01 8.07312317e+01 8.12710190e+01 8.13922043e+01 8.14743423e+01 8.16618576e+01 8.19678879e+01 8.20748672e+01 8.23102722e+01 8.24923019e+01 8.27656860e+01 8.30445251e+01 8.32040482e+01 8.32751083e+01 8.33625259e+01 8.35922089e+01 8.36021042e+01 8.37056427e+01 8.37574997e+01 8.40305481e+01 8.41489716e+01 8.42702866e+01 8.44840469e+01 8.47347870e+01 8.47569122e+01 8.48779068e+01 8.49252701e+01 8.49611053e+01 8.49852142e+01 8.50780258e+01 8.55622635e+01 8.55979538e+01 8.57778244e+01 8.61222610e+01 8.66059799e+01 8.70545044e+01 8.73419037e+01 8.74322357e+01 8.78764725e+01 8.81206589e+01 8.81464233e+01 8.83192062e+01 8.87850800e+01 8.89119797e+01 8.92496338e+01 8.95062714e+01 8.97031555e+01 9.00518646e+01 9.02519073e+01 9.04063339e+01 9.07254410e+01 9.11329651e+01 9.13197250e+01 9.14159622e+01 9.14495850e+01 9.18492737e+01 9.21504364e+01 9.22285843e+01 9.22703705e+01 9.25281982e+01 9.27259140e+01 9.27688141e+01 9.39099274e+01 9.40465546e+01 9.43363495e+01 9.51223221e+01 9.54621658e+01 9.54768906e+01 9.56467743e+01 9.61652985e+01 9.62665253e+01 9.64113159e+01 9.66471710e+01 9.68454742e+01 9.68600082e+01 9.69155884e+01 9.71056671e+01 9.71251068e+01 9.72478638e+01 9.78077774e+01 9.82130585e+01 9.82224274e+01 9.83705139e+01 9.89439087e+01 9.89922867e+01 9.90218353e+01 9.93235397e+01 9.93468781e+01 9.93596268e+01 9.94236221e+01 9.94709625e+01 9.99746780e+01 1.00028671e+02 1.00236519e+02 1.00334785e+02 1.00410385e+02 1.00447929e+02 1.01378052e+02 1.01487862e+02 1.01553909e+02 1.01633926e+02 1.01868881e+02 1.01969345e+02 1.02369408e+02 1.02751373e+02 1.02865356e+02 1.02967140e+02 1.03341438e+02 1.03714577e+02 1.03916939e+02 1.03959335e+02 1.03974655e+02 1.03977097e+02 1.04362114e+02 1.04989159e+02 1.05312225e+02 1.05707771e+02 1.05921555e+02 1.05987839e+02 1.05991341e+02 1.06352196e+02 1.06360161e+02 1.06422943e+02 1.06428627e+02 1.06597771e+02 1.06722427e+02 1.06833565e+02 1.06881355e+02 1.07049522e+02 1.07098991e+02 1.07372055e+02 1.07707039e+02 1.07976295e+02 1.08231102e+02 1.08375214e+02 1.08407532e+02 1.08563850e+02 1.08617241e+02 1.08631493e+02 1.08760963e+02 1.08812340e+02 1.09344505e+02 1.09575562e+02 1.10113266e+02 1.10217216e+02 1.10470695e+02 1.10637329e+02 1.10644104e+02 1.10676422e+02 1.10940079e+02 1.11261246e+02 1.11276489e+02 1.11367332e+02 1.11459686e+02 1.12277779e+02 1.12425453e+02 1.12617393e+02 1.12620750e+02 1.12697456e+02 1.12751785e+02 1.13099785e+02 1.13145760e+02 1.13171295e+02 1.13314941e+02 1.13493401e+02 1.13659660e+02 1.14062088e+02 1.14080452e+02 1.14245667e+02 1.14280983e+02 1.14344666e+02 1.14421951e+02 1.14832283e+02 1.14844376e+02 1.15075203e+02 1.15120056e+02 1.15187737e+02 1.15918648e+02 1.16268143e+02 1.16380905e+02 1.16434410e+02 1.16723259e+02 1.16881355e+02 1.17109940e+02 1.17289192e+02 1.17848328e+02 1.17873077e+02 1.17943512e+02 1.17984116e+02 1.18054153e+02 1.18453735e+02 1.18629570e+02 1.18685196e+02 1.18722832e+02 1.19045670e+02 1.19377014e+02 1.19505051e+02 1.19617004e+02 1.19638008e+02 1.19654037e+02 1.19792923e+02 1.19915977e+02 1.19966408e+02 1.20367287e+02 1.20999374e+02 1.21557182e+02 1.22394081e+02 1.22415062e+02 1.22635674e+02 1.22650780e+02 1.22719406e+02 1.22720284e+02 1.22862679e+02 1.23025879e+02 1.23104286e+02 1.23603065e+02 1.23721886e+02 1.24024170e+02 1.24339600e+02 1.24808090e+02 1.25001732e+02 1.25232063e+02 1.25902916e+02 1.25965714e+02 1.26021049e+02 1.26300652e+02 1.26399078e+02 1.26853889e+02 1.26906479e+02 1.26913406e+02 1.27280235e+02 1.27601212e+02 1.27795326e+02 1.27874634e+02 1.28188507e+02 1.28337708e+02 1.28559235e+02 1.28755997e+02 1.29098648e+02 1.29163116e+02 1.29180328e+02 1.29360611e+02 1.29575729e+02 1.29625015e+02 1.30443726e+02 1.31180191e+02 1.31331680e+02 1.31409332e+02 1.31509689e+02 1.31599930e+02 1.31932938e+02 1.32167892e+02 1.32648575e+02 1.32699188e+02 1.32809097e+02 1.32900330e+02 1.33357239e+02 1.33431366e+02 1.33473053e+02 1.33563782e+02 1.33802185e+02 1.34567993e+02 1.34684540e+02 1.35216812e+02 1.35428864e+02 1.35604340e+02 1.35698059e+02 1.35817795e+02 1.35939087e+02 1.36386154e+02 1.36727081e+02 1.37141006e+02 1.37558228e+02 1.37798752e+02 1.38064270e+02 1.38092941e+02 1.38224487e+02 1.38363373e+02 1.38541885e+02 1.38662872e+02 1.38723618e+02 1.39012360e+02 1.39079773e+02 1.39092957e+02 1.39097443e+02 1.39213257e+02 1.39256531e+02 1.39435257e+02 1.39469666e+02 1.39509293e+02 1.39801331e+02 1.40116211e+02 1.40269287e+02 1.40385513e+02 1.40877411e+02 1.41010162e+02 1.41267731e+02 1.41331161e+02 1.41481720e+02 1.41592560e+02 1.41848175e+02 1.41856369e+02 1.41996078e+02 1.42251007e+02 1.42435135e+02 1.42520844e+02 1.42524261e+02 1.42927078e+02 1.43258591e+02 1.43276886e+02 1.43307922e+02 1.43351700e+02 1.43557632e+02 1.43564636e+02 1.43573685e+02 1.43745407e+02 1.43957840e+02 1.44009171e+02 1.44128616e+02 1.44227600e+02 1.44560318e+02 1.45162506e+02 1.45273392e+02 1.45417343e+02 1.45513687e+02 1.45864243e+02 1.46028763e+02 1.46216309e+02 1.46697708e+02 1.46847977e+02 1.47393356e+02 1.48004120e+02 1.48425598e+02 1.48562469e+02 1.48717072e+02 1.48837769e+02 1.49167068e+02 1.49256241e+02 1.49528748e+02 1.49560425e+02 1.49817795e+02 1.50184494e+02 1.50449783e+02 1.50455795e+02 1.50555313e+02 1.50987885e+02 1.51016876e+02 1.51160461e+02 1.52691177e+02 1.52928970e+02 1.52936798e+02 1.53229202e+02 1.53367981e+02 1.53547791e+02 1.53788513e+02 1.54152740e+02 1.54901810e+02 1.55554443e+02 1.56164810e+02 1.56230499e+02 1.56293137e+02 1.56525742e+02 1.56543625e+02 1.56672974e+02 1.57597046e+02 1.57928528e+02 1.58226303e+02 1.58894165e+02 1.58920685e+02 1.59155411e+02 1.59803024e+02 1.60078415e+02 1.60371475e+02 1.60411942e+02 1.60975906e+02 1.61009003e+02 1.61118927e+02 1.61440842e+02 1.61460876e+02 1.61551910e+02 1.61692291e+02 1.61829544e+02 1.62129242e+02 1.62265778e+02 1.62363434e+02 1.62633133e+02 1.62718842e+02 1.62834381e+02 1.63292908e+02 1.63517639e+02 1.63589142e+02 1.63720261e+02 1.64244247e+02 1.64506073e+02 1.64724731e+02 1.64770355e+02 1.64885147e+02 1.65435532e+02 1.66735779e+02 1.67060562e+02 1.67124573e+02 1.67353271e+02 1.67862183e+02 1.68466599e+02 1.68721222e+02 1.68831955e+02 1.69317520e+02 1.69456406e+02 1.69569519e+02 1.70149506e+02 1.70233078e+02 1.70303406e+02 1.70731934e+02 1.71070847e+02 1.71803558e+02 1.72021637e+02 1.72931885e+02 1.73519836e+02 1.73634979e+02 1.74133636e+02 1.74730988e+02 1.74928986e+02 1.75024033e+02 1.76320740e+02 1.76993256e+02 1.77702896e+02 1.77961746e+02 1.78106140e+02 1.78168671e+02 1.79237244e+02 1.79338959e+02 1.79423553e+02 1.79478867e+02 1.80468246e+02 1.81658646e+02 1.82049026e+02 1.82464691e+02 1.82519699e+02 1.82810196e+02 1.82834274e+02 1.83123947e+02 1.83188904e+02 1.83369583e+02 1.84099030e+02 1.84114105e+02 1.84386200e+02 1.84920288e+02 1.85293594e+02 1.85321014e+02 1.85640579e+02 1.85812683e+02 1.85831451e+02 1.86478409e+02 1.86807983e+02 1.87003830e+02 1.87139145e+02 1.88532135e+02 1.88644470e+02 1.88787247e+02 1.89131348e+02 1.89806808e+02 1.90461685e+02 1.91231064e+02 1.93331100e+02 1.94235962e+02 1.94362045e+02 1.94610611e+02 1.94752441e+02 1.94878052e+02 1.95380508e+02 1.95433975e+02 1.95671997e+02 1.95786469e+02 1.97486984e+02 1.97759933e+02 1.97846008e+02 1.97884369e+02 1.97891785e+02 1.98734222e+02 1.99273392e+02 1.99534363e+02 1.99544525e+02 1.99694778e+02 1.99936279e+02 2.00039703e+02 2.00095688e+02 2.00995575e+02 2.01055832e+02 2.01400192e+02 2.01753708e+02 2.02559906e+02 2.03037827e+02 2.03473679e+02 2.04170410e+02 2.04377686e+02 2.04674393e+02 2.06793182e+02 2.07852692e+02 2.08519531e+02 2.08613739e+02 2.09569168e+02 2.10605301e+02 2.11121429e+02 2.11165726e+02 2.11528610e+02 2.12193542e+02 2.12464096e+02 2.13051193e+02 2.13087906e+02 2.13283707e+02 2.14033646e+02 2.15901718e+02 2.16152176e+02 2.16759415e+02 2.17905304e+02 2.18472733e+02 2.18611099e+02 2.18788284e+02 2.18866241e+02 2.19032867e+02 2.21199310e+02 2.22049881e+02 2.22968475e+02 2.23736923e+02 2.24162216e+02 2.24465149e+02 2.24771286e+02 2.24882690e+02 2.25948624e+02 2.25987610e+02 2.26785049e+02 2.27608292e+02 2.27689651e+02 2.28107040e+02 2.28169006e+02 2.28553909e+02 2.29149994e+02 2.30079330e+02 2.30298035e+02 2.31497513e+02 2.31538406e+02 2.33292603e+02 2.35328461e+02 2.36399689e+02 2.36454590e+02 2.37336578e+02 2.37638885e+02 2.38359253e+02 2.39436417e+02 2.39550415e+02 2.39577896e+02 2.40158310e+02 2.40233231e+02 2.40247131e+02 2.41298615e+02 2.41848404e+02 2.41945236e+02 2.43121674e+02 2.44187042e+02 2.44491013e+02 2.45260757e+02 2.46414749e+02 2.46592178e+02 2.46765457e+02 2.47024689e+02 2.47611420e+02 2.49660339e+02 2.50238815e+02 2.51955307e+02 2.52270035e+02 2.52777695e+02 2.56089661e+02 2.56230469e+02 2.56431091e+02 2.56598206e+02 2.56656006e+02 2.56788239e+02 2.59703918e+02 2.60917450e+02 2.61231201e+02 2.61383331e+02 2.61959290e+02 2.62310638e+02 2.62608856e+02 2.62860046e+02 2.63347870e+02 2.63387848e+02 2.63442688e+02 2.65382568e+02 2.66423615e+02 2.66490173e+02 2.68388336e+02 2.69107025e+02 2.69344604e+02 2.69915833e+02 2.70658691e+02 2.70778381e+02 2.70881805e+02 2.71476959e+02 2.72049652e+02 2.72600647e+02 2.73341339e+02 2.73582306e+02 2.74182434e+02 2.74450562e+02 2.75325317e+02 2.75779510e+02 2.77358337e+02 2.78001221e+02 2.79431702e+02 2.79995941e+02 2.81520935e+02 2.81630035e+02 2.82382904e+02 2.82735474e+02 2.82962402e+02 2.83024353e+02 2.83085114e+02 2.83733643e+02 2.85031769e+02 2.89801941e+02 2.91308563e+02 2.94165314e+02 2.94288116e+02 2.95803925e+02 2.96944794e+02 2.97140015e+02 2.99519806e+02 2.99858521e+02 3.00122864e+02 3.01320465e+02 3.03703552e+02 3.04037140e+02 3.06235107e+02 3.07497833e+02 3.13601044e+02 3.14629364e+02 3.15510895e+02 3.18567200e+02 3.19625885e+02 3.24849243e+02 3.26178101e+02 3.27565033e+02 3.28446838e+02 3.29917114e+02 3.35638428e+02 3.36304443e+02 3.37152466e+02 3.38897400e+02 3.39551056e+02 3.46099243e+02 3.48705505e+02 3.48750671e+02 3.49784790e+02 3.54297546e+02 3.55955017e+02 3.59420502e+02 3.59442047e+02 3.65309143e+02 3.70432861e+02 3.72310120e+02 3.73706177e+02 3.78603638e+02 3.87585327e+02 3.90112396e+02 3.90543030e+02 3.90739471e+02 3.93819550e+02 3.94799622e+02 3.95873993e+02 3.98753571e+02 4.06085907e+02 4.06248322e+02 4.07312195e+02 4.07493652e+02 4.08437714e+02 4.10955353e+02 4.16424103e+02 4.21996735e+02 4.31151337e+02 4.35056396e+02 4.51432465e+02 4.60854034e+02 4.64925415e+02 4.73469055e+02 4.73667938e+02 4.76317017e+02 4.82822601e+02 4.86408813e+02 4.93169708e+02 4.95441254e+02 5.05598206e+02 5.18480957e+02 5.57503357e+02 5.57562378e+02 5.85681641e+02 5.98482666e+02 6.02234253e+02 6.17065247e+02 6.28252502e+02 6.80911072e+02 6.96190125e+02 7.19770447e+02 8.64116882e+02 
            </HistogramBinning>
          </PDF>
        </CumulativePDF_cls0>
        <CumulativePDF_cls1>
          <PDF Name="GaussTransform var0 cls1" MinNSmooth="0" MaxNSmooth="0" InterpolMethod="1" KDE_type="0" KDE_iter="1" KDE_border="1" KDE_finefactor="0.0000000000000000e+00">
            <Histogram Name="Cumulative_Var0_cls1_original" NBins="867" XMin="3.0952943801879883e+01" XMax="8.7739605712890625e+02" HasEquidistantBins="0">
              0.00000000e+00 7.86831777e-04 1.82572729e-03 3.00178863e-03 3.96090979e-03 5.48209902e-03 7.87327718e-03 9.36006196e-03 1.00026624e-02 1.09520042e-02 1.21130906e-02 1.31242927e-02 1.39843524e-02 1.49634322e-02 1.66428853e-02 1.85967479e-02 1.96354203e-02 2.01900583e-02 2.09440105e-02 2.19211150e-02 2.29203403e-02 2.38093734e-02 2.47565657e-02 2.55978350e-02 2.63373554e-02 2.73680687e-02 2.86124367e-02 2.98453551e-02 3.11496202e-02 3.23341526e-02 3.35773900e-02 3.51552442e-02 3.64442728e-02 3.72423157e-02 3.82144935e-02 3.94408442e-02 4.05992009e-02 4.16313261e-02 4.27129865e-02 4.45088893e-02 4.65914421e-02 4.76864502e-02 4.84447815e-02 4.96795401e-02 5.07986173e-02 5.19734845e-02 5.38212135e-02 5.56252860e-02 5.70368059e-02 5.84616959e-02 5.95788062e-02 6.05104417e-02 6.16700538e-02 6.28875941e-02 6.41360134e-02 6.55131191e-02 6.69203624e-02 6.83282912e-02 6.95390031e-02 7.05778077e-02 7.16245472e-02 7.27683976e-02 7.40998462e-02 7.53400847e-02 7.62713701e-02 7.70761296e-02 7.79576153e-02 7.88730308e-02 7.98846483e-02 8.07605684e-02 8.13558251e-02 8.20845440e-02 8.29759017e-02 8.40616077e-02 8.52937773e-02 8.64602327e-02 8.75592679e-02 8.84018391e-02 8.91722217e-02 9.00617987e-02 9.09622386e-02 9.19716433e-02 9.30170417e-02 9.39211771e-02 9.47636142e-02 9.56384838e-02 9.67416689e-02 9.81486663e-02 9.93876681e-02 1.00524373e-01 1.01751767e-01 1.02718003e-01 1.03756368e-01 1.05115600e-01 1.06296882e-01 1.07294984e-01 1.08330362e-01 1.09356016e-01 1.10581927e-01 1.11995697e-01 1.13172762e-01 1.14246599e-01 1.15277670e-01 1.16005637e-01 1.16807938e-01 1.17864065e-01 1.18958011e-01 1.19969927e-01 1.20888174e-01 1.21945493e-01 1.22999191e-01 1.23188525e-01 1.25876620e-01 1.32001042e-01 1.35203376e-01 1.35762274e-01 1.37012824e-01 1.38385892e-01 1.39476717e-01 1.40234888e-01 1.40929297e-01 1.41896412e-01 1.43088669e-01 1.44203171e-01 1.45235166e-01 1.46187171e-01 1.46992356e-01 1.47656098e-01 1.48565173e-01 1.49799779e-01 1.50771424e-01 1.51625127e-01 1.52480915e-01 1.53098166e-01 1.54383436e-01 1.56389892e-01 1.57773301e-01 1.58711895e-01 1.59720123e-01 1.60632402e-01 1.61595583e-01 1.62677139e-01 1.63636461e-01 1.64712831e-01 1.65942043e-01 1.66782632e-01 1.67621195e-01 1.68693066e-01 1.69666097e-01 1.70768604e-01 1.72107518e-01 1.73318624e-01 1.74334645e-01 1.75321370e-01 1.76278755e-01 1.77166313e-01 1.78122759e-01 1.79148674e-01 1.80212438e-01 1.81514621e-01 1.82853833e-01 1.83905825e-01 1.84884816e-01 1.85799435e-01 1.86346978e-01 1.87425420e-01 1.89465031e-01 1.91197604e-01 1.92538485e-01 1.93946093e-01 1.95017099e-01 1.95827857e-01 1.96788356e-01 1.97759166e-01 1.98738515e-01 1.99908614e-01 2.00999305e-01 2.01991305e-01 2.02972084e-01 2.03977361e-01 2.04886049e-01 2.06686154e-01 2.09415644e-01 2.10899249e-01 2.11707741e-01 2.12789178e-01 2.14927793e-01 2.18233928e-01 2.20078230e-01 2.21020803e-01 2.22479388e-01 2.23661035e-01 2.24535674e-01 2.25619480e-01 2.26971790e-01 2.28123650e-01 2.29058683e-01 2.30199918e-01 2.31413677e-01 2.32441738e-01 2.33468875e-01 2.34644398e-01 2.35842705e-01 2.36506298e-01 2.37792224e-01 2.40367427e-01 2.42101058e-01 2.43133053e-01 2.44516268e-01 2.45808586e-01 2.46943712e-01 2.47941032e-01 2.48874515e-01 2.49953985e-01 2.50873178e-01 2.51490295e-01 2.52310365e-01 2.53350943e-01 2.54427910e-01 2.55501539e-01 2.56510824e-01 2.57533640e-01 2.58574128e-01 2.59567857e-01 2.60581046e-01 2.62251049e-01 2.64340580e-01 2.65161008e-01 2.68683285e-01 2.75850862e-01 2.79399604e-01 2.79974520e-01 2.80872881e-01 2.81767219e-01 2.82762349e-01 2.83722967e-01 2.84729570e-01 2.85965204e-01 2.87408739e-01 2.88619429e-01 2.89510399e-01 2.90313065e-01 2.91270256e-01 2.92287588e-01 2.93200880e-01 2.94209331e-01 2.95326263e-01 2.95679629e-01 2.98880577e-01 3.06055009e-01 3.09782684e-01 3.10126066e-01 3.10950726e-01 3.11817020e-01 3.12919736e-01 3.14175069e-01 3.15338016e-01 3.17263007e-01 3.19924891e-01 3.21814537e-01 3.22813392e-01 3.23719114e-01 3.24746937e-01 3.25949818e-01 3.27393621e-01 3.29502076e-01 3.31644297e-01 3.32805306e-01 3.33604753e-01 3.34968865e-01 3.36991072e-01 3.39050472e-01 3.40566099e-01 3.41353416e-01 3.42041165e-01 3.42852265e-01 3.43782961e-01 3.45066935e-01 3.46239954e-01 3.47179979e-01 3.47987950e-01 3.48912776e-01 3.50005031e-01 3.50970805e-01 3.51942658e-01 3.52958202e-01 3.53946000e-01 3.54810983e-01 3.55642051e-01 3.56773943e-01 3.58028919e-01 3.59365672e-01 3.60798687e-01 3.61948103e-01 3.62913728e-01 3.64041924e-01 3.65415573e-01 3.66697818e-01 3.67829025e-01 3.68985176e-01 3.70126426e-01 3.71311069e-01 3.72249365e-01 3.73339713e-01 3.74550283e-01 3.75162780e-01 3.75873387e-01 3.76983255e-01 3.78019065e-01 3.79004061e-01 3.80299956e-01 3.81704479e-01 3.82678390e-01 3.83619487e-01 3.84883791e-01 3.86216432e-01 3.87357235e-01 3.88365895e-01 3.89329225e-01 3.90239030e-01 3.91217053e-01 3.92220199e-01 3.93222272e-01 3.94094557e-01 3.94882560e-01 3.96181673e-01 3.97925705e-01 3.99332553e-01 4.00347561e-01 4.01327848e-01 4.02344435e-01 4.03431386e-01 4.04529154e-01 4.05602902e-01 4.06544447e-01 4.07456577e-01 4.08606857e-01 4.09748018e-01 4.10768986e-01 4.11762595e-01 4.12568271e-01 4.13257688e-01 4.14107412e-01 4.15048242e-01 4.16093767e-01 4.17171359e-01 4.17964607e-01 4.18537527e-01 4.19590443e-01 4.21345323e-01 4.22700167e-01 4.23493475e-01 4.24417078e-01 4.25500989e-01 4.26452219e-01 4.27216709e-01 4.28077132e-01 4.29006785e-01 4.30019766e-01 4.31101143e-01 4.32099134e-01 4.33062166e-01 4.34249967e-01 4.35692996e-01 4.37143087e-01 4.38537031e-01 4.39669579e-01 4.40661728e-01 4.41761076e-01 4.42803830e-01 4.43793207e-01 4.44854856e-01 4.45963144e-01 4.47043687e-01 4.48117793e-01 4.49636936e-01 4.51475143e-01 4.52603459e-01 4.53343272e-01 4.54516321e-01 4.55767810e-01 4.56818014e-01 4.57861453e-01 4.59043682e-01 4.59941864e-01 4.61251259e-01 4.63579953e-01 4.65113550e-01 4.65715915e-01 4.66636270e-01 4.67784852e-01 4.68809038e-01 4.69627768e-01 4.70555365e-01 4.71723437e-01 4.72876459e-01 4.73838896e-01 4.74716425e-01 4.75678176e-01 4.76698965e-01 4.77816343e-01 4.78908837e-01 4.80013281e-01 4.81409878e-01 4.82744247e-01 4.83832657e-01 4.84943658e-01 4.85971004e-01 4.87337679e-01 4.89399016e-01 4.91110802e-01 4.92221355e-01 4.93248612e-01 4.94197518e-01 4.95103061e-01 4.95977074e-01 4.96883750e-01 4.97820973e-01 4.98818547e-01 4.99790013e-01 5.00640750e-01 5.01995742e-01 5.03684759e-01 5.04715621e-01 5.05509138e-01 5.06519675e-01 5.07583559e-01 5.08558095e-01 5.09433568e-01 5.10506809e-01 5.11578560e-01 5.12499213e-01 5.13515770e-01 5.14489710e-01 5.15115201e-01 5.15721679e-01 5.16901135e-01 5.18270195e-01 5.19325018e-01 5.20474792e-01 5.21665514e-01 5.22764266e-01 5.24191797e-01 5.25697887e-01 5.26810467e-01 5.27724028e-01 5.28734982e-01 5.29825449e-01 5.30802131e-01 5.32121062e-01 5.33801377e-01 5.34800708e-01 5.35400271e-01 5.36222637e-01 5.36985874e-01 5.37660480e-01 5.38273811e-01 5.39256513e-01 5.40825963e-01 5.42361736e-01 5.43744087e-01 5.45027554e-01 5.45982301e-01 5.46737850e-01 5.47623217e-01 5.48633099e-01 5.49630582e-01 5.50674319e-01 5.51720381e-01 5.52608430e-01 5.53452313e-01 5.54779828e-01 5.56526005e-01 5.57865202e-01 5.58898509e-01 5.59789360e-01 5.60618937e-01 5.62041998e-01 5.63482344e-01 5.64317226e-01 5.65262854e-01 5.66501915e-01 5.67578018e-01 5.68440259e-01 5.69239795e-01 5.70097983e-01 5.70947409e-01 5.71810067e-01 5.72832286e-01 5.73905885e-01 5.74955583e-01 5.75912952e-01 5.76818168e-01 5.77736437e-01 5.78594446e-01 5.79526126e-01 5.80634534e-01 5.81927478e-01 5.83110452e-01 5.84127009e-01 5.85222363e-01 5.86151958e-01 5.86940765e-01 5.87908089e-01 5.89079857e-01 5.90255558e-01 5.91283560e-01 5.92310667e-01 5.93394816e-01 5.94453156e-01 5.95433414e-01 5.96616328e-01 5.97995281e-01 5.99040389e-01 5.99905729e-01 6.00641310e-01 6.03801727e-01 6.09374344e-01 6.12266243e-01 6.13131762e-01 6.14256561e-01 6.15240276e-01 6.16253495e-01 6.17211640e-01 6.18177235e-01 6.19319320e-01 6.20342493e-01 6.21135175e-01 6.22044146e-01 6.23063266e-01 6.24078512e-01 6.25079274e-01 6.26108050e-01 6.27015233e-01 6.27679646e-01 6.28325284e-01 6.29071116e-01 6.30137801e-01 6.31364942e-01 6.32310987e-01 6.33121669e-01 6.33852363e-01 6.34561896e-01 6.35520875e-01 6.36537015e-01 6.37380183e-01 6.38261616e-01 6.39282227e-01 6.40331089e-01 6.41317785e-01 6.42339170e-01 6.43413663e-01 6.44365430e-01 6.45102501e-01 6.46262109e-01 6.48287714e-01 6.50032461e-01 6.50950253e-01 6.51753545e-01 6.52682662e-01 6.53523803e-01 6.54341340e-01 6.55299962e-01 6.56294167e-01 6.57260597e-01 6.58473313e-01 6.59853101e-01 6.60976231e-01 6.61979377e-01 6.63045645e-01 6.64047718e-01 6.65060043e-01 6.65978968e-01 6.66742086e-01 6.67690039e-01 6.68827713e-01 6.69920385e-01 6.70888484e-01 6.71814561e-01 6.72769487e-01 6.73721552e-01 6.74617827e-01 6.75591648e-01 6.76531553e-01 6.77274883e-01 6.78141117e-01 6.79138362e-01 6.80086851e-01 6.80883050e-01 6.81402683e-01 6.82253301e-01 6.83855712e-01 6.85274780e-01 6.86079264e-01 6.86911345e-01 6.88013434e-01 6.88969195e-01 6.89708412e-01 6.90466225e-01 6.91278756e-01 6.92205369e-01 6.93026543e-01 6.93812549e-01 6.94833934e-01 6.95976496e-01 6.97081268e-01 6.98047400e-01 6.98779881e-01 6.98906302e-01 7.01979458e-01 7.08441257e-01 7.11659849e-01 7.12200224e-01 7.13136494e-01 7.13920772e-01 7.15382516e-01 7.17420280e-01 7.18641698e-01 7.19861209e-01 7.21848369e-01 7.23290622e-01 7.24123657e-01 7.25698054e-01 7.28039443e-01 7.29602396e-01 7.30611801e-01 7.31964886e-01 7.33210802e-01 7.34193683e-01 7.35153437e-01 7.36171067e-01 7.37161040e-01 7.37905681e-01 7.38629699e-01 7.39514112e-01 7.40374148e-01 7.41308033e-01 7.42430210e-01 7.43730664e-01 7.44958162e-01 7.46105194e-01 7.47223794e-01 7.48156190e-01 7.49092817e-01 7.50063896e-01 7.51112103e-01 7.52535284e-01 7.53952622e-01 7.54771471e-01 7.55305827e-01 7.55995333e-01 7.57030427e-01 7.58078516e-01 7.58719742e-01 7.59597898e-01 7.61441648e-01 7.63616502e-01 7.65028238e-01 7.66581237e-01 7.68618882e-01 7.69813538e-01 7.70489216e-01 7.71409929e-01 7.72391379e-01 7.73339331e-01 7.74349570e-01 7.75360942e-01 7.76236773e-01 7.77109563e-01 7.78012514e-01 7.78867781e-01 7.79794991e-01 7.80682802e-01 7.81496525e-01 7.82464445e-01 7.83661067e-01 7.84783781e-01 7.85546660e-01 7.86275864e-01 7.87314773e-01 7.88302779e-01 7.89274752e-01 7.90357053e-01 7.91216493e-01 7.92088985e-01 7.93056786e-01 7.93917060e-01 7.94642210e-01 7.95598030e-01 7.96915054e-01 7.98141122e-01 7.99338698e-01 8.00632596e-01 8.01734507e-01 8.02760899e-01 8.04116905e-01 8.05560648e-01 8.06727827e-01 8.07590067e-01 8.08466554e-01 8.09731841e-01 8.11005890e-01 8.11990201e-01 8.13039303e-01 8.14157367e-01 8.15193534e-01 8.16427767e-01 8.17724705e-01 8.18910301e-01 8.20017815e-01 8.20990682e-01 8.21917653e-01 8.22856069e-01 8.23882520e-01 8.24995875e-01 8.26208711e-01 8.27570200e-01 8.28795850e-01 8.29712093e-01 8.30965281e-01 8.32676947e-01 8.33903551e-01 8.34498584e-01 8.35077107e-01 8.35955977e-01 8.37157786e-01 8.38584483e-01 8.39963615e-01 8.41125906e-01 8.42059731e-01 8.42720389e-01 8.43419254e-01 8.44409823e-01 8.45333517e-01 8.46046329e-01 8.46852064e-01 8.47795844e-01 8.49060416e-01 8.50752115e-01 8.52330148e-01 8.53376806e-01 8.54678810e-01 8.56408298e-01 8.58221769e-01 8.60370517e-01 8.61860871e-01 8.62797379e-01 8.64134252e-01 8.65971327e-01 8.68013561e-01 8.69374156e-01 8.70365679e-01 8.71570706e-01 8.72641444e-01 8.73810053e-01 8.75101626e-01 8.76431108e-01 8.78132463e-01 8.79395962e-01 8.79401565e-01 8.82628679e-01 8.89752269e-01 8.93107772e-01 8.93296778e-01 8.94259810e-01 8.95407081e-01 8.96606326e-01 8.97597790e-01 8.98268342e-01 8.99118662e-01 9.00283337e-01 9.01170015e-01 9.01739359e-01 9.02507126e-01 9.03445959e-01 9.04284060e-01 9.05301332e-01 9.06545699e-01 9.07571673e-01 9.08410609e-01 9.09199476e-01 9.10404563e-01 9.12339628e-01 9.13960457e-01 9.15019989e-01 9.16057467e-01 9.16925013e-01 9.17988360e-01 9.19215620e-01 9.19971108e-01 9.20783162e-01 9.21841443e-01 9.22787607e-01 9.23672080e-01 9.24540699e-01 9.25406516e-01 9.26126540e-01 9.26751971e-01 9.27519083e-01 9.28403795e-01 9.29295242e-01 9.30396736e-01 9.31719124e-01 9.33000028e-01 9.34017658e-01 9.34821904e-01 9.35867488e-01 9.37289000e-01 9.38663542e-01 9.39959168e-01 9.41221535e-01 9.42164660e-01 9.43069458e-01 9.44086313e-01 9.45054948e-01 9.46045876e-01 9.47220325e-01 9.48485076e-01 9.49548423e-01 9.50485289e-01 9.51336145e-01 9.52173948e-01 9.53176379e-01 9.54258204e-01 9.55331087e-01 9.56281722e-01 9.56980586e-01 9.57662404e-01 9.59083080e-01 9.60953057e-01 9.61980999e-01 9.62513804e-01 9.63501990e-01 9.64753151e-01 9.65854347e-01 9.66846168e-01 9.67771530e-01 9.68493879e-01 9.69230711e-01 9.70166206e-01 9.71313953e-01 9.72860396e-01 9.74366128e-01 9.75265980e-01 9.75963235e-01 9.76814151e-01 9.77744937e-01 9.78829801e-01 9.79812384e-01 9.80306506e-01 9.81320679e-01 9.83333468e-01 9.84805226e-01 9.85446274e-01 9.86161292e-01 9.87099230e-01 9.88140643e-01 9.89131629e-01 9.90549266e-01 9.92290914e-01 9.93637562e-01 9.94954705e-01 9.96189237e-01 9.97128725e-01 9.98021364e-01 9.99007821e-01 1.00000000e+00 
            </Histogram>
            <HistogramBinning NBins="867">
              3.09529438e+01 3.09530430e+01 3.37005539e+01 3.37066612e+01 3.38920784e+01 3.56195984e+01 3.57508507e+01 3.58292427e+01 3.68010979e+01 3.80122757e+01 3.89095535e+01 3.90702057e+01 3.93055382e+01 3.95000496e+01 3.96272697e+01 3.98366623e+01 4.01430321e+01 4.05658226e+01 4.06651802e+01 4.09904327e+01 4.09965744e+01 4.11033096e+01 4.13120995e+01 4.13522644e+01 4.13876343e+01 4.15487747e+01 4.16143990e+01 4.17118683e+01 4.17809677e+01 4.21864624e+01 4.22823944e+01 4.23589058e+01 4.25028458e+01 4.27451248e+01 4.28548927e+01 4.31030350e+01 4.34641991e+01 4.34878387e+01 4.46077995e+01 4.46553078e+01 4.50124435e+01 4.56363449e+01 4.57694321e+01 4.60871010e+01 4.60931168e+01 4.61380882e+01 4.61503067e+01 4.64734459e+01 4.67239189e+01 4.68004379e+01 4.69013481e+01 4.69136658e+01 4.69602127e+01 4.70046043e+01 4.72509880e+01 4.74085350e+01 4.75808258e+01 4.75892487e+01 4.75969810e+01 4.76039085e+01 4.78292847e+01 4.81352997e+01 4.82433319e+01 4.86929932e+01 4.91489143e+01 4.94033585e+01 4.95376740e+01 4.95429955e+01 4.98470612e+01 5.00937653e+01 5.07521935e+01 5.08967896e+01 5.09489899e+01 5.10058937e+01 5.11294022e+01 5.17659569e+01 5.20424919e+01 5.23741493e+01 5.27134552e+01 5.27208633e+01 5.28843803e+01 5.34525146e+01 5.36615181e+01 5.37013550e+01 5.37739525e+01 5.37923126e+01 5.38741684e+01 5.39763680e+01 5.40562630e+01 5.41708794e+01 5.42283859e+01 5.42323532e+01 5.43849678e+01 5.46744423e+01 5.47438278e+01 5.47810898e+01 5.47891808e+01 5.47916870e+01 5.48923836e+01 5.49463997e+01 5.52203255e+01 5.53382530e+01 5.57168198e+01 5.58960953e+01 5.59260025e+01 5.62888298e+01 5.63965073e+01 5.64279366e+01 5.64633102e+01 5.65067062e+01 5.66197052e+01 5.66842117e+01 5.67211571e+01 5.68958511e+01 5.72912025e+01 5.73893890e+01 5.74313622e+01 5.74701843e+01 5.76809578e+01 5.79230690e+01 5.80296669e+01 5.80477066e+01 5.81723366e+01 5.86216698e+01 5.86712189e+01 5.88547401e+01 5.90784836e+01 5.91305046e+01 5.92355347e+01 5.92699966e+01 5.93226852e+01 5.94518089e+01 5.94783859e+01 5.96444168e+01 5.96758652e+01 5.97012177e+01 5.97261009e+01 5.97802620e+01 5.98871384e+01 5.99677696e+01 6.00925255e+01 6.01808701e+01 6.02841454e+01 6.04594269e+01 6.04629784e+01 6.07837410e+01 6.07913971e+01 6.09162788e+01 6.09344826e+01 6.09880753e+01 6.10177116e+01 6.13177757e+01 6.13416557e+01 6.18344879e+01 6.18354950e+01 6.20306816e+01 6.20950356e+01 6.22096367e+01 6.23822632e+01 6.26303139e+01 6.33411255e+01 6.37063141e+01 6.37707329e+01 6.37818031e+01 6.38994827e+01 6.41861343e+01 6.43243561e+01 6.43683090e+01 6.48322220e+01 6.54558792e+01 6.55952454e+01 6.56816940e+01 6.57961655e+01 6.58762131e+01 6.61561356e+01 6.61694946e+01 6.63196564e+01 6.64134293e+01 6.64427032e+01 6.64437637e+01 6.65616455e+01 6.65743637e+01 6.66363449e+01 6.66804199e+01 6.66853256e+01 6.70429077e+01 6.70537949e+01 6.71062088e+01 6.71418533e+01 6.72049942e+01 6.72207413e+01 6.73925629e+01 6.74009171e+01 6.74751892e+01 6.75658493e+01 6.76540070e+01 6.80159760e+01 6.81802979e+01 6.86079025e+01 6.87084045e+01 6.87103043e+01 6.87128677e+01 6.89862061e+01 6.90433426e+01 6.93117218e+01 6.93380356e+01 6.95093155e+01 6.97059097e+01 6.98836594e+01 7.02477112e+01 7.04246368e+01 7.07369232e+01 7.07491531e+01 7.11714325e+01 7.12660675e+01 7.15919876e+01 7.17478714e+01 7.20105820e+01 7.20969925e+01 7.21693039e+01 7.22232971e+01 7.22665482e+01 7.22976913e+01 7.23710480e+01 7.28032990e+01 7.28688583e+01 7.29387589e+01 7.30509567e+01 7.30623245e+01 7.32391357e+01 7.34737701e+01 7.36048279e+01 7.37878723e+01 7.38911438e+01 7.40340195e+01 7.42388611e+01 7.43783035e+01 7.43787766e+01 7.44082870e+01 7.44270020e+01 7.48185043e+01 7.49888687e+01 7.52468338e+01 7.53569489e+01 7.53879318e+01 7.55621414e+01 7.56623535e+01 7.59836426e+01 7.62025223e+01 7.64031830e+01 7.65364838e+01 7.67423859e+01 7.67690277e+01 7.69500809e+01 7.71186829e+01 7.71953049e+01 7.72873611e+01 7.74055023e+01 7.75471497e+01 7.78780212e+01 7.79612732e+01 7.80574493e+01 7.81836777e+01 7.82133713e+01 7.82274170e+01 7.82461929e+01 7.85221100e+01 7.87399902e+01 7.87732468e+01 7.87905045e+01 7.89505768e+01 7.90280685e+01 7.90366974e+01 7.93303833e+01 7.95429611e+01 7.96246262e+01 7.96273575e+01 7.97449646e+01 7.98247070e+01 7.98658905e+01 7.99683456e+01 7.99908066e+01 8.00625916e+01 8.00752792e+01 8.01605682e+01 8.03016205e+01 8.04077606e+01 8.04376068e+01 8.08825378e+01 8.10159607e+01 8.15256577e+01 8.18972321e+01 8.19569397e+01 8.20393448e+01 8.24114380e+01 8.27881927e+01 8.30091400e+01 8.34748077e+01 8.36092300e+01 8.36274643e+01 8.40726013e+01 8.40996933e+01 8.41819839e+01 8.43518982e+01 8.45121918e+01 8.46828995e+01 8.47978973e+01 8.50331345e+01 8.51298065e+01 8.52607498e+01 8.56186905e+01 8.58387680e+01 8.63144989e+01 8.65515289e+01 8.65648651e+01 8.69003525e+01 8.71307373e+01 8.71343155e+01 8.71748123e+01 8.72335968e+01 8.72368469e+01 8.72928619e+01 8.73011246e+01 8.73411026e+01 8.75716324e+01 8.77018967e+01 8.77945633e+01 8.79655914e+01 8.81712036e+01 8.82731781e+01 8.86100616e+01 8.86225662e+01 8.87568817e+01 8.89544983e+01 8.91293945e+01 8.91982193e+01 8.92076797e+01 8.92530975e+01 8.94382095e+01 8.96451797e+01 8.97091141e+01 8.99779053e+01 8.99961395e+01 9.01037521e+01 9.03259430e+01 9.03308563e+01 9.03518295e+01 9.04269638e+01 9.04650955e+01 9.09987946e+01 9.12412338e+01 9.12536545e+01 9.17144470e+01 9.19142151e+01 9.20252380e+01 9.20261002e+01 9.21952133e+01 9.23176117e+01 9.25718994e+01 9.28554611e+01 9.30173187e+01 9.30233154e+01 9.31233368e+01 9.31760025e+01 9.33545685e+01 9.34454880e+01 9.35037384e+01 9.40862274e+01 9.40885162e+01 9.40958176e+01 9.41068649e+01 9.43020248e+01 9.44844360e+01 9.47278519e+01 9.51037369e+01 9.57497330e+01 9.58016739e+01 9.62115860e+01 9.62260971e+01 9.64925003e+01 9.66647186e+01 9.68203506e+01 9.68902359e+01 9.69640274e+01 9.72893448e+01 9.72956390e+01 9.73591385e+01 9.77820663e+01 9.78267441e+01 9.78351135e+01 9.79252548e+01 9.79405823e+01 9.80777130e+01 9.81539993e+01 9.81846313e+01 9.86079712e+01 9.86176224e+01 9.86392822e+01 9.90571442e+01 9.90885086e+01 9.92255249e+01 9.93529282e+01 9.94526291e+01 9.99119339e+01 9.99508896e+01 1.00042587e+02 1.00337776e+02 1.00567871e+02 1.00679512e+02 1.00701591e+02 1.00763428e+02 1.00953445e+02 1.01208740e+02 1.01260338e+02 1.01599571e+02 1.02303085e+02 1.02345406e+02 1.02569885e+02 1.02785469e+02 1.02900360e+02 1.02981064e+02 1.03090675e+02 1.03152534e+02 1.03233139e+02 1.03293442e+02 1.03431122e+02 1.03590996e+02 1.03670158e+02 1.04028305e+02 1.04063858e+02 1.04163811e+02 1.04186684e+02 1.04413330e+02 1.04414940e+02 1.04500885e+02 1.04530197e+02 1.04551483e+02 1.04721901e+02 1.04729324e+02 1.05092163e+02 1.05178276e+02 1.05484383e+02 1.05894699e+02 1.05895752e+02 1.05908974e+02 1.05939667e+02 1.05970741e+02 1.06185661e+02 1.06544273e+02 1.06562981e+02 1.06715363e+02 1.06790100e+02 1.06817833e+02 1.06867744e+02 1.07283333e+02 1.07425980e+02 1.07430084e+02 1.07432961e+02 1.07818657e+02 1.08044266e+02 1.09418213e+02 1.09535538e+02 1.09651039e+02 1.09688049e+02 1.09741379e+02 1.09868271e+02 1.09933205e+02 1.10186798e+02 1.10403038e+02 1.10455788e+02 1.10586868e+02 1.10681274e+02 1.10749039e+02 1.10827461e+02 1.10955437e+02 1.11338737e+02 1.11402016e+02 1.12096245e+02 1.12367653e+02 1.12777473e+02 1.12802963e+02 1.12969055e+02 1.13222702e+02 1.13231857e+02 1.13232399e+02 1.13236542e+02 1.13300476e+02 1.13501518e+02 1.13620178e+02 1.13801712e+02 1.13866013e+02 1.14120087e+02 1.14289932e+02 1.14562302e+02 1.14578629e+02 1.14676918e+02 1.14706703e+02 1.14803505e+02 1.14851257e+02 1.14985023e+02 1.15034233e+02 1.15131302e+02 1.15246307e+02 1.15474564e+02 1.15482857e+02 1.15503670e+02 1.15875305e+02 1.15947754e+02 1.16702133e+02 1.16741699e+02 1.16765900e+02 1.16816116e+02 1.16871429e+02 1.17047409e+02 1.17131042e+02 1.17214554e+02 1.17283768e+02 1.17377419e+02 1.17416718e+02 1.18068398e+02 1.18183212e+02 1.18293350e+02 1.18341843e+02 1.18452232e+02 1.18483917e+02 1.18508232e+02 1.18693794e+02 1.18745827e+02 1.18796135e+02 1.19065712e+02 1.19272964e+02 1.19335251e+02 1.19402039e+02 1.19481506e+02 1.19905853e+02 1.19956543e+02 1.20163101e+02 1.20498108e+02 1.20748520e+02 1.20870735e+02 1.21284683e+02 1.21376099e+02 1.21447876e+02 1.21572586e+02 1.21824280e+02 1.22274567e+02 1.22520615e+02 1.22680801e+02 1.22724831e+02 1.22972267e+02 1.22981094e+02 1.23346245e+02 1.24783455e+02 1.24966660e+02 1.25086800e+02 1.25328804e+02 1.25475769e+02 1.26024841e+02 1.26157372e+02 1.26454208e+02 1.26723038e+02 1.26784157e+02 1.26848251e+02 1.27090454e+02 1.27112694e+02 1.27240692e+02 1.27409760e+02 1.27920830e+02 1.28202698e+02 1.28463226e+02 1.28749649e+02 1.28775162e+02 1.28794067e+02 1.29222458e+02 1.29314972e+02 1.29577469e+02 1.29774796e+02 1.29857986e+02 1.29900894e+02 1.29911713e+02 1.30086319e+02 1.30258514e+02 1.30291321e+02 1.30912048e+02 1.30948181e+02 1.30998077e+02 1.31259552e+02 1.31367157e+02 1.31504196e+02 1.31927368e+02 1.32347412e+02 1.32441711e+02 1.32484985e+02 1.33518768e+02 1.33535736e+02 1.33559174e+02 1.33642944e+02 1.33767517e+02 1.34028915e+02 1.34713333e+02 1.34742538e+02 1.35716904e+02 1.35911697e+02 1.35964508e+02 1.36070953e+02 1.36176300e+02 1.37140762e+02 1.37261032e+02 1.37284027e+02 1.37642670e+02 1.37687271e+02 1.38161789e+02 1.38225464e+02 1.38371964e+02 1.38397446e+02 1.38499466e+02 1.38628693e+02 1.38758286e+02 1.38834976e+02 1.38837769e+02 1.38912598e+02 1.39056137e+02 1.39258698e+02 1.39435715e+02 1.39896957e+02 1.39999710e+02 1.40258881e+02 1.40398209e+02 1.40743210e+02 1.40915710e+02 1.41164001e+02 1.41181839e+02 1.41357605e+02 1.41500397e+02 1.42320572e+02 1.42658340e+02 1.42743576e+02 1.43529785e+02 1.43640472e+02 1.44045593e+02 1.44105560e+02 1.44151566e+02 1.44439423e+02 1.44849258e+02 1.44990433e+02 1.45225586e+02 1.45247910e+02 1.45301041e+02 1.45599213e+02 1.45673691e+02 1.45884918e+02 1.45948669e+02 1.46288040e+02 1.46326492e+02 1.46747849e+02 1.46784729e+02 1.47047134e+02 1.47725281e+02 1.48344284e+02 1.48381104e+02 1.48396744e+02 1.48794815e+02 1.48899612e+02 1.48967163e+02 1.49164337e+02 1.49350449e+02 1.49386612e+02 1.49760681e+02 1.49783707e+02 1.49894287e+02 1.50128784e+02 1.50195526e+02 1.50337326e+02 1.50772736e+02 1.50988968e+02 1.51145416e+02 1.51494873e+02 1.51518402e+02 1.52199280e+02 1.52394302e+02 1.53040924e+02 1.53543106e+02 1.53598618e+02 1.54130814e+02 1.54209702e+02 1.54476547e+02 1.54760712e+02 1.54864868e+02 1.55114960e+02 1.55154922e+02 1.55366898e+02 1.55760696e+02 1.55958679e+02 1.56239899e+02 1.56791443e+02 1.57623840e+02 1.58784088e+02 1.59279358e+02 1.59597214e+02 1.59673584e+02 1.59744324e+02 1.59897415e+02 1.60189270e+02 1.60239075e+02 1.60722031e+02 1.60822021e+02 1.60982574e+02 1.61247696e+02 1.61354553e+02 1.62025528e+02 1.62126938e+02 1.62485626e+02 1.63067795e+02 1.64038742e+02 1.64227600e+02 1.64412292e+02 1.65705124e+02 1.67607773e+02 1.68097107e+02 1.68546967e+02 1.68939377e+02 1.69371185e+02 1.69499054e+02 1.70344971e+02 1.71199371e+02 1.71450241e+02 1.71667343e+02 1.73359634e+02 1.73707382e+02 1.73946732e+02 1.74637817e+02 1.75446579e+02 1.76224442e+02 1.76292252e+02 1.76488495e+02 1.77457535e+02 1.78700974e+02 1.79376511e+02 1.79761932e+02 1.79798187e+02 1.81019531e+02 1.81100967e+02 1.81121674e+02 1.81210953e+02 1.81453232e+02 1.81907440e+02 1.81976944e+02 1.82548782e+02 1.84470703e+02 1.84812317e+02 1.84890854e+02 1.85040527e+02 1.85447952e+02 1.87322861e+02 1.87391846e+02 1.87729401e+02 1.88831711e+02 1.88937378e+02 1.88954437e+02 1.89959381e+02 1.90059937e+02 1.90498062e+02 1.91176239e+02 1.91477371e+02 1.92073547e+02 1.92780777e+02 1.93757584e+02 1.93821793e+02 1.94261948e+02 1.94941681e+02 1.96111633e+02 1.96248520e+02 1.96504654e+02 1.96736374e+02 1.98646667e+02 1.98681229e+02 2.00210632e+02 2.00286957e+02 2.00303955e+02 2.00977005e+02 2.01852142e+02 2.02792084e+02 2.02988602e+02 2.03231873e+02 2.05245575e+02 2.06129791e+02 2.06497833e+02 2.07069214e+02 2.07770844e+02 2.08724258e+02 2.09339111e+02 2.09577744e+02 2.09734497e+02 2.10272476e+02 2.10391129e+02 2.10402573e+02 2.10427414e+02 2.11053467e+02 2.11486053e+02 2.12276810e+02 2.13723175e+02 2.13981812e+02 2.15313828e+02 2.19732864e+02 2.19877548e+02 2.20133957e+02 2.20158386e+02 2.20477615e+02 2.20609848e+02 2.24595566e+02 2.25055359e+02 2.28983719e+02 2.32902893e+02 2.33689301e+02 2.35198563e+02 2.35386520e+02 2.38643311e+02 2.39492279e+02 2.40983627e+02 2.41613113e+02 2.41638153e+02 2.41763336e+02 2.44055267e+02 2.45064804e+02 2.45384857e+02 2.47161743e+02 2.47271667e+02 2.48386185e+02 2.48662521e+02 2.54215363e+02 2.56205902e+02 2.57344543e+02 2.58482422e+02 2.60087982e+02 2.61344696e+02 2.61504578e+02 2.68522095e+02 2.74423920e+02 2.74562103e+02 2.75198975e+02 2.81029572e+02 2.82594086e+02 2.91484741e+02 2.91558746e+02 2.97209625e+02 3.03334717e+02 3.03968384e+02 3.07220612e+02 3.15796661e+02 3.21746399e+02 3.24591797e+02 3.27536957e+02 3.28139954e+02 3.32738892e+02 3.37871185e+02 3.39289703e+02 3.55346710e+02 3.59516357e+02 3.62606812e+02 3.83619263e+02 4.31316406e+02 4.36819672e+02 4.78922546e+02 5.07626862e+02 5.17470215e+02 5.42778625e+02 6.72270996e+02 8.77396057e+02 
            </HistogramBinning>
          </PDF>
        </CumulativePDF_cls1>
        <CumulativePDF_cls2>
          <PDF Name="GaussTransform var0 cls2" MinNSmooth="0" MaxNSmooth="0" InterpolMethod="1" KDE_type="0" KDE_iter="1" KDE_border="1" KDE_finefactor="0.0000000000000000e+00">
            <Histogram Name="Cumulative_Var0_cls2_original" NBins="1338" XMin="3.0952943801879883e+01" XMax="8.7739605712890625e+02" HasEquidistantBins="0">
              0.00000000e+00 3.93490773e-04 9.13037453e-04 1.49855088e-03 2.05345149e-03 2.54805572e-03 3.16738663e-03 4.20460617e-03 5.42881340e-03 6.38405047e-03 7.31034297e-03 8.41220655e-03 9.18951165e-03 9.51615814e-03 1.01912441e-02 1.13077536e-02 1.22365905e-02 1.29111689e-02 1.34455105e-02 1.40467966e-02 1.47818075e-02 1.55253392e-02 1.62452776e-02 1.67259835e-02 1.73692647e-02 1.82963163e-02 1.88798867e-02 1.93612184e-02 2.00172942e-02 2.05798466e-02 2.12868620e-02 2.24248897e-02 2.35832315e-02 2.43156478e-02 2.47417931e-02 2.52199955e-02 2.58157123e-02 2.64527667e-02 2.70463675e-02 2.75762007e-02 2.80804895e-02 2.87443958e-02 2.96615530e-02 3.07017826e-02 3.17089818e-02 3.25136892e-02 3.33493501e-02 3.41603905e-02 3.47938165e-02 3.54348123e-02 3.59824449e-02 3.65881696e-02 3.73899713e-02 3.82060297e-02 3.91422249e-02 4.02048230e-02 4.10491414e-02 4.15861681e-02 4.21084948e-02 4.26710360e-02 4.31717150e-02 4.37270887e-02 4.45826687e-02 4.53700498e-02 4.57984731e-02 4.63523455e-02 4.71168570e-02 4.79071848e-02 4.85450104e-02 4.90594730e-02 4.95910831e-02 5.02652340e-02 5.11353910e-02 5.19398712e-02 5.26052266e-02 5.33804856e-02 5.41167259e-02 5.46102598e-02 5.53340241e-02 5.63657694e-02 5.73956780e-02 5.83134927e-02 5.90531267e-02 5.96648939e-02 6.02061041e-02 6.08081594e-02 6.17434606e-02 6.26160428e-02 6.30197376e-02 6.34072721e-02 6.39432371e-02 6.45593330e-02 6.55098334e-02 6.66941330e-02 6.76934496e-02 6.84117004e-02 6.89067021e-02 6.94927052e-02 7.03822151e-02 7.13628381e-02 7.22161606e-02 7.29190260e-02 7.35755339e-02 7.43476972e-02 7.51067922e-02 7.55440593e-02 7.59715363e-02 7.64897987e-02 7.71674290e-02 7.80679360e-02 7.87084624e-02 7.92092085e-02 7.98750743e-02 8.07051808e-02 8.14990252e-02 8.22069943e-02 8.29804763e-02 8.38314667e-02 8.47456530e-02 8.53994861e-02 8.60149637e-02 8.67938548e-02 8.75216946e-02 8.82228315e-02 8.89430344e-02 8.97809342e-02 9.04390365e-02 9.10458565e-02 9.19389129e-02 9.27473456e-02 9.33066830e-02 9.39496383e-02 9.46567506e-02 9.49192494e-02 9.64335278e-02 9.96050537e-02 1.01328433e-01 1.01695694e-01 1.02210574e-01 1.02844760e-01 1.03627019e-01 1.04375742e-01 1.05217107e-01 1.06321737e-01 1.07386686e-01 1.08169429e-01 1.08772747e-01 1.09391198e-01 1.10032827e-01 1.10592574e-01 1.11110672e-01 1.11604065e-01 1.12187423e-01 1.13090768e-01 1.13925353e-01 1.14550017e-01 1.15478776e-01 1.16513856e-01 1.17189661e-01 1.18043408e-01 1.19299188e-01 1.20252348e-01 1.20957017e-01 1.21567301e-01 1.22053601e-01 1.22670017e-01 1.23532742e-01 1.24374539e-01 1.25162378e-01 1.26080379e-01 1.26732886e-01 1.27301246e-01 1.28175080e-01 1.28982067e-01 1.29533485e-01 1.30016655e-01 1.30677223e-01 1.31470218e-01 1.32068530e-01 1.32702217e-01 1.33517012e-01 1.34117678e-01 1.34722292e-01 1.35678411e-01 1.36610076e-01 1.37241155e-01 1.37831390e-01 1.38543546e-01 1.39233455e-01 1.40002459e-01 1.40840471e-01 1.41441256e-01 1.41920686e-01 1.42435908e-01 1.43021956e-01 1.43766701e-01 1.44930080e-01 1.46421880e-01 1.47494346e-01 1.48038894e-01 1.48602337e-01 1.49411306e-01 1.50158197e-01 1.50773644e-01 1.51545048e-01 1.52380377e-01 1.52999401e-01 1.53652310e-01 1.54336706e-01 1.54854760e-01 1.55607045e-01 1.56339049e-01 1.56969920e-01 1.57732487e-01 1.58380598e-01 1.59630850e-01 1.61459252e-01 1.62600562e-01 1.63093880e-01 1.64140135e-01 1.65778726e-01 1.66873232e-01 1.67652860e-01 1.68617964e-01 1.69507280e-01 1.70300066e-01 1.71132267e-01 1.71905592e-01 1.72453120e-01 1.73108891e-01 1.73970848e-01 1.74642175e-01 1.75153553e-01 1.75711274e-01 1.76272482e-01 1.76992595e-01 1.78056374e-01 1.79078043e-01 1.79740235e-01 1.80353224e-01 1.81012750e-01 1.82153881e-01 1.83748275e-01 1.84682310e-01 1.85114607e-01 1.85692489e-01 1.86457410e-01 1.87264204e-01 1.87899634e-01 1.88445538e-01 1.88987985e-01 1.89547092e-01 1.90120235e-01 1.90766066e-01 1.91691518e-01 1.92714065e-01 1.93379223e-01 1.93958953e-01 1.94581226e-01 1.95080638e-01 1.95676684e-01 1.96464032e-01 1.97280213e-01 1.97890088e-01 1.98671028e-01 1.99586973e-01 2.00350761e-01 2.01130897e-01 2.01909885e-01 2.02802062e-01 2.03532502e-01 2.04405844e-01 2.05676019e-01 2.06200153e-01 2.07931846e-01 2.11535901e-01 2.13425487e-01 2.13974833e-01 2.14643195e-01 2.15193778e-01 2.16030836e-01 2.16996267e-01 2.17638284e-01 2.18163058e-01 2.18817726e-01 2.19383836e-01 2.20080003e-01 2.21013084e-01 2.21737519e-01 2.22229198e-01 2.22825766e-01 2.23510861e-01 2.24232078e-01 2.25202054e-01 2.26089880e-01 2.26797208e-01 2.27462068e-01 2.27974907e-01 2.28646442e-01 2.29270339e-01 2.29849696e-01 2.30640292e-01 2.31316194e-01 2.31825992e-01 2.32206121e-01 2.34291449e-01 2.38056764e-01 2.39920676e-01 2.40342170e-01 2.41048977e-01 2.41745532e-01 2.42515117e-01 2.43166775e-01 2.43702978e-01 2.44276375e-01 2.44878322e-01 2.45513737e-01 2.46083319e-01 2.46570483e-01 2.47521386e-01 2.49041289e-01 2.50271827e-01 2.50967234e-01 2.51623064e-01 2.52423823e-01 2.53079742e-01 2.53645837e-01 2.54417539e-01 2.55199373e-01 2.56075054e-01 2.57146686e-01 2.57999450e-01 2.58824646e-01 2.59670019e-01 2.60194004e-01 2.60992765e-01 2.62278080e-01 2.63367563e-01 2.64181495e-01 2.64857292e-01 2.65648156e-01 2.66631335e-01 2.67640382e-01 2.68642068e-01 2.69450068e-01 2.70111263e-01 2.70775020e-01 2.71671504e-01 2.72740096e-01 2.73643076e-01 2.74455518e-01 2.75321573e-01 2.76026100e-01 2.76668400e-01 2.77405262e-01 2.78028011e-01 2.78606385e-01 2.79187411e-01 2.79799104e-01 2.80514657e-01 2.81157017e-01 2.81683058e-01 2.82328963e-01 2.83304662e-01 2.84332782e-01 2.85025418e-01 2.85578370e-01 2.86255479e-01 2.86965013e-01 2.87742794e-01 2.88474500e-01 2.88917959e-01 2.89494008e-01 2.90269703e-01 2.90841639e-01 2.91414350e-01 2.92209864e-01 2.93037146e-01 2.93922693e-01 2.95067757e-01 2.96017945e-01 2.96610892e-01 2.97238499e-01 2.97954321e-01 2.98831940e-01 2.99640298e-01 3.00202399e-01 3.00805271e-01 3.01690280e-01 3.02627116e-01 3.03223580e-01 3.03753108e-01 3.04432362e-01 3.05054188e-01 3.05594534e-01 3.06155175e-01 3.06970268e-01 3.07947069e-01 3.08618993e-01 3.09275419e-01 3.10028464e-01 3.10543925e-01 3.11268598e-01 3.12298477e-01 3.13279510e-01 3.14254075e-01 3.15199345e-01 3.15941304e-01 3.16507161e-01 3.17136109e-01 3.17860276e-01 3.18680108e-01 3.19414705e-01 3.19929361e-01 3.20521981e-01 3.21072251e-01 3.21703315e-01 3.22554916e-01 3.23375344e-01 3.24183524e-01 3.24772775e-01 3.25324535e-01 3.26093584e-01 3.26898962e-01 3.27660024e-01 3.28224182e-01 3.28825146e-01 3.29779774e-01 3.30773085e-01 3.31599861e-01 3.32505763e-01 3.33538145e-01 3.34511340e-01 3.35318804e-01 3.35878372e-01 3.36507827e-01 3.37360442e-01 3.38160723e-01 3.38848293e-01 3.39478046e-01 3.40175301e-01 3.40810597e-01 3.41337264e-01 3.41939837e-01 3.42617422e-01 3.43233734e-01 3.43776464e-01 3.44498754e-01 3.45333427e-01 3.45914662e-01 3.46524984e-01 3.47378910e-01 3.48042905e-01 3.48512590e-01 3.48994553e-01 3.49588543e-01 3.50310206e-01 3.51035386e-01 3.51726025e-01 3.52277488e-01 3.52961987e-01 3.53878498e-01 3.54721695e-01 3.55519533e-01 3.56158853e-01 3.56661350e-01 3.57193112e-01 3.57788831e-01 3.58498573e-01 3.59197319e-01 3.59793395e-01 3.60313863e-01 3.60827565e-01 3.61544073e-01 3.62604618e-01 3.63622695e-01 3.64406675e-01 3.65298122e-01 3.66152883e-01 3.66834998e-01 3.67700577e-01 3.68607610e-01 3.69270653e-01 3.70034486e-01 3.71126264e-01 3.71993572e-01 3.72733861e-01 3.73824805e-01 3.74724925e-01 3.75362188e-01 3.75935197e-01 3.76556188e-01 3.77321988e-01 3.77934605e-01 3.78461629e-01 3.79020244e-01 3.79635155e-01 3.80505234e-01 3.81415129e-01 3.81998479e-01 3.82477105e-01 3.83007258e-01 3.83700907e-01 3.84463400e-01 3.84929925e-01 3.85370284e-01 3.85935128e-01 3.86494040e-01 3.87062132e-01 3.87763053e-01 3.88587356e-01 3.89296532e-01 3.89948100e-01 3.90574217e-01 3.91333580e-01 3.92440975e-01 3.93390745e-01 3.94013524e-01 3.94657522e-01 3.95285457e-01 3.95873576e-01 3.96587133e-01 3.97555977e-01 3.98402512e-01 3.99060667e-01 3.99822295e-01 4.00583684e-01 4.01336372e-01 4.01942998e-01 4.02716428e-01 4.03710097e-01 4.04341966e-01 4.04884100e-01 4.05550122e-01 4.06111807e-01 4.06783432e-01 4.07875031e-01 4.08936024e-01 4.09827381e-01 4.10820931e-01 4.11698043e-01 4.12400484e-01 4.12821680e-01 4.13288325e-01 4.14200485e-01 4.15078759e-01 4.15576041e-01 4.16166723e-01 4.16981250e-01 4.17741895e-01 4.18648332e-01 4.19685036e-01 4.20429826e-01 4.20801967e-01 4.21310306e-01 4.21926558e-01 4.22277391e-01 4.22711879e-01 4.23392236e-01 4.24357533e-01 4.25465435e-01 4.26214963e-01 4.26958472e-01 4.28159356e-01 4.29251045e-01 4.30094808e-01 4.31008369e-01 4.31850463e-01 4.32783604e-01 4.33657497e-01 4.34245735e-01 4.34719622e-01 4.35489833e-01 4.36592758e-01 4.37546045e-01 4.38499480e-01 4.39437956e-01 4.40250129e-01 4.41094190e-01 4.41723883e-01 4.42067772e-01 4.42605048e-01 4.43547040e-01 4.44471866e-01 4.45069522e-01 4.45595980e-01 4.46202844e-01 4.46749270e-01 4.47272420e-01 4.47918981e-01 4.48758841e-01 4.49574888e-01 4.50256228e-01 4.50937212e-01 4.51578736e-01 4.52241987e-01 4.53096628e-01 4.53946561e-01 4.54701513e-01 4.55483973e-01 4.56244588e-01 4.57188427e-01 4.58149254e-01 4.58886355e-01 4.59599972e-01 4.60167110e-01 4.60863203e-01 4.61955726e-01 4.62903768e-01 4.63611186e-01 4.64332670e-01 4.64927942e-01 4.65531975e-01 4.66262251e-01 4.66939896e-01 4.67581630e-01 4.68238771e-01 4.68903750e-01 4.69585538e-01 4.70312059e-01 4.71049488e-01 4.71724689e-01 4.72414017e-01 4.73236382e-01 4.73996997e-01 4.74731058e-01 4.75637615e-01 4.76426393e-01 4.76903111e-01 4.77384508e-01 4.78019744e-01 4.78587449e-01 4.79069769e-01 4.79660928e-01 4.80381548e-01 4.81008917e-01 4.81499046e-01 4.82224852e-01 4.83259201e-01 4.84183103e-01 4.85029489e-01 4.86109614e-01 4.87158030e-01 4.87973094e-01 4.88696039e-01 4.89384353e-01 4.90255266e-01 4.91343230e-01 4.92364794e-01 4.93046254e-01 4.93584692e-01 4.94173110e-01 4.94674146e-01 4.95162666e-01 4.95681196e-01 4.96406317e-01 4.97302383e-01 4.97898519e-01 4.98490572e-01 4.99301136e-01 5.00163138e-01 5.01075804e-01 5.01865745e-01 5.02642751e-01 5.03378868e-01 5.03826082e-01 5.05321980e-01 5.08046627e-01 5.09449542e-01 5.09742320e-01 5.10377586e-01 5.11131346e-01 5.11762023e-01 5.12368381e-01 5.13004720e-01 5.13663113e-01 5.14568269e-01 5.15414476e-01 5.15965104e-01 5.16476929e-01 5.17085671e-01 5.17771721e-01 5.18462718e-01 5.19090056e-01 5.19860089e-01 5.21024227e-01 5.22049725e-01 5.22794962e-01 5.23595810e-01 5.24194896e-01 5.24726331e-01 5.25390387e-01 5.26042223e-01 5.26790082e-01 5.27731478e-01 5.28844118e-01 5.29920757e-01 5.30603707e-01 5.31154692e-01 5.31968594e-01 5.32848239e-01 5.33785880e-01 5.34674823e-01 5.35213411e-01 5.35776734e-01 5.36565304e-01 5.37375152e-01 5.38188994e-01 5.38922131e-01 5.39604962e-01 5.40305495e-01 5.40980697e-01 5.41632116e-01 5.42382836e-01 5.43119252e-01 5.43710828e-01 5.44301629e-01 5.44861853e-01 5.45561969e-01 5.46583831e-01 5.47688246e-01 5.48572540e-01 5.49385607e-01 5.50378382e-01 5.51199555e-01 5.51912427e-01 5.52824020e-01 5.53649724e-01 5.54238737e-01 5.54853022e-01 5.55685043e-01 5.56621969e-01 5.57515204e-01 5.58350563e-01 5.59133649e-01 5.59732914e-01 5.60402572e-01 5.61289012e-01 5.61970234e-01 5.62429428e-01 5.63125908e-01 5.63950062e-01 5.64414740e-01 5.64804196e-01 5.65471590e-01 5.66332400e-01 5.67129493e-01 5.67707539e-01 5.68316340e-01 5.68984866e-01 5.69510996e-01 5.70016146e-01 5.70582867e-01 5.71114957e-01 5.71634591e-01 5.72201610e-01 5.72731256e-01 5.73293567e-01 5.74160218e-01 5.75034976e-01 5.75635016e-01 5.76286674e-01 5.76977730e-01 5.77658951e-01 5.78615248e-01 5.79670429e-01 5.80477655e-01 5.81180871e-01 5.81910074e-01 5.82605779e-01 5.83469212e-01 5.84400892e-01 5.85112333e-01 5.85765362e-01 5.86437285e-01 5.87108314e-01 5.87882578e-01 5.88560224e-01 5.89206755e-01 5.89954078e-01 5.90527713e-01 5.91033459e-01 5.91654480e-01 5.92316508e-01 5.92886806e-01 5.93501449e-01 5.94388604e-01 5.95066786e-01 5.95426917e-01 5.96129239e-01 5.97121716e-01 5.98102868e-01 5.98979533e-01 5.99595010e-01 6.00090086e-01 6.00690484e-01 6.01433575e-01 6.02262497e-01 6.03047967e-01 6.03595197e-01 6.05564773e-01 6.08897090e-01 6.10579789e-01 6.11106336e-01 6.11735582e-01 6.12208605e-01 6.12899482e-01 6.13726556e-01 6.14308357e-01 6.14777029e-01 6.15504444e-01 6.16454303e-01 6.17343783e-01 6.18048847e-01 6.18863225e-01 6.19947433e-01 6.20712996e-01 6.21169806e-01 6.21712804e-01 6.22312665e-01 6.22956097e-01 6.23610497e-01 6.24266744e-01 6.24873996e-01 6.25360727e-01 6.26054227e-01 6.27142012e-01 6.28121078e-01 6.28821492e-01 6.29394829e-01 6.30042076e-01 6.30881488e-01 6.31634235e-01 6.32189870e-01 6.32793248e-01 6.33715510e-01 6.34500206e-01 6.34934604e-01 6.35721147e-01 6.36777759e-01 6.37638986e-01 6.38305366e-01 6.38902426e-01 6.39481485e-01 6.40030086e-01 6.40593290e-01 6.41256154e-01 6.41964197e-01 6.42647624e-01 6.43373430e-01 6.43988669e-01 6.44608259e-01 6.45489812e-01 6.46329582e-01 6.46903574e-01 6.47438228e-01 6.48011863e-01 6.48648322e-01 6.49334192e-01 6.49872482e-01 6.50346935e-01 6.50882065e-01 6.51412308e-01 6.52027786e-01 6.52752936e-01 6.53502941e-01 6.54365420e-01 6.55172050e-01 6.55706525e-01 6.56323552e-01 6.57199860e-01 6.58049941e-01 6.58878505e-01 6.59615219e-01 6.60285652e-01 6.60934389e-01 6.61479115e-01 6.62198782e-01 6.63084805e-01 6.63986266e-01 6.64732575e-01 6.65350497e-01 6.65980875e-01 6.66775107e-01 6.67864799e-01 6.68714523e-01 6.69289351e-01 6.69948876e-01 6.70958102e-01 6.72258615e-01 6.73127830e-01 6.73717320e-01 6.74408674e-01 6.75030768e-01 6.75753236e-01 6.76564753e-01 6.77160501e-01 6.77669466e-01 6.78219557e-01 6.78736567e-01 6.79243922e-01 6.79936945e-01 6.80747747e-01 6.81317329e-01 6.81896567e-01 6.82710588e-01 6.83561862e-01 6.84398055e-01 6.85268342e-01 6.86293125e-01 6.87212348e-01 6.87755883e-01 6.88245118e-01 6.88945532e-01 6.89758718e-01 6.90416932e-01 6.90948427e-01 6.91452861e-01 6.92167759e-01 6.93349421e-01 6.94332302e-01 6.94808006e-01 6.95467770e-01 6.96351111e-01 6.96983635e-01 6.97598994e-01 6.98455334e-01 6.99351370e-01 7.00232565e-01 7.01026797e-01 7.01680839e-01 7.02277005e-01 7.02883482e-01 7.03534961e-01 7.04127848e-01 7.04646945e-01 7.05136299e-01 7.05785632e-01 7.06778646e-01 7.07863986e-01 7.08785236e-01 7.09564745e-01 7.10348248e-01 7.11103439e-01 7.11685419e-01 7.12348819e-01 7.13270724e-01 7.14170694e-01 7.14985847e-01 7.15820551e-01 7.16500103e-01 7.17080891e-01 7.17869997e-01 7.18850136e-01 7.19754100e-01 7.20449388e-01 7.21101761e-01 7.21732557e-01 7.22299337e-01 7.22884178e-01 7.23499179e-01 7.24106967e-01 7.24654138e-01 7.25289166e-01 7.26227164e-01 7.27213085e-01 7.27873564e-01 7.28468359e-01 7.29119778e-01 7.29726970e-01 7.30559647e-01 7.31402636e-01 7.31930315e-01 7.32622147e-01 7.33799279e-01 7.34862745e-01 7.35506892e-01 7.36070156e-01 7.36619771e-01 7.37152338e-01 7.37747669e-01 7.38484561e-01 7.39284396e-01 7.39930391e-01 7.40453064e-01 7.41163731e-01 7.42132246e-01 7.42893219e-01 7.43367553e-01 7.43833899e-01 7.44452178e-01 7.45405614e-01 7.46360362e-01 7.47142971e-01 7.47883201e-01 7.48435915e-01 7.48992682e-01 7.49594152e-01 7.50230014e-01 7.50927508e-01 7.51624823e-01 7.52427280e-01 7.53108740e-01 7.53596365e-01 7.54236758e-01 7.55255461e-01 7.56136417e-01 7.56653547e-01 7.57297218e-01 7.57896841e-01 7.58463919e-01 7.59198606e-01 7.59984195e-01 7.60794938e-01 7.61623740e-01 7.62285829e-01 7.62667954e-01 7.63262868e-01 7.63987243e-01 7.64502466e-01 7.65114665e-01 7.66078949e-01 7.66971171e-01 7.67503262e-01 7.68286228e-01 7.69325733e-01 7.70228505e-01 7.71090925e-01 7.71826565e-01 7.72442997e-01 7.73498774e-01 7.75022507e-01 7.76266515e-01 7.77162492e-01 7.78118849e-01 7.79009759e-01 7.79651105e-01 7.80307293e-01 7.81237960e-01 7.82140911e-01 7.82886803e-01 7.83659041e-01 7.84311712e-01 7.84884036e-01 7.85534263e-01 7.86423385e-01 7.87445426e-01 7.88157701e-01 7.88661838e-01 7.89194584e-01 7.89724886e-01 7.90326536e-01 7.91008294e-01 7.91596830e-01 7.92106032e-01 7.92733848e-01 7.93631256e-01 7.94584453e-01 7.95418799e-01 7.96342313e-01 7.97180176e-01 7.97741234e-01 7.98331201e-01 7.99368382e-01 8.00725520e-01 8.01819861e-01 8.02338123e-01 8.04446220e-01 8.08458984e-01 8.10607612e-01 8.11150432e-01 8.12079489e-01 8.12857985e-01 8.13282788e-01 8.13940465e-01 8.14734757e-01 8.15279961e-01 8.15909863e-01 8.16704154e-01 8.17469299e-01 8.18139076e-01 8.18952799e-01 8.20050120e-01 8.20830643e-01 8.21527243e-01 8.22525501e-01 8.23219121e-01 8.23788106e-01 8.24571490e-01 8.25404525e-01 8.26318979e-01 8.27171624e-01 8.27795446e-01 8.28340411e-01 8.28900039e-01 8.29454064e-01 8.30166280e-01 8.30995142e-01 8.31791341e-01 8.32633615e-01 8.33321750e-01 8.33867311e-01 8.34815741e-01 8.36039901e-01 8.36996675e-01 8.37777853e-01 8.38470280e-01 8.39031577e-01 8.39654982e-01 8.40607405e-01 8.41407895e-01 8.41953993e-01 8.42649877e-01 8.43157947e-01 8.43789458e-01 8.44606161e-01 8.45159411e-01 8.45768631e-01 8.46642911e-01 8.47561717e-01 8.48487139e-01 8.49321067e-01 8.50017846e-01 8.50757778e-01 8.51416945e-01 8.51983726e-01 8.52695048e-01 8.53640676e-01 8.54489505e-01 8.55005562e-01 8.55537236e-01 8.56225491e-01 8.56857955e-01 8.57526898e-01 8.58312190e-01 8.59059274e-01 8.59751403e-01 8.60445738e-01 8.61191452e-01 8.61832201e-01 8.62361133e-01 8.63052607e-01 8.63825023e-01 8.64486933e-01 8.65110576e-01 8.65718246e-01 8.66399288e-01 8.67267370e-01 8.68243694e-01 8.69121790e-01 8.69753540e-01 8.70261312e-01 8.70799422e-01 8.71472716e-01 8.72167647e-01 8.72908294e-01 8.73787165e-01 8.74599099e-01 8.75327051e-01 8.76053452e-01 8.76850784e-01 8.77585113e-01 8.78147483e-01 8.78709257e-01 8.79294813e-01 8.79809141e-01 8.80440652e-01 8.81268442e-01 8.81951571e-01 8.82467568e-01 8.83054912e-01 8.83709252e-01 8.84346008e-01 8.84942353e-01 8.85602176e-01 8.86409879e-01 8.87151778e-01 8.87918711e-01 8.88900757e-01 8.89723957e-01 8.90151620e-01 8.90640199e-01 8.91314864e-01 8.91981840e-01 8.92799914e-01 8.93504679e-01 8.93997252e-01 8.94624889e-01 8.95348966e-01 8.95955741e-01 8.96481276e-01 8.96983266e-01 8.97632778e-01 8.98427486e-01 8.99129987e-01 8.99945140e-01 9.00804698e-01 9.01447177e-01 9.02002096e-01 9.02561963e-01 9.03127372e-01 9.03684795e-01 9.04362261e-01 9.05272484e-01 9.06087637e-01 9.06773329e-01 9.07706320e-01 9.08606112e-01 9.09282923e-01 9.10061598e-01 9.10881817e-01 9.11553741e-01 9.12252367e-01 9.13091719e-01 9.13762867e-01 9.14364517e-01 9.15079594e-01 9.15686905e-01 9.16234374e-01 9.16807234e-01 9.17347968e-01 9.17988181e-01 9.18900490e-01 9.19818580e-01 9.20436978e-01 9.20913517e-01 9.21402633e-01 9.22057807e-01 9.22982514e-01 9.23967540e-01 9.24964309e-01 9.25941110e-01 9.26628292e-01 9.27008092e-01 9.27638531e-01 9.28762674e-01 9.29796815e-01 9.30493772e-01 9.31036472e-01 9.31723475e-01 9.32468176e-01 9.32870388e-01 9.33356583e-01 9.34092700e-01 9.34729457e-01 9.35475290e-01 9.36329782e-01 9.36876237e-01 9.37409699e-01 9.38255668e-01 9.39240217e-01 9.40196514e-01 9.40858662e-01 9.41469789e-01 9.42392468e-01 9.43210006e-01 9.43605065e-01 9.44157541e-01 9.45005238e-01 9.45586681e-01 9.46129084e-01 9.46848750e-01 9.47568417e-01 9.48426187e-01 9.49344993e-01 9.50125098e-01 9.50866342e-01 9.51522410e-01 9.52000558e-01 9.52698827e-01 9.53451455e-01 9.53965724e-01 9.54837680e-01 9.55941796e-01 9.56667006e-01 9.57190275e-01 9.57879424e-01 9.58694756e-01 9.59321678e-01 9.59912479e-01 9.60778654e-01 9.61759269e-01 9.62566197e-01 9.63234961e-01 9.63939130e-01 9.64521646e-01 9.65088546e-01 9.65811968e-01 9.66574490e-01 9.67290223e-01 9.68018353e-01 9.68828142e-01 9.69526529e-01 9.70134199e-01 9.70703065e-01 9.71430361e-01 9.72392797e-01 9.73119259e-01 9.73646760e-01 9.74217236e-01 9.74792123e-01 9.75469351e-01 9.76271868e-01 9.76931095e-01 9.77395773e-01 9.77899253e-01 9.78534997e-01 9.79213953e-01 9.79773939e-01 9.80387211e-01 9.81285930e-01 9.82162654e-01 9.82839406e-01 9.83447313e-01 9.84246016e-01 9.85231161e-01 9.85884428e-01 9.86611307e-01 9.87670541e-01 9.88496184e-01 9.89195466e-01 9.89840090e-01 9.90361989e-01 9.90953326e-01 9.91550803e-01 9.92023528e-01 9.92606103e-01 9.93434608e-01 9.94272113e-01 9.94949996e-01 9.95511651e-01 9.96014357e-01 9.96736407e-01 9.97646451e-01 9.98291016e-01 9.98833656e-01 9.99440551e-01 1.00000000e+00 
            </Histogram>
            <HistogramBinning NBins="1338">
