<?xml version="1.0"?>
<MethodSetup Method="MLP::MLP">
  <GeneralInfo>
    <Info name="TMVA Release" value="4.2.0 [262656]"/>
    <Info name="ROOT Release" value="5.34/10 [336394]"/>
    <Info name="Creator" value="amassiro"/>
    <Info name="Date" value="Mon Dec 30 15:25:32 2013"/>
    <Info name="Host" value="Linux amassiro-XPS-L421X 3.8.0-31-generic #46-Ubuntu SMP Tue Sep 10 20:03:44 UTC 2013 x86_64 x86_64 x86_64 GNU/Linux"/>
    <Info name="Dir" value="/home/amassiro/Cern/Code/VBF/qqHWW/AnalysisPackage_qqHWWlnulnu"/>
    <Info name="Training events" value="2000"/>
    <Info name="TrainingTime" value="5.11026189e+01"/>
    <Info name="AnalysisType" value="Classification"/>
  </GeneralInfo>
  <Options>
    <Option name="NCycles" modified="Yes">1000</Option>
    <Option name="HiddenLayers" modified="Yes">N+5,N+3</Option>
    <Option name="NeuronType" modified="Yes">tanh</Option>
    <Option name="RandomSeed" modified="No">1</Option>
    <Option name="EstimatorType" modified="No">MSE</Option>
    <Option name="NeuronInputType" modified="No">sum</Option>
    <Option name="V" modified="Yes">False</Option>
    <Option name="VerbosityLevel" modified="No">Default</Option>
    <Option name="VarTransform" modified="Yes">G,N</Option>
    <Option name="H" modified="Yes">True</Option>
    <Option name="CreateMVAPdfs" modified="No">False</Option>
    <Option name="IgnoreNegWeightsInTraining" modified="No">False</Option>
    <Option name="TrainingMethod" modified="No">BP</Option>
    <Option name="LearningRate" modified="No">2.000000e-02</Option>
    <Option name="DecayRate" modified="No">1.000000e-02</Option>
    <Option name="TestRate" modified="Yes">5</Option>
    <Option name="EpochMonitoring" modified="No">False</Option>
    <Option name="Sampling" modified="No">1.000000e+00</Option>
    <Option name="SamplingEpoch" modified="No">1.000000e+00</Option>
    <Option name="SamplingImportance" modified="No">1.000000e+00</Option>
    <Option name="SamplingTraining" modified="No">True</Option>
    <Option name="SamplingTesting" modified="No">False</Option>
    <Option name="ResetStep" modified="No">50</Option>
    <Option name="Tau" modified="No">3.000000e+00</Option>
    <Option name="BPMode" modified="No">sequential</Option>
    <Option name="BatchSize" modified="No">-1</Option>
    <Option name="ConvergenceImprove" modified="No">1.000000e-30</Option>
    <Option name="ConvergenceTests" modified="No">-1</Option>
    <Option name="UseRegulator" modified="Yes">False</Option>
    <Option name="UpdateLimit" modified="No">10000</Option>
    <Option name="CalculateErrors" modified="No">False</Option>
    <Option name="WeightRange" modified="No">1.000000e+00</Option>
  </Options>
  <Variables NVar="7">
    <Variable VarIndex="0" Expression="jetpt1" Label="jetpt1" Title="jetpt1" Unit="" Internal="jetpt1" Type="F" Min="3.12126007e+01" Max="6.80911072e+02"/>
    <Variable VarIndex="1" Expression="jetpt2" Label="jetpt2" Title="jetpt2" Unit="" Internal="jetpt2" Type="F" Min="3.00523796e+01" Max="3.77244904e+02"/>
    <Variable VarIndex="2" Expression="detajj" Label="detajj" Title="detajj" Unit="" Internal="detajj" Type="F" Min="1.00170994e+00" Max="7.77490711e+00"/>
    <Variable VarIndex="3" Expression="log(mjj)" Label="log(mjj)" Title="log(mjj)" Unit="" Internal="log_mjj_" Type="F" Min="5.29833841e+00" Max="8.36663628e+00"/>
    <Variable VarIndex="4" Expression="abs(eta1-(jeteta1+jeteta2)/2)/detajj" Label="abs(eta1-(jeteta1+jeteta2)/2)/detajj" Title="abs(eta1-(jeteta1+jeteta2)/2)/detajj" Unit="" Internal="abs_eta1_M__jeteta1_P_jeteta2__D_2__D_detajj" Type="F" Min="6.57015422e-04" Max="3.67697501e+00"/>
    <Variable VarIndex="5" Expression="abs(eta2-(jeteta1+jeteta2)/2)/detajj" Label="abs(eta2-(jeteta1+jeteta2)/2)/detajj" Title="abs(eta2-(jeteta1+jeteta2)/2)/detajj" Unit="" Internal="abs_eta2_M__jeteta1_P_jeteta2__D_2__D_detajj" Type="F" Min="1.23310761e-04" Max="3.74288225e+00"/>
    <Variable VarIndex="6" Expression="abs(yll-(jeteta1+jeteta2)/2)/detajj" Label="abs(yll-(jeteta1+jeteta2)/2)/detajj" Title="abs(yll-(jeteta1+jeteta2)/2)/detajj" Unit="" Internal="abs_yll_M__jeteta1_P_jeteta2__D_2__D_detajj" Type="F" Min="1.23986829e-04" Max="3.27018499e+00"/>
  </Variables>
  <Spectators NSpec="0"/>
  <Classes NClass="2">
    <Class Name="Signal" Index="0"/>
    <Class Name="Background" Index="1"/>
  </Classes>
  <Transformations NTransformations="2">
    <Transform Name="Gauss" FlatOrGauss="Gauss">
      <Selection>
        <Input NInputs="7">
          <Input Type="Variable" Label="jetpt1" Expression="jetpt1"/>
          <Input Type="Variable" Label="jetpt2" Expression="jetpt2"/>
          <Input Type="Variable" Label="detajj" Expression="detajj"/>
          <Input Type="Variable" Label="log(mjj)" Expression="log(mjj)"/>
          <Input Type="Variable" Label="abs(eta1-(jeteta1+jeteta2)/2)/detajj" Expression="abs(eta1-(jeteta1+jeteta2)/2)/detajj"/>
          <Input Type="Variable" Label="abs(eta2-(jeteta1+jeteta2)/2)/detajj" Expression="abs(eta2-(jeteta1+jeteta2)/2)/detajj"/>
          <Input Type="Variable" Label="abs(yll-(jeteta1+jeteta2)/2)/detajj" Expression="abs(yll-(jeteta1+jeteta2)/2)/detajj"/>
        </Input>
        <Output NOutputs="7">
          <Output Type="Variable" Label="jetpt1" Expression="jetpt1"/>
          <Output Type="Variable" Label="jetpt2" Expression="jetpt2"/>
          <Output Type="Variable" Label="detajj" Expression="detajj"/>
          <Output Type="Variable" Label="log(mjj)" Expression="log(mjj)"/>
          <Output Type="Variable" Label="abs(eta1-(jeteta1+jeteta2)/2)/detajj" Expression="abs(eta1-(jeteta1+jeteta2)/2)/detajj"/>
          <Output Type="Variable" Label="abs(eta2-(jeteta1+jeteta2)/2)/detajj" Expression="abs(eta2-(jeteta1+jeteta2)/2)/detajj"/>
          <Output Type="Variable" Label="abs(yll-(jeteta1+jeteta2)/2)/detajj" Expression="abs(yll-(jeteta1+jeteta2)/2)/detajj"/>
        </Output>
      </Selection>
      <Variable VarIndex="0">
        <CumulativePDF_cls0>
          <PDF Name="GaussTransform var0 cls0" MinNSmooth="0" MaxNSmooth="0" InterpolMethod="1" KDE_type="0" KDE_iter="1" KDE_border="1" KDE_finefactor="0.0000000000000000e+00">
            <Histogram Name="Cumulative_Var0_cls0_original" NBins="879" XMin="3.2401908874511719e+01" XMax="6.8091107177734375e+02" HasEquidistantBins="0">
              0.00000000e+00 1.12217246e-03 2.24994589e-03 3.30089498e-03 4.53324430e-03 5.65892272e-03 6.61365362e-03 7.72080151e-03 8.85993801e-03 9.87956859e-03 1.09157246e-02 1.20449094e-02 1.31986458e-02 1.42995836e-02 1.52548235e-02 1.61117949e-02 1.71353631e-02 1.82650369e-02 1.93231590e-02 2.03338657e-02 2.14854572e-02 2.27448791e-02 2.38647386e-02 2.50234157e-02 2.63254382e-02 2.75481064e-02 2.87193302e-02 2.98868529e-02 3.09305433e-02 3.20928954e-02 3.37802358e-02 3.55053544e-02 3.66083048e-02 3.75111476e-02 3.86381671e-02 3.97024192e-02 4.09980975e-02 4.24506292e-02 4.35932912e-02 4.48530279e-02 4.61221784e-02 4.72643003e-02 4.83892672e-02 4.95142080e-02 5.07429950e-02 5.18990234e-02 5.29456362e-02 5.40429056e-02 5.53343669e-02 5.65578640e-02 5.75655401e-02 5.86588420e-02 5.98358177e-02 6.09396659e-02 6.20098375e-02 6.31209910e-02 6.43381402e-02 6.58609271e-02 6.72488287e-02 6.80200607e-02 6.88382164e-02 6.99959546e-02 7.11226463e-02 7.22936913e-02 7.36360475e-02 7.48661608e-02 7.61981308e-02 7.77387321e-02 7.89679065e-02 7.98305199e-02 8.05883259e-02 8.15594643e-02 8.27521905e-02 8.37797076e-02 8.46622363e-02 8.57730061e-02 8.70299712e-02 8.81820768e-02 8.93314928e-02 9.05722305e-02 9.19859633e-02 9.36624482e-02 9.52220336e-02 9.64072794e-02 9.75653678e-02 9.88234952e-02 1.00093178e-01 1.01383902e-01 1.02563947e-01 1.03873529e-01 1.05492562e-01 1.07173972e-01 1.08737789e-01 1.10023566e-01 1.11149445e-01 1.12196907e-01 1.13282807e-01 1.14472017e-01 1.15659028e-01 1.17006376e-01 1.18230812e-01 1.19124852e-01 1.20004505e-01 1.20915279e-01 1.21931247e-01 1.23040415e-01 1.24060065e-01 1.25025094e-01 1.26119584e-01 1.27140611e-01 1.28015801e-01 1.29208162e-01 1.30592465e-01 1.31728694e-01 1.32701203e-01 1.33663043e-01 1.34568229e-01 1.35697797e-01 1.37056082e-01 1.38206944e-01 1.39168829e-01 1.40254006e-01 1.41527355e-01 1.42725393e-01 1.43807933e-01 1.44790038e-01 1.45670936e-01 1.46673441e-01 1.47898987e-01 1.49299711e-01 1.50571972e-01 1.51656672e-01 1.52745053e-01 1.53825223e-01 1.54950261e-01 1.56088531e-01 1.57143012e-01 1.58175960e-01 1.59297198e-01 1.60457000e-01 1.61605179e-01 1.62618652e-01 1.63466081e-01 1.64479703e-01 1.65700898e-01 1.66968778e-01 1.68135107e-01 1.69416979e-01 1.70932472e-01 1.72294214e-01 1.73488706e-01 1.74583390e-01 1.75720751e-01 1.76810950e-01 1.77527070e-01 1.78052649e-01 1.78763881e-01 1.79864570e-01 1.81035072e-01 1.82142377e-01 1.83409631e-01 1.84630051e-01 1.85721219e-01 1.86781988e-01 1.87851280e-01 1.89000264e-01 1.89972088e-01 1.90712675e-01 1.91703171e-01 1.92939743e-01 1.94036976e-01 1.95158586e-01 1.96464717e-01 1.97787195e-01 1.99312985e-01 2.00896487e-01 2.02061594e-01 2.02984273e-01 2.04029724e-01 2.05165893e-01 2.06279501e-01 2.07438618e-01 2.08627999e-01 2.09781900e-01 2.10950583e-01 2.12152824e-01 2.13268414e-01 2.14287519e-01 2.15327978e-01 2.16359377e-01 2.17522874e-01 2.18885779e-01 2.20110923e-01 2.21372768e-01 2.22661912e-01 2.23456070e-01 2.24168390e-01 2.25195080e-01 2.26293430e-01 2.27386221e-01 2.28376910e-01 2.29335830e-01 2.30449438e-01 2.31609911e-01 2.32594356e-01 2.33472526e-01 2.34468341e-01 2.35414192e-01 2.36246765e-01 2.37257585e-01 2.38412157e-01 2.39584535e-01 2.40824625e-01 2.42023334e-01 2.43094236e-01 2.44043395e-01 2.44960487e-01 2.46079460e-01 2.47296542e-01 2.48420775e-01 2.49794096e-01 2.51369685e-01 2.52642840e-01 2.53916174e-01 2.55412370e-01 2.56489277e-01 2.57217169e-01 2.58210450e-01 2.59314179e-01 2.60328084e-01 2.61525244e-01 2.63046414e-01 2.64342755e-01 2.65218079e-01 2.66175896e-01 2.67208934e-01 2.68318176e-01 2.69556135e-01 2.70922929e-01 2.72435367e-01 2.73649752e-01 2.74771154e-01 2.76122510e-01 2.77325869e-01 2.78391629e-01 2.79529274e-01 2.80905366e-01 2.82578468e-01 2.84430474e-01 2.85789400e-01 2.86411762e-01 2.87268549e-01 2.88466603e-01 2.89621800e-01 2.90764093e-01 2.91886300e-01 2.92940199e-01 2.93891013e-01 2.94908851e-01 2.95885682e-01 2.96780676e-01 2.97861487e-01 2.98978657e-01 3.00029278e-01 3.01161855e-01 3.02341610e-01 3.03564727e-01 3.04636896e-01 3.05336684e-01 3.06045800e-01 3.07065070e-01 3.08130771e-01 3.09134781e-01 3.10283124e-01 3.11445832e-01 3.12474310e-01 3.13569754e-01 3.14742297e-01 3.15938532e-01 3.17178726e-01 3.18371952e-01 3.19515973e-01 3.20726454e-01 3.21960539e-01 3.23317051e-01 3.24757516e-01 3.25929075e-01 3.26969683e-01 3.28276068e-01 3.29778343e-01 3.31050843e-01 3.32188874e-01 3.33206713e-01 3.34325373e-01 3.35958183e-01 3.37343395e-01 3.38258415e-01 3.39284360e-01 3.40376765e-01 3.41555148e-01 3.42933059e-01 3.44224960e-01 3.45212698e-01 3.46146911e-01 3.47131282e-01 3.48026812e-01 3.49092096e-01 3.50423366e-01 3.51846427e-01 3.53026778e-01 3.54179144e-01 3.55633259e-01 3.56972516e-01 3.58155578e-01 3.59382480e-01 3.60662311e-01 3.61928880e-01 3.63290071e-01 3.64700347e-01 3.65876585e-01 3.66925806e-01 3.68012488e-01 3.69059235e-01 3.69843781e-01 3.70554775e-01 3.71603727e-01 3.72821450e-01 3.73987526e-01 3.75147879e-01 3.76165628e-01 3.76880109e-01 3.77563417e-01 3.78508598e-01 3.79672587e-01 3.80891681e-01 3.81985962e-01 3.83024096e-01 3.84088099e-01 3.85146558e-01 3.86399299e-01 3.88066500e-01 3.89364630e-01 3.89918447e-01 3.90726417e-01 3.91717345e-01 3.92535508e-01 3.93515170e-01 3.94614518e-01 3.95709425e-01 3.96814555e-01 3.97954136e-01 3.99120420e-01 4.00306612e-01 4.01360571e-01 4.02196109e-01 4.03078616e-01 4.04371619e-01 4.06225532e-01 4.07964855e-01 4.09321874e-01 4.10609961e-01 4.11574990e-01 4.12568361e-01 4.13979024e-01 4.15434420e-01 4.16613758e-01 4.17850137e-01 4.19114232e-01 4.19977695e-01 4.20863807e-01 4.22035187e-01 4.23296779e-01 4.24486756e-01 4.25612241e-01 4.26524401e-01 4.27426428e-01 4.28854078e-01 4.30321634e-01 4.31447446e-01 4.32524294e-01 4.33689624e-01 4.34843630e-01 4.35908437e-01 4.37014073e-01 4.38202381e-01 4.39414173e-01 4.40626800e-01 4.41663802e-01 4.42468613e-01 4.43392158e-01 4.44763094e-01 4.46473867e-01 4.48039144e-01 4.49249685e-01 4.50337112e-01 4.51438695e-01 4.52531606e-01 4.53650862e-01 4.54805046e-01 4.55914170e-01 4.56973583e-01 4.58100110e-01 4.59279090e-01 4.60385680e-01 4.61490870e-01 4.62680638e-01 4.63811159e-01 4.65001553e-01 4.66348499e-01 4.67717558e-01 4.69113857e-01 4.70325768e-01 4.71351862e-01 4.72365916e-01 4.73418504e-01 4.74571794e-01 4.75636631e-01 4.76561785e-01 4.77566391e-01 4.78691429e-01 4.79851514e-01 4.80989397e-01 4.82134759e-01 4.83257294e-01 4.84421641e-01 4.85472351e-01 4.86471295e-01 4.87717360e-01 4.88780290e-01 4.89869028e-01 4.91398454e-01 4.92870033e-01 4.94228095e-01 4.95714277e-01 4.97037083e-01 4.98128355e-01 4.99162227e-01 5.00265479e-01 5.01411140e-01 5.02436340e-01 5.03448188e-01 5.04554808e-01 5.05743027e-01 5.07105708e-01 5.08555651e-01 5.09863496e-01 5.11120915e-01 5.12267888e-01 5.13205469e-01 5.14170229e-01 5.15246093e-01 5.16460478e-01 5.17592609e-01 5.18397570e-01 5.19534230e-01 5.21085083e-01 5.22377372e-01 5.23681343e-01 5.25069833e-01 5.26175737e-01 5.27236521e-01 5.28284848e-01 5.29206216e-01 5.30227005e-01 5.31281292e-01 5.32495916e-01 5.33934772e-01 5.35389960e-01 5.36862195e-01 5.38082838e-01 5.39132237e-01 5.40238917e-01 5.41347682e-01 5.42491376e-01 5.43583989e-01 5.44464171e-01 5.45760214e-01 5.47270834e-01 5.48198640e-01 5.49324691e-01 5.50638318e-01 5.51796436e-01 5.53050876e-01 5.54417610e-01 5.55812955e-01 5.57147145e-01 5.58416367e-01 5.59430361e-01 5.60492218e-01 5.61670661e-01 5.62743962e-01 5.63795090e-01 5.65055072e-01 5.66469371e-01 5.67593336e-01 5.68618298e-01 5.69737077e-01 5.70842922e-01 5.71952283e-01 5.73047519e-01 5.74040174e-01 5.75175881e-01 5.76633513e-01 5.77898145e-01 5.78891933e-01 5.79909146e-01 5.80976069e-01 5.82094371e-01 5.83267093e-01 5.84487915e-01 5.85749328e-01 5.86929858e-01 5.87912738e-01 5.88890910e-01 5.90004027e-01 5.91136754e-01 5.92386305e-01 5.93492270e-01 5.94440401e-01 5.95674753e-01 5.96803665e-01 5.97738028e-01 5.98763406e-01 5.99815488e-01 6.00854397e-01 6.01973534e-01 6.03153467e-01 6.04312301e-01 6.05303764e-01 6.06127143e-01 6.07137620e-01 6.08233631e-01 6.09289885e-01 6.10426188e-01 6.11595213e-01 6.12707794e-01 6.13903940e-01 6.15220189e-01 6.16601229e-01 6.17882907e-01 6.18912280e-01 6.20134473e-01 6.21491492e-01 6.22520804e-01 6.23353302e-01 6.24183297e-01 6.25064075e-01 6.26180708e-01 6.27393901e-01 6.28799975e-01 6.30275071e-01 6.31350636e-01 6.32346451e-01 6.33411169e-01 6.34453714e-01 6.35512531e-01 6.36641085e-01 6.37645721e-01 6.38460577e-01 6.39451861e-01 6.40542924e-01 6.41589105e-01 6.42758667e-01 6.44029319e-01 6.45318151e-01 6.46433473e-01 6.47296369e-01 6.48335516e-01 6.49512172e-01 6.50604486e-01 6.51553631e-01 6.52356088e-01 6.53361797e-01 6.54552519e-01 6.55588508e-01 6.56477273e-01 6.57483935e-01 6.58788800e-01 6.60174966e-01 6.61320865e-01 6.62304640e-01 6.63227379e-01 6.64289951e-01 6.65481448e-01 6.66700006e-01 6.67935789e-01 6.68968797e-01 6.69960618e-01 6.71002328e-01 6.72363758e-01 6.74126446e-01 6.75780058e-01 6.77318335e-01 6.78656638e-01 6.79805100e-01 6.80976510e-01 6.82100773e-01 6.83182955e-01 6.84319496e-01 6.85489297e-01 6.86452508e-01 6.87314212e-01 6.88390017e-01 6.89582825e-01 6.90725565e-01 6.91938281e-01 6.93266392e-01 6.94521546e-01 6.95660412e-01 6.96772575e-01 6.97856069e-01 6.98876977e-01 6.99945807e-01 7.01105833e-01 7.02339470e-01 7.03534782e-01 7.04734445e-01 7.06210196e-01 7.07632840e-01 7.08758533e-01 7.09933162e-01 7.11220741e-01 7.12397933e-01 7.13481784e-01 7.14575052e-01 7.15608299e-01 7.16580093e-01 7.17692673e-01 7.18850315e-01 7.19859302e-01 7.20933855e-01 7.22074747e-01 7.23083317e-01 7.24290013e-01 7.25801110e-01 7.27101028e-01 7.28188515e-01 7.29303718e-01 7.30428040e-01 7.31560886e-01 7.32586682e-01 7.33510494e-01 7.34626770e-01 7.35993624e-01 7.37124085e-01 7.38171637e-01 7.39405155e-01 7.40405202e-01 7.41290987e-01 7.42243409e-01 7.43098438e-01 7.44022191e-01 7.45246708e-01 7.46522725e-01 7.47769117e-01 7.48844087e-01 7.49679446e-01 7.50631690e-01 7.51664519e-01 7.52705872e-01 7.54036784e-01 7.55608797e-01 7.56916761e-01 7.57920623e-01 7.59144306e-01 7.60647535e-01 7.61889338e-01 7.63111174e-01 7.64434695e-01 7.65374064e-01 7.66462505e-01 7.67954707e-01 7.69337773e-01 7.70588696e-01 7.71779180e-01 7.72881091e-01 7.73938239e-01 7.74995565e-01 7.76107788e-01 7.77086258e-01 7.77882338e-01 7.78852046e-01 7.80001640e-01 7.81117439e-01 7.82146990e-01 7.83358574e-01 7.84828782e-01 7.86082745e-01 7.87107527e-01 7.88255095e-01 7.89709806e-01 7.91218758e-01 7.92508721e-01 7.93789625e-01 7.94988573e-01 7.96044707e-01 7.97232807e-01 7.98490763e-01 7.99764037e-01 8.01115453e-01 8.02272916e-01 8.03267121e-01 8.04433763e-01 8.05723190e-01 8.06926847e-01 8.08026552e-01 8.09086442e-01 8.10213506e-01 8.11370730e-01 8.12421739e-01 8.13453257e-01 8.14550996e-01 8.15672874e-01 8.16816926e-01 8.17976296e-01 8.19199264e-01 8.20375025e-01 8.21304202e-01 8.22258294e-01 8.23412061e-01 8.24816942e-01 8.26355577e-01 8.27633917e-01 8.28827083e-01 8.30138028e-01 8.31246138e-01 8.32197309e-01 8.33156824e-01 8.33844304e-01 8.34543109e-01 8.35482121e-01 8.36782575e-01 8.38268936e-01 8.39375615e-01 8.40574920e-01 8.41699183e-01 8.42307270e-01 8.42941284e-01 8.43909979e-01 8.45054865e-01 8.46184433e-01 8.47299755e-01 8.48387301e-01 8.49447966e-01 8.50512624e-01 8.51567984e-01 8.52756381e-01 8.53999555e-01 8.55193138e-01 8.56198728e-01 8.56924713e-01 8.57845068e-01 8.59027743e-01 8.60070586e-01 8.60758722e-01 8.61376882e-01 8.62292469e-01 8.63405704e-01 8.64515781e-01 8.65742803e-01 8.67116570e-01 8.68297279e-01 8.69363248e-01 8.70424926e-01 8.71409655e-01 8.72454345e-01 8.73574197e-01 8.74526143e-01 8.75288665e-01 8.76475573e-01 8.78026485e-01 8.79290223e-01 8.80393565e-01 8.81359696e-01 8.81929576e-01 8.82639587e-01 8.83708596e-01 8.84829640e-01 8.86075616e-01 8.87204587e-01 8.88132036e-01 8.89091134e-01 8.90096426e-01 8.90906870e-01 8.91642630e-01 8.92698526e-01 8.93887818e-01 8.95040095e-01 8.96274984e-01 8.97530258e-01 8.98676872e-01 8.99766624e-01 9.00941074e-01 9.02046442e-01 9.03078914e-01 9.04541433e-01 9.06102538e-01 9.07235503e-01 9.08241153e-01 9.09332156e-01 9.10413146e-01 9.11632061e-01 9.13062453e-01 9.14285243e-01 9.15306866e-01 9.16173458e-01 9.17102218e-01 9.18442845e-01 9.19591427e-01 9.20462728e-01 9.21561956e-01 9.22690868e-01 9.23752427e-01 9.24951673e-01 9.26345766e-01 9.27910268e-01 9.29325759e-01 9.30527031e-01 9.31693196e-01 9.32795584e-01 9.33891833e-01 9.34845328e-01 9.35625494e-01 9.36604083e-01 9.37848210e-01 9.39155102e-01 9.40448761e-01 9.41692829e-01 9.42833602e-01 9.43895876e-01 9.45141554e-01 9.46574748e-01 9.47798848e-01 9.48888242e-01 9.49892282e-01 9.50601101e-01 9.51420605e-01 9.52554345e-01 9.53725338e-01 9.54952717e-01 9.56112683e-01 9.57236767e-01 9.58460391e-01 9.59596574e-01 9.60684240e-01 9.61920738e-01 9.63426113e-01 9.64915395e-01 9.66096759e-01 9.67237353e-01 9.68464375e-01 9.69723761e-01 9.71028447e-01 9.72215533e-01 9.73338842e-01 9.74534273e-01 9.75724339e-01 9.76753116e-01 9.77569103e-01 9.78320241e-01 9.79111254e-01 9.80058551e-01 9.81140852e-01 9.82190728e-01 9.83299792e-01 9.84522879e-01 9.85657275e-01 9.86790240e-01 9.87992704e-01 9.89005566e-01 9.90135849e-01 9.91737962e-01 9.93287027e-01 9.94413853e-01 9.95409250e-01 9.96488333e-01 9.97704804e-01 9.98979926e-01 1.00000000e+00 
            </Histogram>
            <HistogramBinning NBins="879">
              3.24019089e+01 3.24020081e+01 3.39727287e+01 3.45925179e+01 3.62069778e+01 3.66089172e+01 3.68363647e+01 3.70369339e+01 3.76957016e+01 3.78369827e+01 3.87195129e+01 3.88019257e+01 3.91398354e+01 4.02438812e+01 4.13172379e+01 4.16881256e+01 4.18715630e+01 4.21699905e+01 4.34998093e+01 4.45497818e+01 4.55355110e+01 4.62055092e+01 4.63357735e+01 4.67497177e+01 4.67727699e+01 4.72087021e+01 4.72351952e+01 4.79811935e+01 4.81338730e+01 4.84599915e+01 4.86065254e+01 4.95098419e+01 4.97398453e+01 5.01962090e+01 5.06680260e+01 5.10408630e+01 5.13318329e+01 5.19386063e+01 5.39939270e+01 5.39942703e+01 5.40013695e+01 5.40367126e+01 5.41614151e+01 5.41950989e+01 5.45745354e+01 5.46974030e+01 5.50820999e+01 5.59522057e+01 5.60184364e+01 5.61184921e+01 5.67511902e+01 5.67685127e+01 5.68604202e+01 5.72370033e+01 5.72624321e+01 5.74758797e+01 5.75261650e+01 5.75949593e+01 5.90892067e+01 6.04874763e+01 6.08959999e+01 6.16001701e+01 6.17133980e+01 6.20552368e+01 6.22026100e+01 6.33079987e+01 6.33180428e+01 6.34764633e+01 6.36068649e+01 6.36352043e+01 6.37973175e+01 6.38116951e+01 6.45604095e+01 6.47503357e+01 6.49923782e+01 6.52818604e+01 6.53790588e+01 6.60169830e+01 6.60301743e+01 6.60892181e+01 6.61373901e+01 6.67014542e+01 6.71027451e+01 6.71195984e+01 6.74035950e+01 6.74441833e+01 6.78062668e+01 6.80957794e+01 6.88055878e+01 6.94117508e+01 6.96092911e+01 6.98551102e+01 7.00726929e+01 7.02080002e+01 7.02960815e+01 7.05335159e+01 7.09654541e+01 7.13382187e+01 7.13402481e+01 7.14353409e+01 7.17491608e+01 7.21045380e+01 7.22667694e+01 7.23157349e+01 7.27038727e+01 7.28338089e+01 7.29052963e+01 7.30083542e+01 7.31367416e+01 7.33253632e+01 7.37585602e+01 7.39269180e+01 7.41131287e+01 7.41210632e+01 7.42161255e+01 7.42484818e+01 7.42978210e+01 7.44340820e+01 7.48497696e+01 7.48710251e+01 7.50342178e+01 7.51904068e+01 7.52178574e+01 7.53050385e+01 7.54943085e+01 7.60342407e+01 7.61255875e+01 7.62155380e+01 7.66519852e+01 7.69233627e+01 7.71342010e+01 7.76137772e+01 7.76316071e+01 7.76548080e+01 7.78938370e+01 7.81041641e+01 7.82878952e+01 7.85767975e+01 7.86451187e+01 7.86847534e+01 7.89247360e+01 7.95026627e+01 7.95296936e+01 7.99105682e+01 8.03411865e+01 8.06620560e+01 8.10904236e+01 8.12710190e+01 8.13922043e+01 8.15713959e+01 8.15865097e+01 8.17077637e+01 8.18077469e+01 8.19678879e+01 8.19771271e+01 8.19834366e+01 8.20310211e+01 8.20682297e+01 8.20748672e+01 8.27656860e+01 8.28632660e+01 8.30445251e+01 8.31732483e+01 8.32807846e+01 8.32873535e+01 8.32990265e+01 8.33504181e+01 8.34048767e+01 8.35219116e+01 8.35922089e+01 8.37056427e+01 8.37443771e+01 8.40721741e+01 8.41047592e+01 8.41441879e+01 8.41489716e+01 8.42069931e+01 8.42244949e+01 8.42547531e+01 8.42702866e+01 8.44690628e+01 8.45092316e+01 8.48779068e+01 8.48908386e+01 8.49252701e+01 8.49602432e+01 8.49611053e+01 8.50780258e+01 8.51399002e+01 8.53150787e+01 8.53669662e+01 8.61222610e+01 8.65481796e+01 8.66059799e+01 8.70545044e+01 8.73109055e+01 8.74337158e+01 8.77787018e+01 8.81206589e+01 8.84269409e+01 8.87850800e+01 8.89119797e+01 8.90169983e+01 8.90253220e+01 8.93138046e+01 9.00926971e+01 9.05064850e+01 9.07254410e+01 9.13197250e+01 9.14499512e+01 9.15932007e+01 9.19291306e+01 9.21240005e+01 9.21637650e+01 9.22926483e+01 9.27688141e+01 9.29368820e+01 9.30079269e+01 9.37323303e+01 9.37608871e+01 9.40465546e+01 9.40490570e+01 9.43516998e+01 9.46061783e+01 9.48470154e+01 9.51214752e+01 9.51441956e+01 9.51484528e+01 9.54768906e+01 9.56071396e+01 9.56680298e+01 9.58314590e+01 9.60714569e+01 9.62665253e+01 9.64461060e+01 9.64855118e+01 9.65558929e+01 9.66471710e+01 9.67071991e+01 9.69319763e+01 9.70857315e+01 9.71251068e+01 9.72478638e+01 9.76869736e+01 9.77546005e+01 9.78077774e+01 9.80155563e+01 9.83705139e+01 9.85854950e+01 9.89960327e+01 9.92583847e+01 9.92852783e+01 9.93235397e+01 9.93596268e+01 9.93797607e+01 9.94556732e+01 9.98086166e+01 9.99484787e+01 1.00306000e+02 1.00323967e+02 1.00334785e+02 1.00770554e+02 1.00864845e+02 1.01633926e+02 1.01977448e+02 1.02139084e+02 1.02147179e+02 1.02404343e+02 1.02718918e+02 1.02763794e+02 1.03202759e+02 1.03341438e+02 1.03535950e+02 1.03593544e+02 1.03811081e+02 1.03959335e+02 1.03974655e+02 1.03977097e+02 1.04358856e+02 1.04989159e+02 1.05298729e+02 1.05491928e+02 1.05701218e+02 1.05888123e+02 1.05921555e+02 1.05987839e+02 1.05991341e+02 1.06039162e+02 1.06346680e+02 1.06704308e+02 1.07241463e+02 1.07247643e+02 1.07337845e+02 1.07583786e+02 1.07724869e+02 1.08205223e+02 1.08250587e+02 1.08375214e+02 1.08470657e+02 1.08563850e+02 1.08617241e+02 1.09295113e+02 1.09481598e+02 1.10203995e+02 1.10217216e+02 1.10940079e+02 1.11188301e+02 1.11236961e+02 1.11261246e+02 1.11276489e+02 1.11314651e+02 1.11501495e+02 1.12293655e+02 1.12406586e+02 1.12617393e+02 1.12733795e+02 1.12795059e+02 1.13045975e+02 1.13429405e+02 1.13468666e+02 1.13511017e+02 1.13659660e+02 1.13757591e+02 1.13863525e+02 1.14062088e+02 1.14073166e+02 1.14080452e+02 1.14170326e+02 1.14205002e+02 1.14352242e+02 1.14384918e+02 1.14421951e+02 1.14445610e+02 1.14632828e+02 1.14641869e+02 1.14832283e+02 1.14844376e+02 1.14859627e+02 1.14952797e+02 1.15319298e+02 1.15327698e+02 1.15735214e+02 1.16004211e+02 1.16192001e+02 1.16337883e+02 1.16540581e+02 1.16542641e+02 1.16720139e+02 1.16734268e+02 1.16884842e+02 1.17381119e+02 1.17622711e+02 1.17977631e+02 1.18316658e+02 1.18453735e+02 1.18474510e+02 1.18482529e+02 1.18523781e+02 1.18685196e+02 1.18722832e+02 1.18730850e+02 1.18925545e+02 1.19253410e+02 1.19577713e+02 1.19654037e+02 1.19792923e+02 1.19840981e+02 1.19966408e+02 1.20274292e+02 1.20320389e+02 1.20564705e+02 1.21110336e+02 1.21831802e+02 1.22066734e+02 1.22178780e+02 1.22199814e+02 1.22255432e+02 1.22394081e+02 1.22650780e+02 1.22719406e+02 1.22955383e+02 1.22998596e+02 1.23283150e+02 1.23340599e+02 1.23380905e+02 1.23458328e+02 1.23531311e+02 1.23919426e+02 1.24044495e+02 1.24196480e+02 1.24227242e+02 1.24464943e+02 1.24808090e+02 1.25416397e+02 1.25704453e+02 1.26346443e+02 1.26692520e+02 1.26853889e+02 1.26913406e+02 1.27148323e+02 1.27330910e+02 1.27448509e+02 1.27726326e+02 1.27795326e+02 1.27989105e+02 1.28044006e+02 1.28115753e+02 1.28170990e+02 1.28192978e+02 1.28337708e+02 1.28559235e+02 1.29098648e+02 1.29151001e+02 1.29163116e+02 1.29333038e+02 1.29619690e+02 1.29625015e+02 1.29879868e+02 1.30006302e+02 1.31271744e+02 1.32168869e+02 1.32413910e+02 1.32991409e+02 1.33311584e+02 1.33431366e+02 1.34567993e+02 1.34684540e+02 1.34701157e+02 1.34748077e+02 1.34783844e+02 1.34967102e+02 1.35140198e+02 1.35517227e+02 1.35671539e+02 1.35951462e+02 1.36055511e+02 1.36386154e+02 1.36444168e+02 1.36934113e+02 1.37995743e+02 1.38092941e+02 1.38363373e+02 1.38517868e+02 1.38586090e+02 1.38662872e+02 1.39079773e+02 1.39097443e+02 1.39215790e+02 1.39798523e+02 1.40609039e+02 1.40922775e+02 1.40928894e+02 1.40933228e+02 1.41350098e+02 1.41796219e+02 1.42389236e+02 1.42520844e+02 1.42524261e+02 1.42725906e+02 1.42960526e+02 1.43010681e+02 1.43232391e+02 1.43276886e+02 1.43564636e+02 1.43573685e+02 1.43778793e+02 1.44128616e+02 1.44407150e+02 1.45288956e+02 1.45417343e+02 1.45508331e+02 1.45513687e+02 1.45541122e+02 1.45864243e+02 1.46020447e+02 1.46411102e+02 1.46469620e+02 1.46790298e+02 1.47255737e+02 1.47321579e+02 1.48562469e+02 1.49560425e+02 1.49601303e+02 1.50015656e+02 1.50184494e+02 1.50449783e+02 1.50863846e+02 1.51016876e+02 1.51160461e+02 1.51630585e+02 1.52063065e+02 1.52611511e+02 1.52680817e+02 1.52936798e+02 1.53142197e+02 1.53827576e+02 1.54032837e+02 1.54086304e+02 1.54152740e+02 1.54265457e+02 1.54422623e+02 1.54538239e+02 1.54948593e+02 1.55021484e+02 1.55084137e+02 1.55792130e+02 1.55832382e+02 1.56164810e+02 1.56202332e+02 1.56525742e+02 1.56672974e+02 1.57197479e+02 1.57315262e+02 1.57928528e+02 1.58226303e+02 1.58894165e+02 1.59155411e+02 1.59295731e+02 1.59571457e+02 1.59803024e+02 1.60078415e+02 1.60267303e+02 1.60924316e+02 1.61009003e+02 1.61192215e+02 1.61331436e+02 1.61440842e+02 1.61692291e+02 1.61699280e+02 1.61741898e+02 1.62076859e+02 1.62129242e+02 1.62265778e+02 1.62640793e+02 1.62815308e+02 1.62855301e+02 1.63024887e+02 1.63139435e+02 1.63257187e+02 1.63720261e+02 1.63923019e+02 1.64288773e+02 1.65117645e+02 1.65363373e+02 1.65649780e+02 1.65652969e+02 1.66000641e+02 1.66456818e+02 1.66857315e+02 1.67335068e+02 1.67614090e+02 1.67837769e+02 1.68317581e+02 1.68831955e+02 1.69317520e+02 1.69569519e+02 1.69709564e+02 1.70170853e+02 1.70217987e+02 1.70689316e+02 1.71070847e+02 1.71770401e+02 1.71803558e+02 1.72021637e+02 1.72278442e+02 1.72283386e+02 1.72302856e+02 1.72635788e+02 1.73061813e+02 1.73518356e+02 1.73551346e+02 1.74088211e+02 1.74133636e+02 1.74197083e+02 1.74791290e+02 1.75060684e+02 1.75193939e+02 1.75244965e+02 1.75918808e+02 1.76993256e+02 1.77702896e+02 1.78106140e+02 1.78225403e+02 1.78232086e+02 1.78256042e+02 1.78439636e+02 1.78812424e+02 1.79649567e+02 1.79663940e+02 1.79666748e+02 1.79732651e+02 1.80907242e+02 1.81143555e+02 1.81144241e+02 1.81372101e+02 1.81466446e+02 1.82834274e+02 1.82990967e+02 1.83311295e+02 1.83690750e+02 1.83926804e+02 1.84429718e+02 1.84531448e+02 1.84552643e+02 1.84654587e+02 1.84920288e+02 1.85321014e+02 1.85831451e+02 1.86148422e+02 1.86293137e+02 1.86474899e+02 1.87050354e+02 1.87661560e+02 1.88370468e+02 1.88526505e+02 1.89080765e+02 1.89083862e+02 1.89233337e+02 1.89806808e+02 1.89993729e+02 1.90157822e+02 1.90875351e+02 1.92521683e+02 1.93070496e+02 1.94610611e+02 1.94878052e+02 1.95184402e+02 1.95217453e+02 1.95380508e+02 1.95671997e+02 1.95786469e+02 1.96032639e+02 1.97282028e+02 1.97486984e+02 1.97759933e+02 1.97816406e+02 1.97891785e+02 1.98249115e+02 1.98387161e+02 1.99273392e+02 1.99316284e+02 1.99534363e+02 1.99936279e+02 2.00095688e+02 2.00995575e+02 2.01002396e+02 2.01093781e+02 2.01328293e+02 2.01391708e+02 2.02634293e+02 2.02646667e+02 2.03037827e+02 2.03473679e+02 2.04450821e+02 2.04520905e+02 2.05132599e+02 2.05508209e+02 2.06601151e+02 2.06666916e+02 2.06800125e+02 2.07254242e+02 2.07748032e+02 2.07831543e+02 2.07857559e+02 2.08039261e+02 2.08537979e+02 2.09225357e+02 2.09310272e+02 2.09519424e+02 2.09888260e+02 2.10008514e+02 2.10605301e+02 2.11528610e+02 2.12696564e+02 2.12806686e+02 2.12949661e+02 2.13201996e+02 2.13717010e+02 2.13971298e+02 2.14297806e+02 2.14603577e+02 2.15968964e+02 2.16153839e+02 2.16459106e+02 2.16708649e+02 2.16759415e+02 2.17185532e+02 2.17724854e+02 2.17908768e+02 2.18006500e+02 2.18297272e+02 2.18472733e+02 2.18611099e+02 2.19660736e+02 2.20139069e+02 2.20256119e+02 2.20556015e+02 2.21199310e+02 2.21801178e+02 2.22108948e+02 2.22690567e+02 2.22726501e+02 2.22822647e+02 2.23171066e+02 2.23736923e+02 2.23851608e+02 2.24771286e+02 2.25948624e+02 2.25987610e+02 2.26785049e+02 2.26828262e+02 2.27149582e+02 2.28326874e+02 2.30298035e+02 2.30544800e+02 2.31538406e+02 2.31630447e+02 2.32551712e+02 2.32982071e+02 2.33537170e+02 2.33721039e+02 2.35207962e+02 2.36149490e+02 2.36442917e+02 2.36454590e+02 2.37461411e+02 2.39436417e+02 2.39453049e+02 2.39524155e+02 2.40247131e+02 2.41848404e+02 2.41945236e+02 2.43368042e+02 2.45381851e+02 2.47408920e+02 2.47611420e+02 2.48449051e+02 2.49136826e+02 2.49385895e+02 2.49524994e+02 2.49660339e+02 2.49701050e+02 2.50708237e+02 2.51713150e+02 2.54224152e+02 2.54678268e+02 2.55267700e+02 2.55609863e+02 2.56089661e+02 2.56656006e+02 2.57284760e+02 2.57345581e+02 2.59346924e+02 2.60473969e+02 2.60917450e+02 2.61202850e+02 2.61231201e+02 2.61680145e+02 2.62608856e+02 2.63442688e+02 2.65496307e+02 2.66423615e+02 2.66623108e+02 2.66671143e+02 2.69098053e+02 2.69107025e+02 2.69344604e+02 2.69630066e+02 2.70255005e+02 2.71566467e+02 2.71983612e+02 2.72908295e+02 2.72940857e+02 2.73582306e+02 2.74136963e+02 2.74450562e+02 2.74656586e+02 2.74728546e+02 2.75325317e+02 2.76208923e+02 2.77358337e+02 2.79110779e+02 2.79431702e+02 2.79582458e+02 2.79720123e+02 2.81520935e+02 2.81630035e+02 2.82735474e+02 2.82903137e+02 2.82962402e+02 2.86245911e+02 2.86257629e+02 2.87704224e+02 2.88505981e+02 2.89397858e+02 2.89801941e+02 2.91308563e+02 2.92035248e+02 2.94165314e+02 2.95969940e+02 2.96924744e+02 2.97910583e+02 2.99991119e+02 3.01768738e+02 3.03806488e+02 3.04037140e+02 3.04994507e+02 3.05155670e+02 3.05884491e+02 3.06783417e+02 3.09466797e+02 3.10912445e+02 3.11048706e+02 3.12339783e+02 3.12769653e+02 3.13601044e+02 3.17280182e+02 3.18030792e+02 3.18146576e+02 3.18468353e+02 3.19781097e+02 3.24252167e+02 3.26012878e+02 3.27565033e+02 3.28984497e+02 3.29917114e+02 3.31868378e+02 3.33207275e+02 3.35657318e+02 3.39551056e+02 3.39962006e+02 3.45072327e+02 3.48608704e+02 3.48750671e+02 3.52875092e+02 3.54297546e+02 3.60574127e+02 3.63236206e+02 3.65309143e+02 3.68995850e+02 3.70432861e+02 3.71506653e+02 3.72310120e+02 3.73700439e+02 3.74591431e+02 3.78603638e+02 3.78966705e+02 3.79580963e+02 3.80970795e+02 3.82389130e+02 3.89345154e+02 3.90112396e+02 3.90739471e+02 4.05485687e+02 4.05755829e+02 4.07312195e+02 4.08242645e+02 4.09985748e+02 4.12874451e+02 4.13492218e+02 4.16742645e+02 4.21996735e+02 4.25530823e+02 4.30212402e+02 4.31151337e+02 4.35056396e+02 4.50947205e+02 4.81705536e+02 4.86408813e+02 4.95441254e+02 5.14646423e+02 5.57562378e+02 5.59522766e+02 5.80411377e+02 6.02234253e+02 6.17065247e+02 6.28180542e+02 6.56534790e+02 6.72156677e+02 6.80911072e+02 
            </HistogramBinning>
          </PDF>
        </CumulativePDF_cls0>
        <CumulativePDF_cls1>
          <PDF Name="GaussTransform var0 cls1" MinNSmooth="0" MaxNSmooth="0" InterpolMethod="1" KDE_type="0" KDE_iter="1" KDE_border="1" KDE_finefactor="0.0000000000000000e+00">
            <Histogram Name="Cumulative_Var0_cls1_original" NBins="876" XMin="3.1212501525878906e+01" XMax="5.7341210937500000e+02" HasEquidistantBins="0">
              0.00000000e+00 7.62122858e-04 1.75502244e-03 2.83409050e-03 3.98111390e-03 5.34570776e-03 6.56408956e-03 7.40009453e-03 8.31262022e-03 9.35719721e-03 1.04482882e-02 1.16384244e-02 1.27522089e-02 1.37443924e-02 1.47056654e-02 1.56788677e-02 1.67533904e-02 1.79278702e-02 1.89524405e-02 1.97551586e-02 2.07434278e-02 2.19895542e-02 2.30681207e-02 2.40878630e-02 2.51929164e-02 2.64757778e-02 2.79899687e-02 2.91894078e-02 3.01690381e-02 3.11430003e-02 3.19838710e-02 3.28224413e-02 3.37864310e-02 3.47276963e-02 3.54749411e-02 3.64336520e-02 3.76076065e-02 3.86689827e-02 3.95316742e-02 4.04585674e-02 4.17343564e-02 4.29060981e-02 4.38635573e-02 4.46730293e-02 4.53213789e-02 4.61186767e-02 4.70511317e-02 4.80254777e-02 4.90082279e-02 5.00263236e-02 5.09516001e-02 5.18113375e-02 5.29429577e-02 5.41956872e-02 5.53425550e-02 5.62876947e-02 5.71688488e-02 5.81869073e-02 5.94101921e-02 6.09082542e-02 6.23626299e-02 6.34561703e-02 6.44748136e-02 6.55872375e-02 6.65350631e-02 6.75812960e-02 6.86834976e-02 6.94333985e-02 7.02043474e-02 7.10767135e-02 7.18846768e-02 7.29322433e-02 7.40977749e-02 7.52239302e-02 7.63111413e-02 7.71585926e-02 7.78917223e-02 7.86575377e-02 7.94097558e-02 8.03319290e-02 8.15375745e-02 8.27629641e-02 8.39333385e-02 8.51062238e-02 8.62484276e-02 8.71384814e-02 8.78118128e-02 8.86157751e-02 8.95121619e-02 9.03794989e-02 9.12995562e-02 9.22561586e-02 9.32927057e-02 9.43977386e-02 9.55040231e-02 9.68039557e-02 9.80484337e-02 9.91785452e-02 1.00416347e-01 1.01593167e-01 1.02766231e-01 1.03911191e-01 1.04920015e-01 1.05899520e-01 1.06840633e-01 1.07811928e-01 1.08890310e-01 1.09964408e-01 1.11142397e-01 1.12329237e-01 1.13241233e-01 1.14120938e-01 1.15016237e-01 1.15729637e-01 1.16441131e-01 1.17347017e-01 1.18383020e-01 1.19315393e-01 1.20104767e-01 1.21010244e-01 1.21979177e-01 1.22891895e-01 1.23933539e-01 1.25014916e-01 1.25948727e-01 1.26871049e-01 1.27851978e-01 1.28797114e-01 1.29722208e-01 1.30643651e-01 1.31740600e-01 1.33092582e-01 1.34225741e-01 1.35097116e-01 1.36035219e-01 1.36968777e-01 1.37926862e-01 1.38798565e-01 1.39461890e-01 1.40182421e-01 1.40969306e-01 1.42040849e-01 1.43228397e-01 1.43970296e-01 1.44699171e-01 1.45784870e-01 1.46967426e-01 1.48271710e-01 1.49850413e-01 1.51260674e-01 1.52144432e-01 1.52850315e-01 1.53758183e-01 1.54689327e-01 1.55498415e-01 1.56445295e-01 1.57556817e-01 1.58491850e-01 1.59154221e-01 1.60013288e-01 1.61416903e-01 1.62890553e-01 1.64107859e-01 1.65219083e-01 1.66070327e-01 1.66862652e-01 1.67868882e-01 1.68923661e-01 1.69921815e-01 1.70844644e-01 1.71845526e-01 1.72978342e-01 1.74030945e-01 1.75116524e-01 1.76440105e-01 1.77719682e-01 1.78755388e-01 1.79653168e-01 1.80518329e-01 1.81486771e-01 1.82523474e-01 1.83483019e-01 1.84593409e-01 1.85911164e-01 1.86964810e-01 1.87919959e-01 1.89044818e-01 1.90229297e-01 1.91699371e-01 1.93237394e-01 1.94414392e-01 1.95327684e-01 1.96165547e-01 1.97009340e-01 1.98135868e-01 1.99359044e-01 2.00215459e-01 2.01057538e-01 2.02056408e-01 2.03045636e-01 2.04058588e-01 2.05120191e-01 2.06362277e-01 2.07713097e-01 2.08842382e-01 2.09832296e-01 2.10924566e-01 2.11962134e-01 2.13054687e-01 2.14236498e-01 2.15225816e-01 2.16169894e-01 2.17104405e-01 2.17906594e-01 2.18812764e-01 2.19940454e-01 2.20866293e-01 2.21559197e-01 2.22460389e-01 2.23705783e-01 2.24944651e-01 2.26132244e-01 2.27561608e-01 2.28793889e-01 2.29731023e-01 2.30787650e-01 2.32102141e-01 2.33315259e-01 2.34119207e-01 2.34918192e-01 2.35833183e-01 2.36709476e-01 2.37764716e-01 2.38983810e-01 2.39998937e-01 2.40874216e-01 2.41884291e-01 2.42857352e-01 2.43700489e-01 2.44600356e-01 2.45848984e-01 2.47275218e-01 2.48328552e-01 2.49309123e-01 2.50363380e-01 2.51278430e-01 2.52228528e-01 2.53371269e-01 2.54055083e-01 2.57450253e-01 2.64179170e-01 2.67476559e-01 2.67944604e-01 2.69074321e-01 2.70330131e-01 2.71548301e-01 2.72427320e-01 2.73206621e-01 2.74141043e-01 2.75093704e-01 2.76134849e-01 2.77290195e-01 2.78476894e-01 2.79728711e-01 2.80819386e-01 2.81955957e-01 2.83222914e-01 2.84169525e-01 2.85107851e-01 2.86206573e-01 2.87153691e-01 2.88052231e-01 2.88967282e-01 2.90075958e-01 2.91418135e-01 2.92689204e-01 2.93822050e-01 2.94861674e-01 2.96149522e-01 2.97524273e-01 2.98584610e-01 2.99538046e-01 3.00618201e-01 3.01832139e-01 3.02965492e-01 3.03810805e-01 3.04503083e-01 3.05352271e-01 3.06268543e-01 3.07167768e-01 3.08100700e-01 3.09308589e-01 3.10442507e-01 3.13001037e-01 3.17361057e-01 3.19743693e-01 3.20631713e-01 3.22070450e-01 3.23446691e-01 3.24544698e-01 3.25642228e-01 3.26892942e-01 3.28149974e-01 3.29431921e-01 3.30579072e-01 3.31580281e-01 3.32497448e-01 3.33371162e-01 3.34326029e-01 3.35296631e-01 3.36251557e-01 3.37246239e-01 3.38222355e-01 3.39270204e-01 3.40469956e-01 3.41572434e-01 3.42582196e-01 3.43686879e-01 3.44811499e-01 3.45959753e-01 3.47355127e-01 3.48831385e-01 3.49875033e-01 3.50626379e-01 3.51559192e-01 3.52579474e-01 3.53516996e-01 3.54473352e-01 3.55474323e-01 3.56598437e-01 3.57877553e-01 3.58837456e-01 3.59654039e-01 3.60842228e-01 3.61943364e-01 3.62976402e-01 3.63981068e-01 3.65983814e-01 3.69084299e-01 3.71314347e-01 3.73107910e-01 3.74549001e-01 3.75280440e-01 3.76010627e-01 3.76789838e-01 3.77820522e-01 3.79073948e-01 3.80119324e-01 3.81075621e-01 3.82155269e-01 3.83231521e-01 3.84289324e-01 3.85397077e-01 3.86525869e-01 3.87928694e-01 3.89625639e-01 3.90898973e-01 3.91709208e-01 3.92490149e-01 3.93501073e-01 3.94731820e-01 3.95771235e-01 3.96620452e-01 3.97605151e-01 3.98565441e-01 3.99543852e-01 4.00812328e-01 4.02179450e-01 4.03486431e-01 4.04470354e-01 4.05340075e-01 4.06464607e-01 4.07731414e-01 4.09061193e-01 4.10075635e-01 4.10837054e-01 4.11675483e-01 4.12530661e-01 4.12785232e-01 4.16710407e-01 4.24927682e-01 4.28813666e-01 4.29007918e-01 4.30079281e-01 4.31361586e-01 4.32647288e-01 4.33984816e-01 4.35100347e-01 4.36144799e-01 4.37319368e-01 4.38185871e-01 4.38900292e-01 4.40023482e-01 4.41523671e-01 4.42848861e-01 4.43898290e-01 4.44886595e-01 4.45834011e-01 4.46774274e-01 4.47726756e-01 4.48728204e-01 4.49800789e-01 4.50747877e-01 4.51525569e-01 4.52419698e-01 4.53865707e-01 4.55486536e-01 4.56831515e-01 4.59002316e-01 4.61476564e-01 4.62906122e-01 4.64031905e-01 4.65615869e-01 4.67330843e-01 4.68624771e-01 4.69717056e-01 4.70791638e-01 4.71656978e-01 4.72545922e-01 4.73837674e-01 4.75219309e-01 4.76272285e-01 4.77190226e-01 4.78122264e-01 4.79164094e-01 4.80287731e-01 4.81448531e-01 4.82690901e-01 4.83806610e-01 4.84648824e-01 4.85417843e-01 4.86403197e-01 4.87354904e-01 4.88179117e-01 4.89131242e-01 4.90069240e-01 4.90975112e-01 4.91906524e-01 4.93014336e-01 4.94177520e-01 4.94967133e-01 4.95748460e-01 4.96755302e-01 4.97950941e-01 4.99316335e-01 5.00472307e-01 5.01410127e-01 5.02488017e-01 5.03936768e-01 5.05392432e-01 5.06469607e-01 5.07381320e-01 5.08272946e-01 5.09115279e-01 5.10007918e-01 5.11087716e-01 5.12233078e-01 5.13319731e-01 5.14406443e-01 5.15453041e-01 5.16558528e-01 5.17691016e-01 5.18680334e-01 5.19616604e-01 5.20557582e-01 5.21510601e-01 5.22486567e-01 5.23450613e-01 5.24569631e-01 5.26037097e-01 5.27322114e-01 5.28200150e-01 5.28686941e-01 5.31888306e-01 5.38265884e-01 5.41784704e-01 5.42742252e-01 5.43916285e-01 5.44716895e-01 5.45349479e-01 5.46189129e-01 5.47162950e-01 5.48095345e-01 5.49064100e-01 5.50047755e-01 5.51021338e-01 5.51974177e-01 5.52918613e-01 5.53821325e-01 5.54987669e-01 5.56579411e-01 5.57955801e-01 5.59263945e-01 5.60893774e-01 5.62340558e-01 5.63536346e-01 5.64513505e-01 5.65155923e-01 5.65804362e-01 5.66738665e-01 5.67685723e-01 5.68381846e-01 5.69208622e-01 5.70476472e-01 5.71897030e-01 5.72955191e-01 5.73808193e-01 5.74830115e-01 5.75723052e-01 5.76632023e-01 5.77663898e-01 5.78714967e-01 5.79897463e-01 5.80988526e-01 5.81979513e-01 5.82934201e-01 5.83921373e-01 5.85021615e-01 5.86034596e-01 5.86940408e-01 5.87860942e-01 5.88979542e-01 5.90255380e-01 5.91446280e-01 5.92576206e-01 5.93585014e-01 5.94681919e-01 5.96167207e-01 5.97567618e-01 5.98555803e-01 5.99479616e-01 6.00445807e-01 6.01430774e-01 6.02326751e-01 6.03041172e-01 6.03701174e-01 6.04452670e-01 6.05482638e-01 6.06554747e-01 6.07692719e-01 6.08690321e-01 6.09421551e-01 6.10511899e-01 6.11631632e-01 6.12514675e-01 6.13585532e-01 6.14912808e-01 6.16181672e-01 6.17277503e-01 6.18368268e-01 6.19389117e-01 6.20278239e-01 6.21287405e-01 6.22452140e-01 6.23550057e-01 6.24740362e-01 6.26243711e-01 6.27792954e-01 6.28955483e-01 6.29902422e-01 6.30809784e-01 6.31787479e-01 6.32959425e-01 6.34010613e-01 6.35070682e-01 6.36400521e-01 6.37501001e-01 6.38404548e-01 6.39434516e-01 6.40621364e-01 6.42268658e-01 6.43784761e-01 6.44728780e-01 6.45587683e-01 6.46404922e-01 6.47199094e-01 6.48208797e-01 6.49433136e-01 6.50717378e-01 6.51781142e-01 6.52741313e-01 6.53773129e-01 6.54811502e-01 6.56080365e-01 6.57409191e-01 6.58542454e-01 6.59762442e-01 6.61363780e-01 6.63114548e-01 6.64300323e-01 6.65470481e-01 6.67097270e-01 6.68469131e-01 6.69815958e-01 6.71037674e-01 6.71726882e-01 6.72570288e-01 6.73788548e-01 6.74960256e-01 6.76131666e-01 6.77365303e-01 6.78437352e-01 6.79539382e-01 6.80666268e-01 6.81467295e-01 6.82309270e-01 6.83376551e-01 6.84433818e-01 6.85406625e-01 6.86464250e-01 6.87750101e-01 6.88848555e-01 6.89595759e-01 6.90176606e-01 6.90807641e-01 6.91726208e-01 6.92741036e-01 6.93741977e-01 6.94650948e-01 6.95372522e-01 6.96063578e-01 6.96775198e-01 6.97665095e-01 6.98800743e-01 6.99952006e-01 7.01062977e-01 7.02239096e-01 7.03212202e-01 7.03842759e-01 7.04748273e-01 7.05939710e-01 7.06803977e-01 7.07589626e-01 7.08661079e-01 7.09873378e-01 7.10959435e-01 7.11971760e-01 7.13215649e-01 7.14450419e-01 7.15548933e-01 7.16978252e-01 7.18206763e-01 7.18787014e-01 7.19516873e-01 7.20376611e-01 7.21089363e-01 7.21998930e-01 7.23055899e-01 7.23997235e-01 7.24870920e-01 7.26015687e-01 7.27501988e-01 7.28637218e-01 7.29265749e-01 7.30109930e-01 7.31182873e-01 7.32166350e-01 7.32855499e-01 7.34821141e-01 7.38288164e-01 7.40414560e-01 7.41441905e-01 7.42532074e-01 7.43611515e-01 7.44954050e-01 7.46266663e-01 7.47419655e-01 7.48754621e-01 7.50063717e-01 7.51053512e-01 7.52172947e-01 7.53533661e-01 7.54597664e-01 7.55257487e-01 7.56097615e-01 7.57360995e-01 7.58685470e-01 7.59911239e-01 7.60827959e-01 7.62284636e-01 7.64594555e-01 7.66146958e-01 7.67072797e-01 7.68046141e-01 7.69103765e-01 7.70308495e-01 7.71331310e-01 7.72285998e-01 7.73247242e-01 7.74167478e-01 7.75122046e-01 7.76091397e-01 7.76909351e-01 7.77573287e-01 7.78402925e-01 7.79477835e-01 7.80604303e-01 7.81609476e-01 7.82498479e-01 7.83319950e-01 7.84113288e-01 7.85125077e-01 7.86450028e-01 7.87717700e-01 7.88734019e-01 7.89752841e-01 7.90827870e-01 7.91828871e-01 7.92824090e-01 7.93742895e-01 7.94675469e-01 7.95617640e-01 7.96487272e-01 7.97595263e-01 7.98612475e-01 7.99377978e-01 8.00247431e-01 8.01200271e-01 8.02170277e-01 8.03458929e-01 8.05356503e-01 8.07469964e-01 8.09044123e-01 8.09864461e-01 8.10739994e-01 8.12011540e-01 8.13064277e-01 8.14073086e-01 8.15362692e-01 8.16421628e-01 8.17595243e-01 8.19208145e-01 8.20620775e-01 8.21697295e-01 8.22350562e-01 8.22941780e-01 8.24122190e-01 8.25524628e-01 8.26592326e-01 8.27584028e-01 8.28689158e-01 8.29806685e-01 8.31170321e-01 8.32573295e-01 8.33536923e-01 8.34319949e-01 8.35308313e-01 8.36305499e-01 8.37291718e-01 8.38304102e-01 8.39314818e-01 8.40377331e-01 8.41231406e-01 8.41952920e-01 8.42925489e-01 8.44035864e-01 8.45070899e-01 8.45976889e-01 8.46895099e-01 8.48022938e-01 8.49110603e-01 8.50054204e-01 8.50977659e-01 8.52018118e-01 8.53315830e-01 8.54610682e-01 8.55672896e-01 8.56712937e-01 8.57936919e-01 8.59094441e-01 8.59919310e-01 8.60645592e-01 8.61689270e-01 8.62971008e-01 8.64091098e-01 8.65044236e-01 8.66360724e-01 8.68006706e-01 8.69190753e-01 8.70216846e-01 8.71675074e-01 8.73116970e-01 8.74155998e-01 8.74233305e-01 8.78522873e-01 8.88153017e-01 8.92621398e-01 8.92697811e-01 8.93600762e-01 8.94559860e-01 8.95536363e-01 8.96452010e-01 8.97483826e-01 8.98715198e-01 9.00077999e-01 9.01411116e-01 9.02529776e-01 9.03485358e-01 9.04827595e-01 9.06417131e-01 9.07375097e-01 9.08140659e-01 9.09161329e-01 9.10136402e-01 9.11040127e-01 9.12047267e-01 9.13294375e-01 9.14364576e-01 9.15083230e-01 9.15908098e-01 9.16972101e-01 9.18094933e-01 9.19035316e-01 9.19927657e-01 9.21248436e-01 9.22715604e-01 9.23796833e-01 9.24877048e-01 9.26337361e-01 9.27769005e-01 9.28879857e-01 9.29659426e-01 9.30295944e-01 9.31280315e-01 9.32636321e-01 9.34039533e-01 9.35425103e-01 9.36674297e-01 9.37856555e-01 9.39108372e-01 9.40216720e-01 9.41162288e-01 9.42238808e-01 9.43387449e-01 9.44340885e-01 9.45381105e-01 9.46608424e-01 9.47866619e-01 9.48458135e-01 9.51604128e-01 9.58050966e-01 9.61507320e-01 9.62635756e-01 9.64304268e-01 9.65508521e-01 9.66442287e-01 9.67614472e-01 9.68976915e-01 9.70280468e-01 9.71489668e-01 9.72678423e-01 9.73837018e-01 9.74932075e-01 9.76002336e-01 9.77244139e-01 9.78541493e-01 9.79701042e-01 9.80765045e-01 9.81708765e-01 9.82744038e-01 9.83740330e-01 9.84626234e-01 9.85544443e-01 9.86573040e-01 9.87783372e-01 9.88841951e-01 9.89876032e-01 9.91033375e-01 9.91881311e-01 9.92668271e-01 9.94122088e-01 9.95885193e-01 9.97217476e-01 9.98195648e-01 9.98978376e-01 1.00000000e+00 
            </Histogram>
            <HistogramBinning NBins="876">
              3.12125015e+01 3.12126007e+01 3.28156166e+01 3.37124329e+01 3.45236168e+01 3.56566505e+01 3.59027710e+01 3.63904076e+01 3.64282990e+01 3.68010979e+01 3.73729134e+01 3.80087357e+01 3.80848389e+01 3.81114998e+01 3.84705429e+01 3.86500282e+01 3.92969093e+01 3.93365402e+01 3.95120659e+01 4.00810394e+01 4.03362999e+01 4.04832497e+01 4.15821991e+01 4.18423157e+01 4.26622314e+01 4.28548927e+01 4.30298042e+01 4.32344589e+01 4.36485405e+01 4.37757339e+01 4.38986435e+01 4.41080933e+01 4.41424980e+01 4.43034592e+01 4.44529915e+01 4.48229561e+01 4.49642601e+01 4.53405380e+01 4.54349442e+01 4.55276642e+01 4.64297829e+01 4.68153839e+01 4.70046043e+01 4.70368004e+01 4.71596680e+01 4.73921242e+01 4.74924927e+01 4.74949837e+01 4.77660713e+01 4.79136429e+01 4.81035957e+01 4.83082123e+01 4.84553871e+01 4.85327072e+01 4.86731224e+01 4.88657265e+01 4.89440231e+01 4.90536118e+01 4.92994766e+01 4.93292618e+01 4.94033585e+01 4.95874176e+01 4.96672401e+01 4.96726799e+01 4.96772728e+01 4.98653526e+01 5.00665894e+01 5.04401131e+01 5.04743690e+01 5.08967896e+01 5.09005280e+01 5.10993919e+01 5.11697121e+01 5.16765785e+01 5.17672577e+01 5.19591103e+01 5.20534363e+01 5.21496506e+01 5.27101784e+01 5.33024063e+01 5.42367554e+01 5.42929230e+01 5.43942146e+01 5.45140991e+01 5.47808418e+01 5.47810898e+01 5.48030968e+01 5.51801796e+01 5.54666862e+01 5.56072273e+01 5.58495216e+01 5.59134102e+01 5.60021935e+01 5.60031052e+01 5.61305466e+01 5.62002449e+01 5.63169289e+01 5.65535965e+01 5.65565033e+01 5.65979614e+01 5.66842117e+01 5.68524399e+01 5.70601158e+01 5.72023621e+01 5.74242134e+01 5.74349289e+01 5.74542770e+01 5.75685883e+01 5.75846596e+01 5.76689529e+01 5.83491936e+01 5.86469955e+01 5.87155495e+01 5.87972679e+01 5.88027916e+01 5.88547401e+01 5.89907074e+01 5.90322800e+01 5.90355644e+01 5.91510162e+01 5.91735306e+01 5.91929321e+01 5.92665520e+01 5.93137856e+01 5.94888268e+01 5.95455360e+01 5.98335075e+01 5.98445549e+01 5.98457527e+01 6.00587463e+01 6.01117363e+01 6.01786995e+01 6.02010078e+01 6.02583504e+01 6.02683144e+01 6.04876099e+01 6.05324554e+01 6.08352470e+01 6.14254265e+01 6.15367699e+01 6.16870918e+01 6.17526855e+01 6.19356270e+01 6.27689552e+01 6.27871208e+01 6.29458961e+01 6.29659920e+01 6.30390663e+01 6.31101570e+01 6.32294769e+01 6.32588997e+01 6.33384705e+01 6.34745712e+01 6.35405998e+01 6.39034767e+01 6.39935989e+01 6.41369476e+01 6.42006149e+01 6.43235703e+01 6.44627762e+01 6.47086487e+01 6.47465057e+01 6.52087021e+01 6.52737503e+01 6.54895248e+01 6.54965515e+01 6.55032272e+01 6.55730820e+01 6.55900726e+01 6.56099167e+01 6.56735611e+01 6.57364426e+01 6.57866669e+01 6.58282547e+01 6.58437347e+01 6.62345963e+01 6.64341354e+01 6.66853256e+01 6.67453613e+01 6.67601624e+01 6.67732162e+01 6.71346893e+01 6.72371140e+01 6.72453842e+01 6.74009171e+01 6.77856445e+01 6.79333038e+01 6.80750351e+01 6.82285995e+01 6.84192581e+01 6.85375137e+01 6.87128677e+01 6.87241592e+01 6.91159744e+01 6.91531219e+01 6.91936493e+01 6.92000351e+01 6.92112961e+01 6.94687805e+01 6.95756683e+01 6.97675171e+01 6.99717331e+01 7.02445984e+01 7.04644241e+01 7.04752502e+01 7.07260361e+01 7.07281952e+01 7.09157944e+01 7.09205933e+01 7.10288239e+01 7.10892487e+01 7.12758331e+01 7.14528198e+01 7.15840073e+01 7.17145615e+01 7.17798843e+01 7.18613129e+01 7.18978119e+01 7.19104309e+01 7.23812866e+01 7.26200714e+01 7.28553314e+01 7.28688583e+01 7.28843231e+01 7.32943573e+01 7.35091934e+01 7.35837479e+01 7.36094818e+01 7.40290527e+01 7.40340195e+01 7.40868607e+01 7.41519165e+01 7.42691040e+01 7.44016342e+01 7.44631500e+01 7.47133102e+01 7.48013000e+01 7.48365097e+01 7.48585815e+01 7.48927917e+01 7.49431763e+01 7.49888687e+01 7.51013489e+01 7.51489639e+01 7.53284531e+01 7.57225418e+01 7.57436600e+01 7.58994522e+01 7.61017227e+01 7.61130753e+01 7.64031830e+01 7.66767807e+01 7.66891327e+01 7.68053360e+01 7.68848419e+01 7.69500809e+01 7.70120316e+01 7.72124786e+01 7.72873611e+01 7.73514252e+01 7.73734512e+01 7.74017181e+01 7.75457916e+01 7.78814850e+01 7.81206207e+01 7.81569595e+01 7.82461929e+01 7.83069763e+01 7.84829330e+01 7.85702515e+01 7.89981613e+01 7.91596985e+01 7.94206543e+01 7.94495544e+01 7.96246262e+01 7.98196716e+01 7.98295441e+01 8.01965408e+01 8.02402573e+01 8.04678268e+01 8.04944687e+01 8.05265808e+01 8.05546875e+01 8.06383514e+01 8.10646820e+01 8.11033630e+01 8.11802139e+01 8.13826447e+01 8.15406952e+01 8.16136017e+01 8.16219940e+01 8.18415680e+01 8.18966522e+01 8.20462723e+01 8.21223526e+01 8.21676636e+01 8.25245590e+01 8.29087906e+01 8.29190445e+01 8.30409698e+01 8.30873260e+01 8.32380447e+01 8.32611847e+01 8.33911896e+01 8.35533524e+01 8.37943344e+01 8.38913956e+01 8.42064209e+01 8.42114105e+01 8.42152328e+01 8.42716217e+01 8.46395264e+01 8.47383194e+01 8.48553696e+01 8.49573669e+01 8.50172272e+01 8.52126846e+01 8.52264404e+01 8.53986206e+01 8.55529785e+01 8.56739426e+01 8.56953735e+01 8.57122574e+01 8.57710953e+01 8.61845551e+01 8.62929382e+01 8.63230896e+01 8.64117737e+01 8.66088104e+01 8.66701584e+01 8.66772003e+01 8.67117310e+01 8.67500916e+01 8.67564316e+01 8.68298264e+01 8.71428528e+01 8.71495895e+01 8.72368469e+01 8.72407379e+01 8.72442093e+01 8.73268738e+01 8.75346222e+01 8.78536148e+01 8.79629974e+01 8.80343704e+01 8.81332245e+01 8.82496338e+01 8.84232712e+01 8.86180191e+01 8.86392365e+01 8.87344742e+01 8.88620682e+01 8.92579727e+01 8.98098831e+01 8.99006805e+01 9.00252228e+01 9.02710419e+01 9.03259430e+01 9.06323929e+01 9.07124939e+01 9.08419724e+01 9.08492737e+01 9.09435883e+01 9.09622879e+01 9.10668640e+01 9.13093338e+01 9.15150833e+01 9.16882019e+01 9.17985916e+01 9.18095474e+01 9.18255768e+01 9.18593903e+01 9.18638153e+01 9.21208572e+01 9.22936401e+01 9.26246872e+01 9.29509811e+01 9.29658585e+01 9.29817123e+01 9.30247192e+01 9.30846481e+01 9.33084717e+01 9.33380814e+01 9.34114151e+01 9.34454880e+01 9.40324936e+01 9.41856079e+01 9.43020248e+01 9.43655624e+01 9.46205750e+01 9.50873871e+01 9.52171173e+01 9.54598389e+01 9.54857559e+01 9.56149368e+01 9.56714325e+01 9.57262878e+01 9.61097183e+01 9.61848068e+01 9.62115860e+01 9.62557983e+01 9.62746735e+01 9.63382568e+01 9.66404266e+01 9.67186737e+01 9.69306641e+01 9.69352188e+01 9.71843948e+01 9.72893448e+01 9.73591385e+01 9.77560730e+01 9.80777130e+01 9.81775970e+01 9.83643417e+01 9.84451599e+01 9.86017914e+01 9.86903458e+01 9.89566422e+01 9.89606628e+01 9.89817581e+01 9.90078354e+01 9.93576202e+01 9.94428940e+01 9.94672012e+01 9.95529327e+01 9.98702164e+01 1.00217682e+02 1.00620407e+02 1.00916054e+02 1.01236534e+02 1.01329948e+02 1.01524384e+02 1.01545097e+02 1.01603951e+02 1.01610283e+02 1.02167915e+02 1.02301445e+02 1.02316711e+02 1.02502136e+02 1.02569885e+02 1.02583382e+02 1.02597168e+02 1.02685204e+02 1.02785469e+02 1.03040047e+02 1.03090675e+02 1.03212318e+02 1.03234070e+02 1.03332764e+02 1.03600815e+02 1.03762459e+02 1.03988197e+02 1.04004898e+02 1.04028305e+02 1.04310051e+02 1.04599060e+02 1.04842285e+02 1.05211845e+02 1.05223022e+02 1.05438980e+02 1.05648659e+02 1.05778679e+02 1.05908974e+02 1.05938271e+02 1.06118919e+02 1.06264725e+02 1.06461891e+02 1.06586823e+02 1.06679626e+02 1.06734024e+02 1.06779137e+02 1.06817833e+02 1.07010178e+02 1.07144882e+02 1.07198456e+02 1.07425980e+02 1.07628044e+02 1.08250328e+02 1.08480049e+02 1.08807320e+02 1.08862617e+02 1.09081451e+02 1.09101830e+02 1.09146736e+02 1.09294357e+02 1.09468674e+02 1.09539604e+02 1.09708595e+02 1.09806404e+02 1.09985100e+02 1.10339157e+02 1.10566162e+02 1.10586868e+02 1.10612793e+02 1.10669212e+02 1.10685265e+02 1.10718277e+02 1.10858620e+02 1.10864616e+02 1.10877251e+02 1.11015388e+02 1.11043427e+02 1.11439476e+02 1.11762764e+02 1.11770454e+02 1.11907951e+02 1.12444626e+02 1.12499397e+02 1.12754440e+02 1.12809044e+02 1.12842789e+02 1.13080978e+02 1.13163666e+02 1.13567520e+02 1.13610466e+02 1.13866013e+02 1.13935829e+02 1.13957832e+02 1.13996902e+02 1.14090340e+02 1.14172157e+02 1.14289185e+02 1.14289932e+02 1.14301498e+02 1.14457420e+02 1.14516350e+02 1.14777855e+02 1.14853699e+02 1.15056854e+02 1.15101357e+02 1.15134537e+02 1.15554771e+02 1.15652031e+02 1.15716125e+02 1.15764091e+02 1.15875305e+02 1.15911446e+02 1.16098923e+02 1.16702133e+02 1.16741699e+02 1.16809753e+02 1.17148056e+02 1.17188896e+02 1.17363503e+02 1.17554146e+02 1.17735069e+02 1.17946564e+02 1.18432304e+02 1.18677101e+02 1.18745827e+02 1.18794716e+02 1.18890892e+02 1.19048958e+02 1.19062088e+02 1.19174622e+02 1.19469574e+02 1.19956543e+02 1.20104164e+02 1.20268341e+02 1.20277412e+02 1.20393173e+02 1.20474167e+02 1.20650742e+02 1.20769318e+02 1.20917908e+02 1.21033897e+02 1.21185287e+02 1.21580269e+02 1.23089272e+02 1.23322906e+02 1.23614731e+02 1.23913261e+02 1.24116692e+02 1.24319908e+02 1.24365295e+02 1.24367661e+02 1.24407486e+02 1.24685295e+02 1.24758492e+02 1.24785629e+02 1.24805946e+02 1.25028992e+02 1.25097466e+02 1.25441452e+02 1.25751022e+02 1.25822044e+02 1.26157372e+02 1.26305267e+02 1.26454208e+02 1.26516685e+02 1.26533867e+02 1.26675346e+02 1.27140823e+02 1.27282219e+02 1.27373154e+02 1.27984840e+02 1.28025345e+02 1.28171875e+02 1.28638580e+02 1.28919556e+02 1.29139633e+02 1.29275620e+02 1.29400314e+02 1.29539124e+02 1.29682587e+02 1.29900894e+02 1.30009521e+02 1.30373672e+02 1.30537247e+02 1.30538757e+02 1.30549164e+02 1.30570648e+02 1.30808990e+02 1.30886597e+02 1.31081299e+02 1.31518692e+02 1.31523071e+02 1.31684708e+02 1.31701920e+02 1.31734955e+02 1.31835785e+02 1.31927368e+02 1.31949661e+02 1.31988617e+02 1.32309662e+02 1.32553345e+02 1.33447952e+02 1.33616150e+02 1.33767517e+02 1.34084503e+02 1.34464172e+02 1.34802048e+02 1.35268036e+02 1.35496170e+02 1.35540466e+02 1.35571518e+02 1.36128494e+02 1.36385559e+02 1.37161728e+02 1.37917114e+02 1.38009979e+02 1.38083405e+02 1.38178772e+02 1.38758286e+02 1.38938416e+02 1.39239792e+02 1.39383224e+02 1.39539291e+02 1.39780731e+02 1.39885406e+02 1.40398209e+02 1.40676041e+02 1.40782684e+02 1.41222305e+02 1.42200653e+02 1.42320572e+02 1.42347687e+02 1.42402466e+02 1.42535950e+02 1.42736588e+02 1.42770981e+02 1.42810806e+02 1.43504196e+02 1.44324646e+02 1.44922958e+02 1.45301041e+02 1.45453827e+02 1.45867249e+02 1.45874344e+02 1.46005905e+02 1.46920105e+02 1.46971725e+02 1.47325714e+02 1.47481186e+02 1.47910721e+02 1.47925018e+02 1.48085159e+02 1.48114655e+02 1.48224823e+02 1.48396744e+02 1.48692444e+02 1.49137161e+02 1.49152588e+02 1.49398544e+02 1.50149368e+02 1.50504272e+02 1.51460724e+02 1.52486771e+02 1.52806610e+02 1.53077850e+02 1.53313812e+02 1.53472488e+02 1.53766968e+02 1.54864868e+02 1.54922455e+02 1.55370972e+02 1.55663681e+02 1.56168259e+02 1.56547409e+02 1.57311295e+02 1.57460266e+02 1.57621857e+02 1.58298935e+02 1.58891647e+02 1.59036316e+02 1.59460312e+02 1.59655594e+02 1.60204712e+02 1.60329117e+02 1.60649307e+02 1.60994324e+02 1.61152908e+02 1.61160278e+02 1.62141922e+02 1.62510269e+02 1.62572250e+02 1.63216583e+02 1.63302124e+02 1.63417313e+02 1.63575607e+02 1.63799316e+02 1.64877441e+02 1.65172760e+02 1.65294312e+02 1.65483093e+02 1.65723389e+02 1.66365112e+02 1.67353714e+02 1.67423187e+02 1.67603989e+02 1.68552094e+02 1.69941788e+02 1.69946274e+02 1.70071487e+02 1.70514877e+02 1.70926605e+02 1.71714767e+02 1.72074127e+02 1.72345627e+02 1.73946732e+02 1.73992371e+02 1.75197372e+02 1.75263199e+02 1.76162674e+02 1.76488495e+02 1.76598465e+02 1.76740265e+02 1.77234116e+02 1.77604294e+02 1.77726624e+02 1.77925720e+02 1.78224716e+02 1.78507446e+02 1.80026093e+02 1.80247467e+02 1.80623764e+02 1.81629990e+02 1.81678619e+02 1.82013718e+02 1.82670593e+02 1.83562820e+02 1.83828613e+02 1.84374664e+02 1.84708405e+02 1.85664124e+02 1.86221146e+02 1.86330704e+02 1.86331680e+02 1.86726883e+02 1.87332230e+02 1.88666595e+02 1.91843445e+02 1.91853714e+02 1.92650009e+02 1.93400070e+02 1.93660706e+02 1.94867905e+02 1.95461288e+02 1.97893631e+02 1.98605103e+02 1.98989059e+02 1.99953003e+02 1.99953415e+02 2.00758057e+02 2.03295853e+02 2.03375992e+02 2.04136749e+02 2.04714066e+02 2.05617416e+02 2.09906128e+02 2.10316757e+02 2.10588989e+02 2.11010223e+02 2.11443741e+02 2.11486053e+02 2.14370132e+02 2.15309692e+02 2.16030304e+02 2.16957962e+02 2.17539902e+02 2.19270523e+02 2.21966858e+02 2.22133499e+02 2.23593414e+02 2.23762451e+02 2.24617920e+02 2.25617798e+02 2.26241089e+02 2.26715469e+02 2.27872116e+02 2.28714691e+02 2.28983719e+02 2.30559723e+02 2.30684814e+02 2.31008972e+02 2.32370224e+02 2.33641144e+02 2.38497009e+02 2.39846130e+02 2.40060074e+02 2.41961945e+02 2.44211029e+02 2.45312576e+02 2.45961395e+02 2.46342743e+02 2.46820724e+02 2.47345779e+02 2.48475800e+02 2.50040375e+02 2.52684113e+02 2.52752640e+02 2.53198257e+02 2.54659531e+02 2.55613571e+02 2.55787613e+02 2.56587189e+02 2.60505554e+02 2.61201752e+02 2.61986420e+02 2.63357147e+02 2.65354980e+02 2.67931152e+02 2.77536774e+02 2.78279327e+02 2.82594086e+02 2.86240906e+02 2.89219788e+02 2.94003601e+02 2.95812561e+02 2.96602295e+02 3.05579681e+02 3.07220612e+02 3.09859985e+02 3.14011261e+02 3.16607513e+02 3.16933228e+02 3.27152863e+02 3.29934021e+02 3.32101990e+02 3.32924561e+02 3.34887177e+02 3.44245880e+02 3.44862793e+02 3.45065308e+02 3.52942535e+02 3.65230194e+02 3.68160034e+02 3.73532898e+02 3.78306915e+02 3.96833801e+02 4.04058380e+02 4.23727478e+02 4.24387177e+02 4.39667419e+02 4.76226013e+02 4.78922546e+02 5.73412109e+02 
            </HistogramBinning>
          </PDF>
        </CumulativePDF_cls1>
        <CumulativePDF_cls2>
          <PDF Name="GaussTransform var0 cls2" MinNSmooth="0" MaxNSmooth="0" InterpolMethod="1" KDE_type="0" KDE_iter="1" KDE_border="1" KDE_finefactor="0.0000000000000000e+00">
            <Histogram Name="Cumulative_Var0_cls2_original" NBins="1336" XMin="3.1212501525878906e+01" XMax="6.8091107177734375e+02" HasEquidistantBins="0">
              0.00000000e+00 5.28059318e-04 1.57787802e-03 2.59306631e-03 3.15573346e-03 3.63299414e-03 4.23028832e-03 4.91528213e-03 5.62618067e-03 6.31868420e-03 7.01546762e-03 7.64692249e-03 8.32339469e-03 8.91887303e-03 9.39898472e-03 9.97078605e-03 1.05562825e-02 1.11870598e-02 1.21005913e-02 1.30247418e-02 1.38097359e-02 1.46596916e-02 1.54774999e-02 1.64004527e-02 1.73787419e-02 1.80910658e-02 1.87291224e-02 1.94676779e-02 2.00931560e-02 2.06173565e-02 2.11951733e-02 2.17995122e-02 2.25685332e-02 2.35162117e-02 2.42323484e-02 2.48309672e-02 2.56608240e-02 2.65880376e-02 2.73556914e-02 2.78348532e-02 2.84336433e-02 2.94151995e-02 3.03243101e-02 3.10039353e-02 3.16176526e-02 3.22484858e-02 3.29134688e-02 3.36866342e-02 3.44181918e-02 3.49603631e-02 3.55477259e-02 3.60107385e-02 3.65757011e-02 3.75324376e-02 3.85512784e-02 3.94332968e-02 4.00702506e-02 4.06741574e-02 4.14438173e-02 4.21554595e-02 4.26790565e-02 4.32015024e-02 4.39743511e-02 4.50337715e-02 4.58604917e-02 4.62290309e-02 4.67202775e-02 4.74668406e-02 4.82647493e-02 4.91692163e-02 5.01833186e-02 5.10493815e-02 5.17485999e-02 5.26394509e-02 5.34827523e-02 5.40805534e-02 5.47698475e-02 5.56643307e-02 5.65331653e-02 5.72214648e-02 5.78218922e-02 5.83483018e-02 5.90937100e-02 6.01051711e-02 6.10271208e-02 6.17142059e-02 6.22493848e-02 6.29065409e-02 6.35608509e-02 6.40917793e-02 6.45823330e-02 6.52670115e-02 6.64103776e-02 6.75650686e-02 6.82690144e-02 6.89348876e-02 6.98670074e-02 7.07830265e-02 7.15237930e-02 7.20580071e-02 7.25067854e-02 7.31292963e-02 7.39160180e-02 7.47672766e-02 7.56369159e-02 7.64900520e-02 7.74154663e-02 7.82444030e-02 7.88766518e-02 7.94793963e-02 8.00719857e-02 8.06005001e-02 8.11108202e-02 8.18243548e-02 8.26897472e-02 8.33139345e-02 8.39197338e-02 8.48178938e-02 8.57283622e-02 8.65502134e-02 8.72880593e-02 8.78803506e-02 8.86069536e-02 8.96256939e-02 9.05743465e-02 9.12100002e-02 9.18493196e-02 9.25714672e-02 9.32314694e-02 9.41044390e-02 9.49081555e-02 9.55661535e-02 9.63318050e-02 9.70578566e-02 9.79663804e-02 9.88302156e-02 9.95847359e-02 1.00468799e-01 1.01222888e-01 1.02034822e-01 1.02988593e-01 1.03924461e-01 1.04862869e-01 1.05848148e-01 1.06756404e-01 1.07422858e-01 1.08135611e-01 1.09062515e-01 1.09975964e-01 1.10651851e-01 1.11249745e-01 1.12167373e-01 1.13169961e-01 1.13939539e-01 1.14595540e-01 1.15414403e-01 1.16421580e-01 1.17188036e-01 1.17939495e-01 1.18740082e-01 1.19433798e-01 1.20293304e-01 1.21059984e-01 1.21667758e-01 1.22371018e-01 1.23208135e-01 1.24017850e-01 1.24638110e-01 1.25217512e-01 1.25961766e-01 1.26745626e-01 1.27294406e-01 1.27731934e-01 1.28371283e-01 1.29152358e-01 1.29781991e-01 1.30307212e-01 1.30811602e-01 1.31328404e-01 1.31949276e-01 1.32553414e-01 1.33129224e-01 1.33736461e-01 1.34518936e-01 1.35398030e-01 1.36181742e-01 1.36979774e-01 1.37674823e-01 1.38330027e-01 1.39210433e-01 1.40077934e-01 1.40873864e-01 1.41802669e-01 1.42593339e-01 1.43179208e-01 1.43661663e-01 1.44316986e-01 1.45233512e-01 1.46020785e-01 1.46780670e-01 1.47689566e-01 1.48508370e-01 1.49190962e-01 1.49912357e-01 1.50666505e-01 1.51435167e-01 1.52223289e-01 1.53003395e-01 1.53875500e-01 1.54891029e-01 1.55665964e-01 1.56331673e-01 1.57262802e-01 1.58223808e-01 1.59028813e-01 1.59679115e-01 1.60361543e-01 1.61145970e-01 1.61923572e-01 1.62677288e-01 1.63462430e-01 1.64292827e-01 1.64947435e-01 1.65484279e-01 1.66226402e-01 1.67175457e-01 1.68038547e-01 1.68891564e-01 1.69910058e-01 1.70753613e-01 1.71458423e-01 1.72249988e-01 1.72973618e-01 1.73590243e-01 1.74240395e-01 1.75121129e-01 1.75975651e-01 1.76674321e-01 1.77458107e-01 1.78094149e-01 1.78599715e-01 1.79150090e-01 1.79684564e-01 1.80368498e-01 1.81330934e-01 1.82230428e-01 1.82780594e-01 1.83254868e-01 1.83992997e-01 1.84782714e-01 1.85485184e-01 1.86234772e-01 1.86827779e-01 1.87535748e-01 1.88362092e-01 1.89008906e-01 1.89877734e-01 1.90693244e-01 1.91103488e-01 1.91534162e-01 1.92025706e-01 1.92701250e-01 1.93640351e-01 1.94332525e-01 1.94796264e-01 1.95325613e-01 1.96016625e-01 1.96812838e-01 1.97416291e-01 1.97846800e-01 1.98337078e-01 1.98859856e-01 1.99607745e-01 2.00515732e-01 2.00821280e-01 2.02417016e-01 2.05962673e-01 2.07932606e-01 2.08297417e-01 2.08823964e-01 2.09433079e-01 2.10238487e-01 2.11254358e-01 2.12305367e-01 2.13166654e-01 2.13772476e-01 2.14330480e-01 2.14880392e-01 2.15412199e-01 2.15953916e-01 2.16530859e-01 2.17169985e-01 2.17747316e-01 2.18422547e-01 2.19314009e-01 2.20198050e-01 2.20946476e-01 2.21522972e-01 2.22046182e-01 2.22575739e-01 2.23080739e-01 2.23699436e-01 2.24348411e-01 2.24968001e-01 2.25773796e-01 2.26835579e-01 2.27939948e-01 2.28864312e-01 2.29672790e-01 2.30308980e-01 2.31040910e-01 2.31991172e-01 2.32653588e-01 2.33103245e-01 2.33695582e-01 2.34365746e-01 2.35114321e-01 2.35880420e-01 2.36380681e-01 2.36782312e-01 2.37519249e-01 2.38508612e-01 2.39412978e-01 2.40258723e-01 2.40871817e-01 2.41454557e-01 2.42379099e-01 2.43358910e-01 2.44204655e-01 2.44838700e-01 2.45346069e-01 2.45717317e-01 2.47102916e-01 2.49672607e-01 2.51043171e-01 2.51357526e-01 2.51935601e-01 2.52845019e-01 2.53896296e-01 2.54613787e-01 2.55102694e-01 2.55691081e-01 2.56346047e-01 2.56916791e-01 2.57429034e-01 2.57966906e-01 2.58505076e-01 2.59131938e-01 2.59917170e-01 2.60617942e-01 2.61143386e-01 2.61818320e-01 2.62800306e-01 2.63796061e-01 2.64544398e-01 2.65138417e-01 2.66007423e-01 2.67082363e-01 2.67749727e-01 2.68278182e-01 2.68992662e-01 2.69759357e-01 2.70587236e-01 2.71255791e-01 2.71981150e-01 2.72877932e-01 2.73555636e-01 2.74084151e-01 2.74788082e-01 2.75664985e-01 2.76418358e-01 2.77205855e-01 2.78058976e-01 2.78804064e-01 2.79603362e-01 2.80291706e-01 2.80828625e-01 2.81379253e-01 2.81955093e-01 2.82633781e-01 2.83427566e-01 2.84203142e-01 2.85002381e-01 2.85869777e-01 2.86522478e-01 2.86998898e-01 2.87536144e-01 2.88096070e-01 2.88614154e-01 2.89154351e-01 2.89799809e-01 2.90654063e-01 2.91852206e-01 2.93049097e-01 2.93671966e-01 2.94752896e-01 2.96549439e-01 2.97735482e-01 2.98537254e-01 2.99142033e-01 2.99773633e-01 3.00716609e-01 3.01592112e-01 3.02549034e-01 3.03665459e-01 3.04774106e-01 3.05835485e-01 3.06688696e-01 3.07246685e-01 3.07803184e-01 3.08422387e-01 3.09121639e-01 3.09823573e-01 3.10206205e-01 3.10838819e-01 3.12038958e-01 3.13132554e-01 3.14019412e-01 3.15035522e-01 3.16141576e-01 3.17023754e-01 3.17711055e-01 3.18365961e-01 3.18992406e-01 3.19666445e-01 3.20274591e-01 3.21022272e-01 3.21934909e-01 3.22564781e-01 3.23077053e-01 3.23594302e-01 3.24119300e-01 3.24783266e-01 3.25425625e-01 3.26119065e-01 3.27005953e-01 3.27944905e-01 3.28732491e-01 3.29244435e-01 3.29700917e-01 3.29879165e-01 3.31817687e-01 3.36052418e-01 3.38271171e-01 3.38568240e-01 3.39229882e-01 3.39895636e-01 3.40420634e-01 3.40939879e-01 3.41621697e-01 3.42468292e-01 3.43198568e-01 3.43853086e-01 3.44811171e-01 3.45890522e-01 3.46697032e-01 3.47334385e-01 3.48142207e-01 3.49015266e-01 3.49603891e-01 3.50082308e-01 3.50637376e-01 3.51153553e-01 3.51845950e-01 3.52698773e-01 3.53370667e-01 3.54150802e-01 3.55205685e-01 3.56204659e-01 3.56981754e-01 3.57518107e-01 3.58134687e-01 3.59066665e-01 3.59967500e-01 3.60651463e-01 3.61230671e-01 3.61754775e-01 3.62358838e-01 3.63212436e-01 3.64309281e-01 3.65231067e-01 3.65785152e-01 3.66497815e-01 3.67738932e-01 3.69027436e-01 3.69775742e-01 3.70260566e-01 3.70770365e-01 3.71317565e-01 3.71979773e-01 3.72651130e-01 3.73379141e-01 3.74434650e-01 3.75632912e-01 3.76679331e-01 3.77691388e-01 3.78584594e-01 3.79253954e-01 3.79979283e-01 3.80804807e-01 3.81603450e-01 3.82395655e-01 3.83168876e-01 3.84171754e-01 3.85133564e-01 3.85839283e-01 3.86648089e-01 3.87324512e-01 3.87778729e-01 3.88343185e-01 3.89101714e-01 3.89825791e-01 3.90558749e-01 3.91452581e-01 3.92370760e-01 3.93332183e-01 3.94168168e-01 3.94762635e-01 3.95314246e-01 3.96006197e-01 3.96929502e-01 3.97947371e-01 3.99011940e-01 3.99902582e-01 4.00535733e-01 4.01142716e-01 4.01662380e-01 4.02204841e-01 4.02814567e-01 4.03319895e-01 4.03932750e-01 4.04775977e-01 4.05699819e-01 4.06513512e-01 4.07182366e-01 4.07867938e-01 4.08629984e-01 4.09446776e-01 4.10249710e-01 4.11208272e-01 4.12111849e-01 4.12648469e-01 4.13258195e-01 4.14134264e-01 4.15064722e-01 4.15749431e-01 4.16277677e-01 4.17044610e-01 4.17729199e-01 4.18242663e-01 4.18846816e-01 4.19483721e-01 4.20057297e-01 4.20659184e-01 4.21662390e-01 4.22951400e-01 4.23979491e-01 4.24600571e-01 4.25241023e-01 4.26027983e-01 4.26732332e-01 4.27491874e-01 4.28351879e-01 4.29177761e-01 4.29571837e-01 4.31142360e-01 4.34311688e-01 4.35926795e-01 4.36217725e-01 4.36917335e-01 4.37801212e-01 4.38698828e-01 4.39692736e-01 4.40646529e-01 4.41338986e-01 4.41975594e-01 4.42634374e-01 4.43346202e-01 4.44179177e-01 4.44992959e-01 4.45860893e-01 4.46880609e-01 4.47929859e-01 4.48911697e-01 4.49869007e-01 4.50716972e-01 4.51430559e-01 4.52344656e-01 4.53491271e-01 4.54456747e-01 4.55265969e-01 4.56153244e-01 4.56950068e-01 4.57759023e-01 4.58606660e-01 4.59273100e-01 4.59877491e-01 4.60717231e-01 4.61583018e-01 4.62207764e-01 4.62903053e-01 4.63661820e-01 4.64300573e-01 4.64833826e-01 4.65485901e-01 4.66356695e-01 4.67083186e-01 4.67742115e-01 4.68718559e-01 4.69687879e-01 4.70478714e-01 4.71367836e-01 4.72203851e-01 4.72863227e-01 4.73575324e-01 4.74385560e-01 4.74934459e-01 4.75478470e-01 4.76408094e-01 4.77485716e-01 4.78370726e-01 4.78852868e-01 4.79413301e-01 4.80378777e-01 4.81297791e-01 4.81890410e-01 4.82411951e-01 4.83012289e-01 4.83678222e-01 4.84348416e-01 4.84784633e-01 4.85377401e-01 4.86275047e-01 4.86957014e-01 4.87659454e-01 4.88516957e-01 4.89196002e-01 4.89934683e-01 4.90998447e-01 4.92034018e-01 4.92643118e-01 4.93180811e-01 4.93873209e-01 4.94380355e-01 4.94892746e-01 4.95724082e-01 4.96575683e-01 4.97157544e-01 4.97752577e-01 4.98675019e-01 4.99626845e-01 5.00224710e-01 5.00787675e-01 5.01619220e-01 5.02614379e-01 5.03736436e-01 5.04876554e-01 5.05835772e-01 5.06501496e-01 5.07056534e-01 5.07819891e-01 5.08678257e-01 5.09281695e-01 5.09891391e-01 5.10647595e-01 5.11342287e-01 5.12011170e-01 5.12670636e-01 5.13564825e-01 5.14629483e-01 5.15370905e-01 5.15977323e-01 5.16957998e-01 5.18006504e-01 5.18798411e-01 5.19480824e-01 5.20122528e-01 5.20817637e-01 5.21517158e-01 5.22422850e-01 5.23569584e-01 5.24571598e-01 5.25381804e-01 5.25920272e-01 5.26547015e-01 5.27449846e-01 5.28196633e-01 5.28882623e-01 5.29632032e-01 5.30338347e-01 5.30920744e-01 5.31507432e-01 5.32303035e-01 5.33153772e-01 5.33854723e-01 5.34417212e-01 5.34962237e-01 5.35574138e-01 5.36172152e-01 5.36782503e-01 5.37390947e-01 5.37850976e-01 5.38351655e-01 5.38967252e-01 5.39546371e-01 5.40258765e-01 5.41138828e-01 5.41945338e-01 5.42795002e-01 5.43801963e-01 5.44794500e-01 5.45540035e-01 5.46221495e-01 5.46991408e-01 5.47787011e-01 5.48694968e-01 5.49398184e-01 5.49893320e-01 5.50471544e-01 5.51293314e-01 5.52151144e-01 5.52623034e-01 5.53232193e-01 5.54240644e-01 5.55087268e-01 5.55691063e-01 5.56375682e-01 5.57313204e-01 5.58369696e-01 5.59282660e-01 5.59918821e-01 5.60443759e-01 5.60967505e-01 5.61620533e-01 5.62504530e-01 5.63285530e-01 5.63875318e-01 5.64457893e-01 5.65116405e-01 5.65967739e-01 5.66885591e-01 5.67581058e-01 5.68108022e-01 5.68662107e-01 5.69340110e-01 5.70097446e-01 5.70868969e-01 5.71604788e-01 5.72220206e-01 5.72779536e-01 5.73360920e-01 5.73961854e-01 5.74532688e-01 5.75036049e-01 5.75607538e-01 5.76332927e-01 5.77008247e-01 5.77633679e-01 5.78440368e-01 5.79268813e-01 5.79877317e-01 5.80358624e-01 5.80979824e-01 5.81808686e-01 5.82657933e-01 5.83442926e-01 5.84054947e-01 5.84712505e-01 5.85503936e-01 5.86151183e-01 5.86849213e-01 5.87567568e-01 5.88102400e-01 5.88599503e-01 5.89147985e-01 5.89880347e-01 5.90745747e-01 5.91431141e-01 5.91934323e-01 5.92614114e-01 5.93543708e-01 5.94357312e-01 5.95109761e-01 5.96116602e-01 5.97241104e-01 5.98131955e-01 5.99028111e-01 6.00039721e-01 6.00677371e-01 6.01307213e-01 6.02351129e-01 6.03326321e-01 6.04028285e-01 6.04599357e-01 6.05261385e-01 6.06100619e-01 6.06749773e-01 6.07439101e-01 6.08319759e-01 6.09161258e-01 6.10182762e-01 6.10905051e-01 6.11172497e-01 6.11633539e-01 6.12249613e-01 6.12994850e-01 6.13917887e-01 6.14677608e-01 6.15251720e-01 6.15929365e-01 6.16657019e-01 6.17351592e-01 6.18204296e-01 6.19141698e-01 6.19827449e-01 6.20285332e-01 6.20864630e-01 6.21470392e-01 6.21975780e-01 6.22653186e-01 6.23359144e-01 6.23786390e-01 6.24175131e-01 6.24781609e-01 6.25823796e-01 6.26973689e-01 6.27835810e-01 6.28505409e-01 6.28805459e-01 6.29931152e-01 6.32269323e-01 6.33807123e-01 6.34472609e-01 6.35219395e-01 6.35824740e-01 6.36327028e-01 6.36819184e-01 6.37543082e-01 6.38604164e-01 6.39426649e-01 6.40084982e-01 6.40878916e-01 6.41732156e-01 6.42577350e-01 6.43230915e-01 6.43747807e-01 6.44264758e-01 6.44825697e-01 6.45630598e-01 6.46759689e-01 6.47763908e-01 6.48476660e-01 6.49157643e-01 6.49883628e-01 6.50931656e-01 6.51976228e-01 6.52449608e-01 6.52823329e-01 6.53459072e-01 6.54112458e-01 6.54843748e-01 6.55585110e-01 6.56593502e-01 6.58166289e-01 6.59320951e-01 6.59829497e-01 6.60510302e-01 6.61481500e-01 6.62302911e-01 6.62867904e-01 6.63620532e-01 6.64712608e-01 6.65711045e-01 6.66346788e-01 6.66806638e-01 6.67265356e-01 6.67877913e-01 6.68886304e-01 6.70096934e-01 6.71133459e-01 6.71968460e-01 6.72602236e-01 6.73130929e-01 6.73683107e-01 6.74209476e-01 6.74855947e-01 6.75705791e-01 6.76556110e-01 6.77324593e-01 6.77940726e-01 6.78436458e-01 6.78967416e-01 6.79530025e-01 6.80034459e-01 6.80681705e-01 6.81519151e-01 6.82288051e-01 6.83069050e-01 6.83954477e-01 6.84894323e-01 6.85845912e-01 6.86711609e-01 6.87420607e-01 6.88048363e-01 6.88812315e-01 6.89688265e-01 6.90400541e-01 6.91068769e-01 6.91765785e-01 6.92596436e-01 6.93587244e-01 6.94237053e-01 6.94747567e-01 6.95527434e-01 6.96326375e-01 6.97062135e-01 6.97777271e-01 6.98348045e-01 6.98889673e-01 6.99461997e-01 7.00098097e-01 7.00859070e-01 7.01500237e-01 7.02063501e-01 7.02673554e-01 7.03344405e-01 7.04124808e-01 7.04796612e-01 7.05356300e-01 7.05884099e-01 7.06571281e-01 7.07662106e-01 7.08665073e-01 7.09250867e-01 7.09798932e-01 7.10727096e-01 7.11797118e-01 7.12703645e-01 7.13595450e-01 7.14455485e-01 7.15467274e-01 7.16380894e-01 7.16854393e-01 7.17412770e-01 7.18164861e-01 7.18823314e-01 7.19432354e-01 7.20114708e-01 7.20953882e-01 7.21702993e-01 7.22379565e-01 7.23093927e-01 7.23754048e-01 7.24514842e-01 7.25162208e-01 7.25655794e-01 7.26158381e-01 7.26819754e-01 7.27650821e-01 7.28317380e-01 7.29011476e-01 7.29720414e-01 7.30266511e-01 7.31077850e-01 7.31999457e-01 7.32654333e-01 7.33275831e-01 7.33991265e-01 7.34668434e-01 7.35387087e-01 7.36175299e-01 7.36777723e-01 7.37290025e-01 7.37817883e-01 7.38459289e-01 7.39416361e-01 7.40346551e-01 7.40958512e-01 7.41564453e-01 7.42476642e-01 7.43406892e-01 7.44101942e-01 7.44738162e-01 7.45445490e-01 7.46273220e-01 7.47168720e-01 7.47994900e-01 7.48613060e-01 7.49103785e-01 7.49802470e-01 7.50598550e-01 7.51182497e-01 7.51752734e-01 7.52348483e-01 7.52980590e-01 7.53740430e-01 7.54369855e-01 7.54837930e-01 7.55337596e-01 7.55853236e-01 7.56585121e-01 7.57449150e-01 7.57946074e-01 7.58352816e-01 7.58930981e-01 7.59634972e-01 7.60436952e-01 7.61077046e-01 7.61753142e-01 7.62711942e-01 7.63620019e-01 7.64290214e-01 7.64820874e-01 7.65483856e-01 7.66334057e-01 7.67141402e-01 7.67981172e-01 7.68742681e-01 7.69313812e-01 7.69991517e-01 7.70808041e-01 7.71538854e-01 7.72227108e-01 7.72902608e-01 7.73498476e-01 7.74083555e-01 7.74671018e-01 7.75207281e-01 7.75707662e-01 7.76199043e-01 7.76892543e-01 7.77774036e-01 7.78430879e-01 7.78913438e-01 7.79584110e-01 7.80608296e-01 7.81729102e-01 7.82610953e-01 7.83274114e-01 7.83801496e-01 7.84486115e-01 7.85350204e-01 7.85973608e-01 7.86490500e-01 7.87283897e-01 7.88184702e-01 7.88838089e-01 7.89310813e-01 7.89949238e-01 7.90768445e-01 7.91398406e-01 7.92150855e-01 7.93154359e-01 7.94007838e-01 7.94822514e-01 7.95582414e-01 7.96272099e-01 7.97035038e-01 7.97859550e-01 7.98532844e-01 7.99043596e-01 7.99625516e-01 8.00268292e-01 8.00983429e-01 8.01745355e-01 8.02571058e-01 8.03523839e-01 8.04250240e-01 8.04859102e-01 8.05787265e-01 8.06886256e-01 8.07899058e-01 8.08222950e-01 8.10424924e-01 8.15297425e-01 8.17721486e-01 8.17843139e-01 8.18362474e-01 8.18933964e-01 8.19594204e-01 8.20329487e-01 8.20886850e-01 8.21356177e-01 8.21869671e-01 8.22391152e-01 8.23057711e-01 8.23844969e-01 8.24500024e-01 8.25002730e-01 8.25616181e-01 8.26369524e-01 8.26968014e-01 8.27658713e-01 8.28548014e-01 8.29344392e-01 8.30117106e-01 8.30720842e-01 8.31284344e-01 8.32002938e-01 8.32683980e-01 8.33312988e-01 8.33951116e-01 8.34589541e-01 8.35185707e-01 8.35737526e-01 8.36266935e-01 8.36796463e-01 8.37308109e-01 8.37982953e-01 8.38821232e-01 8.39462399e-01 8.39974165e-01 8.40486348e-01 8.41161966e-01 8.42053473e-01 8.42719972e-01 8.43255460e-01 8.44023466e-01 8.45019519e-01 8.45990062e-01 8.46691489e-01 8.47358942e-01 8.48210573e-01 8.49092662e-01 8.49831641e-01 8.50412786e-01 8.50939989e-01 8.51513803e-01 8.52268815e-01 8.53116632e-01 8.53809237e-01 8.54543746e-01 8.55365098e-01 8.56049418e-01 8.56622100e-01 8.57254207e-01 8.58203351e-01 8.59169662e-01 8.59810889e-01 8.60379815e-01 8.60967159e-01 8.61633241e-01 8.62371206e-01 8.62924814e-01 8.63542140e-01 8.64382863e-01 8.65053654e-01 8.65592837e-01 8.66188049e-01 8.66754472e-01 8.67416263e-01 8.68232667e-01 8.68943691e-01 8.69503975e-01 8.70286822e-01 8.71250868e-01 8.71904254e-01 8.72522354e-01 8.73225093e-01 8.73754144e-01 8.74393523e-01 8.75060797e-01 8.75638902e-01 8.76433015e-01 8.77272189e-01 8.77905607e-01 8.78621638e-01 8.79490256e-01 8.80470335e-01 8.81369114e-01 8.82103562e-01 8.82978618e-01 8.83663118e-01 8.84001732e-01 8.84472907e-01 8.85154963e-01 8.85850728e-01 8.86561036e-01 8.87333214e-01 8.88195992e-01 8.89028549e-01 8.89644623e-01 8.90182912e-01 8.90753329e-01 8.91262949e-01 8.91913652e-01 8.92822981e-01 8.93595815e-01 8.94117534e-01 8.94738793e-01 8.95501018e-01 8.96151006e-01 8.96720231e-01 8.97462487e-01 8.98433506e-01 8.99406672e-01 9.00276840e-01 9.01022017e-01 9.01589215e-01 9.02216852e-01 9.03098464e-01 9.03933346e-01 9.04496074e-01 9.05011177e-01 9.05727386e-01 9.06270921e-01 9.08008635e-01 9.11366940e-01 9.13172483e-01 9.13493752e-01 9.14132953e-01 9.14886355e-01 9.15477514e-01 9.16130066e-01 9.16912854e-01 9.17494774e-01 9.18070078e-01 9.18721676e-01 9.19275165e-01 9.19896305e-01 9.20535326e-01 9.21141148e-01 9.22146499e-01 9.23226058e-01 9.23970759e-01 9.24858809e-01 9.25961554e-01 9.26791012e-01 9.27451253e-01 9.28125560e-01 9.28586543e-01 9.29128289e-01 9.29788530e-01 9.30467367e-01 9.31234181e-01 9.31859970e-01 9.32557821e-01 9.33280230e-01 9.33879256e-01 9.34749365e-01 9.35703516e-01 9.36436117e-01 9.37006414e-01 9.37497020e-01 9.38062012e-01 9.38871980e-01 9.39773262e-01 9.40432429e-01 9.40961301e-01 9.41537559e-01 9.42094088e-01 9.42691565e-01 9.43410516e-01 9.44184065e-01 9.45082366e-01 9.45927680e-01 9.46491122e-01 9.46997762e-01 9.47664917e-01 9.48434353e-01 9.49062347e-01 9.49798107e-01 9.50976133e-01 9.52089489e-01 9.52800572e-01 9.53363776e-01 9.53905880e-01 9.54482138e-01 9.55229163e-01 9.56003487e-01 9.56587791e-01 9.57111180e-01 9.57719922e-01 9.58359599e-01 9.59095001e-01 9.59895492e-01 9.60723519e-01 9.61630285e-01 9.62300956e-01 9.62895572e-01 9.63778377e-01 9.64744449e-01 9.65539098e-01 9.66118693e-01 9.66610432e-01 9.67258394e-01 9.68171060e-01 9.69044626e-01 9.69826758e-01 9.70663548e-01 9.71381068e-01 9.71901536e-01 9.72588778e-01 9.73501623e-01 9.74250019e-01 9.74832892e-01 9.75320578e-01 9.75876093e-01 9.76642370e-01 9.77388203e-01 9.77979839e-01 9.78551030e-01 9.79151249e-01 9.79864895e-01 9.80548561e-01 9.80975807e-01 9.81490374e-01 9.82106328e-01 9.82669950e-01 9.83250737e-01 9.83906627e-01 9.84740615e-01 9.85487342e-01 9.86152649e-01 9.86949444e-01 9.87610698e-01 9.88140464e-01 9.88675833e-01 9.89228904e-01 9.89835799e-01 9.90535796e-01 9.91267264e-01 9.91842866e-01 9.92391229e-01 9.92990911e-01 9.93546426e-01 9.94184315e-01 9.94985282e-01 9.95824873e-01 9.96567786e-01 9.97146070e-01 9.97666180e-01 9.98231888e-01 9.98850584e-01 9.99489129e-01 1.00000000e+00 
            </Histogram>
            <HistogramBinning NBins="1336">
