<?xml version="1.0"?>
<MethodSetup Method="BDT::BDTG">
  <GeneralInfo>
   <Info name="TMVA Release" value="4.2.0 [262656]"/>
   <Info name="ROOT Release" value="5.34/10 [336394]"/>
   <Info name="Creator" value="amassiro"/>
   <Info name="Date" value="Mon Dec 30 17:22:52 2013"/>
   <Info name="Host" value="Linux amassiro-XPS-L421X 3.8.0-31-generic #46-Ubuntu SMP Tue Sep 10 20:03:44 UTC 2013 x86_64 x86_64 x86_64 GNU/Linux"/>
   <Info name="Dir" value="/home/amassiro/Cern/Code/VBF/qqHWW/AnalysisPackage_qqHWWlnulnu"/>
   <Info name="Training events" value="2000"/>
   <Info name="TrainingTime" value="2.84151006e+00"/>
    <Info name="AnalysisType" value="Classification"/>
  </GeneralInfo>
  <Options>
    <Option name="V" modified="Yes">False</Option>
    <Option name="VerbosityLevel" modified="No">Default</Option>
    <Option name="VarTransform" modified="No">None</Option>
    <Option name="H" modified="Yes">True</Option>
    <Option name="CreateMVAPdfs" modified="No">False</Option>
    <Option name="IgnoreNegWeightsInTraining" modified="No">False</Option>
    <Option name="NTrees" modified="Yes">500</Option>
    <Option name="MaxDepth" modified="Yes">8</Option>
    <Option name="nCuts" modified="Yes">100</Option>
    <Option name="BoostType" modified="Yes">Grad</Option>
    <Option name="AdaBoostR2Loss" modified="No">quadratic</Option>
    <Option name="Shrinkage" modified="Yes">1.000000e-01</Option>
    <Option name="AdaBoostBeta" modified="No">5.000000e-01</Option>
    <Option name="UseRandomisedTrees" modified="No">False</Option>
    <Option name="UseNvars" modified="No">3</Option>
    <Option name="UsePoissonNvars" modified="No">True</Option>
    <Option name="UseYesNoLeaf" modified="No">True</Option>
    <Option name="NodePurityLimit" modified="No">5.000000e-01</Option>
    <Option name="SeparationType" modified="No">giniindex</Option>
    <Option name="DoBoostMonitor" modified="No">False</Option>
    <Option name="UseFisherCuts" modified="No">False</Option>
    <Option name="MinLinCorrForFisher" modified="No">8.000000e-01</Option>
    <Option name="UseExclusiveVars" modified="No">False</Option>
    <Option name="PruneMethod" modified="No">nopruning</Option>
    <Option name="PruneStrength" modified="No">0.000000e+00</Option>
    <Option name="PruningValFraction" modified="No">5.000000e-01</Option>
    <Option name="nEventsMin" modified="No">0</Option>
    <Option name="UseBaggedGrad" modified="No">False</Option>
    <Option name="GradBaggingFraction" modified="Yes">5.000000e-01</Option>
    <Option name="UseNTrainEvents" modified="No">0</Option>
    <Option name="NNodesMax" modified="No">0</Option>
  </Options>
  <Variables NVar="8">
   <Variable VarIndex="0" Expression="jetpt1" Label="jetpt1" Title="jetpt1" Unit="" Internal="jetpt1" Type="F" Min="3.11058979e+01" Max="1.43144482e+03"/>
   <Variable VarIndex="1" Expression="jetpt2" Label="jetpt2" Title="jetpt2" Unit="" Internal="jetpt2" Type="F" Min="3.00060596e+01" Max="1.17351758e+03"/>
   <Variable VarIndex="2" Expression="detajj" Label="detajj" Title="detajj" Unit="" Internal="detajj" Type="F" Min="5.01109660e-01" Max="8.47517014e+00"/>
   <Variable VarIndex="3" Expression="log(mjj)" Label="log(mjj)" Title="log(mjj)" Unit="" Internal="log_mjj_" Type="F" Min="5.29833221e+00" Max="8.43052769e+00"/>
   <Variable VarIndex="4" Expression="abs(eta1-(jeteta1+jeteta2)/2)/detajj" Label="abs(eta1-(jeteta1+jeteta2)/2)/detajj" Title="abs(eta1-(jeteta1+jeteta2)/2)/detajj" Unit="" Internal="abs_eta1_M__jeteta1_P_jeteta2__D_2__D_detajj" Type="F" Min="6.22250627e-06" Max="7.55509043e+00"/>
   <Variable VarIndex="5" Expression="abs(eta2-(jeteta1+jeteta2)/2)/detajj" Label="abs(eta2-(jeteta1+jeteta2)/2)/detajj" Title="abs(eta2-(jeteta1+jeteta2)/2)/detajj" Unit="" Internal="abs_eta2_M__jeteta1_P_jeteta2__D_2__D_detajj" Type="F" Min="1.86078432e-05" Max="7.33598757e+00"/>
   <Variable VarIndex="6" Expression="sqrt((Ml1j1-100)*(Ml1j1-100)+(Ml1j2-100)*(Ml1j2-100))" Label="sqrt((Ml1j1-100)*(Ml1j1-100)+(Ml1j2-100)*(Ml1j2-100))" Title="sqrt((Ml1j1-100)*(Ml1j1-100)+(Ml1j2-100)*(Ml1j2-100))" Unit="" Internal="sqrt__Ml1j1_M_100__T__Ml1j1_M_100__P__Ml1j2_M_100__T__Ml1j2_M_100__" Type="F" Min="1.13870871e+00" Max="2.59887671e+03"/>
   <Variable VarIndex="7" Expression="sqrt((Ml2j1-100)*(Ml2j1-100)+(Ml2j2-100)*(Ml2j2-100))" Label="sqrt((Ml2j1-100)*(Ml2j1-100)+(Ml2j2-100)*(Ml2j2-100))" Title="sqrt((Ml2j1-100)*(Ml2j1-100)+(Ml2j2-100)*(Ml2j2-100))" Unit="" Internal="sqrt__Ml2j1_M_100__T__Ml2j1_M_100__P__Ml2j2_M_100__T__Ml2j2_M_100__" Type="F" Min="9.96954262e-01" Max="1.99743811e+03"/>
  </Variables>
  <Spectators NSpec="0"/>
  <Classes NClass="2">
   <Class Name="Signal" Index="0"/>
   <Class Name="Background" Index="1"/>
  </Classes>
  <Transformations NTransformations="0"/>
  <MVAPdfs/>
  <Weights NTrees="500" AnalysisType="1">
   <BinaryTree type="DecisionTree" boostWeight="1.0000000000000000e+00" itree="0">
    <Node pos="s" depth="0" NCoef="0" IVar="3" Cut="6.1356515884399414e+00" cType="0" res="8.7315123528242111e-03" rms="4.9992376565933228e-01" purity="5.0873154401779175e-01" nType="0">
     <Node pos="l" depth="1" NCoef="0" IVar="3" Cut="6.6357073783874512e+00" cType="0" res="2.7615767717361450e-01" rms="4.1681763529777527e-01" purity="7.7615773677825928e-01" nType="0">
      <Node pos="l" depth="2" NCoef="0" IVar="0" Cut="1.1594841003417969e+02" cType="0" res="3.9807084202766418e-01" rms="3.0255514383316040e-01" purity="8.9807087182998657e-01" nType="0">
       <Node pos="l" depth="3" NCoef="0" IVar="4" Cut="3.1767484545707703e-01" cType="1" res="4.2048856616020203e-01" rms="2.7053532004356384e-01" purity="9.2048859596252441e-01" nType="0">
        <Node pos="l" depth="4" NCoef="0" IVar="5" Cut="2.6669573783874512e-01" cType="1" res="4.3793246150016785e-01" rms="2.4127818644046783e-01" purity="9.3793249130249023e-01" nType="0">
         <Node pos="l" depth="5" NCoef="0" IVar="-1" Cut="0.0000000000000000e+00" cType="1" res="6.9413103163242340e-02" rms="2.0540310442447662e-01" purity="9.5586133003234863e-01" nType="-99"/>
         <Node pos="r" depth="5" NCoef="0" IVar="-1" Cut="0.0000000000000000e+00" cType="1" res="6.4449153840541840e-02" rms="2.8129976987838745e-01" purity="9.1336476802825928e-01" nType="-99"/>
        </Node>
        <Node pos="r" depth="4" NCoef="0" IVar="-1" Cut="0.0000000000000000e+00" cType="1" res="5.7647850364446640e-02" rms="3.2498884201049805e-01" purity="8.7997668981552124e-01" nType="-99"/>
       </Node>
       <Node pos="r" depth="3" NCoef="0" IVar="-1" Cut="0.0000000000000000e+00" cType="1" res="4.6979751437902451e-02" rms="3.7468519806861877e-01" purity="8.3107548952102661e-01" nType="-99"/>
      </Node>
      <Node pos="r" depth="2" NCoef="0" IVar="0" Cut="1.0366713714599609e+02" cType="0" res="1.3156087696552277e-01" rms="4.8238131403923035e-01" purity="6.3156092166900635e-01" nType="0">
       <Node pos="l" depth="3" NCoef="0" IVar="5" Cut="2.4480862915515900e-01" cType="1" res="1.7362049221992493e-01" rms="4.6888795495033264e-01" purity="6.7362046241760254e-01" nType="0">
        <Node pos="l" depth="4" NCoef="0" IVar="-1" Cut="0.0000000000000000e+00" cType="1" res="3.7072680890560150e-02" rms="4.3452012538909912e-01" purity="7.4737071990966797e-01" nType="-99"/>
        <Node pos="r" depth="4" NCoef="0" IVar="-1" Cut="0.0000000000000000e+00" cType="1" res="2.0536269992589951e-02" rms="4.8475223779678345e-01" purity="6.2253677845001221e-01" nType="-99"/>
       </Node>
       <Node pos="r" depth="3" NCoef="0" IVar="-1" Cut="0.0000000000000000e+00" cType="1" res="3.0267331749200821e-03" rms="4.9989470839500427e-01" purity="5.1026087999343872e-01" nType="-99"/>
      </Node>
     </Node>
     <Node pos="r" depth="1" NCoef="0" IVar="3" Cut="5.6962294578552246e+00" cType="0" res="-2.2838275134563446e-01" rms="4.4479358196258545e-01" purity="2.7161726355552673e-01" nType="0">
      <Node pos="l" depth="2" NCoef="0" IVar="6" Cut="2.2323590087890625e+02" cType="0" res="-1.2279517948627472e-01" rms="4.8468685150146484e-01" purity="3.7720483541488647e-01" nType="0">
       <Node pos="l" depth="3" NCoef="0" IVar="0" Cut="1.4520582580566406e+02" cType="0" res="-4.5101307332515717e-02" rms="4.9796172976493835e-01" purity="4.5489868521690369e-01" nType="0">
        <Node pos="l" depth="4" NCoef="0" IVar="-1" Cut="0.0000000000000000e+00" cType="1" res="-3.7257680669426918e-03" rms="4.9946755170822144e-01" purity="5.2306902408599854e-01" nType="-99"/>
        <Node pos="r" depth="4" NCoef="0" IVar="-1" Cut="0.0000000000000000e+00" cType="1" res="-2.3130225017666817e-02" rms="4.8975667357444763e-01" purity="3.9931041002273560e-01" nType="-99"/>
       </Node>
       <Node pos="r" depth="3" NCoef="0" IVar="3" Cut="5.9312067031860352e+00" cType="0" res="-1.8932273983955383e-01" rms="4.6277087926864624e-01" purity="3.1067726016044617e-01" nType="0">
        <Node pos="l" depth="4" NCoef="0" IVar="-1" Cut="0.0000000000000000e+00" cType="1" res="-2.1793236956000328e-02" rms="4.8906484246253967e-01" purity="3.9600205421447754e-01" nType="-99"/>
        <Node pos="r" depth="4" NCoef="0" IVar="-1" Cut="0.0000000000000000e+00" cType="1" res="-3.9175327867269516e-02" rms="4.3755951523780823e-01" purity="2.5804615020751953e-01" nType="-99"/>
       </Node>
      </Node>
      <Node pos="r" depth="2" NCoef="0" IVar="6" Cut="1.2062305450439453e+02" cType="0" res="-3.1908723711967468e-01" rms="3.8494589924812317e-01" purity="1.8091274797916412e-01" nType="0">
       <Node pos="l" depth="3" NCoef="0" IVar="0" Cut="1.2921343994140625e+02" cType="0" res="-2.5379461050033569e-01" rms="4.3079960346221924e-01" purity="2.4620537459850311e-01" nType="0">
        <Node pos="l" depth="4" NCoef="0" IVar="-1" Cut="0.0000000000000000e+00" cType="1" res="-3.8585212081670761e-02" rms="4.5733374357223511e-01" purity="2.9789641499519348e-01" nType="-99"/>
        <Node pos="r" depth="4" NCoef="0" IVar="-1" Cut="0.0000000000000000e+00" cType="1" res="-5.6142210960388184e-02" rms="4.0910160541534424e-01" purity="2.1253544092178345e-01" nType="-99"/>
       </Node>
       <Node pos="r" depth="3" NCoef="0" IVar="3" Cut="5.4550547599792480e+00" cType="0" res="-4.0074241161346436e-01" rms="2.9900756478309631e-01" purity="9.9257580935955048e-02" nType="0">
        <Node pos="l" depth="4" NCoef="0" IVar="-1" Cut="0.0000000000000000e+00" cType="1" res="-5.9354607015848160e-02" rms="3.5198521614074707e-01" purity="1.4488534629344940e-01" nType="-99"/>
        <Node pos="r" depth="4" NCoef="0" IVar="-1" Cut="0.0000000000000000e+00" cType="1" res="-7.5047992169857025e-02" rms="2.1772290766239166e-01" purity="4.9892529845237732e-02" nType="-99"/>
       </Node>
      </Node>
     </Node>
    </Node>
   </BinaryTree>
   <BinaryTree type="DecisionTree" boostWeight="1.0000000000000000e+00" itree="1">
    <Node pos="s" depth="0" NCoef="0" IVar="3" Cut="6.1356649398803711e+00" cType="0" res="-7.2901719249784946e-03" rms="4.8716530203819275e-01" purity="4.9141979217529297e-01" nType="0">
     <Node pos="l" depth="1" NCoef="0" IVar="3" Cut="6.6585860252380371e+00" cType="0" res="2.3735196888446808e-01" rms="4.2440769076347351e-01" purity="7.5864821672439575e-01" nType="0">
      <Node pos="l" depth="2" NCoef="0" IVar="3" Cut="7.2902183532714844e+00" cType="0" res="3.5548031330108643e-01" rms="3.1760546565055847e-01" purity="8.8563227653503418e-01" nType="0">
       <Node pos="l" depth="3" NCoef="0" IVar="-1" Cut="0.0000000000000000e+00" cType="1" res="6.5929397940635681e-02" rms="1.8279938399791718e-01" purity="9.6530246734619141e-01" nType="-99"/>
       <Node pos="r" depth="3" NCoef="0" IVar="2" Cut="4.7506737709045410e+00" cType="1" res="3.2602053880691528e-01" rms="3.5050037503242493e-01" purity="8.5590422153472900e-01" nType="0">
        <Node pos="l" depth="4" NCoef="0" IVar="5" Cut="2.6899939775466919e-01" cType="1" res="3.5524839162826538e-01" rms="3.1669065356254578e-01" purity="8.8671523332595825e-01" nType="0">
         <Node pos="l" depth="5" NCoef="0" IVar="-1" Cut="0.0000000000000000e+00" cType="1" res="6.0759533196687698e-02" rms="2.6838198304176331e-01" purity="9.2183762788772583e-01" nType="-99"/>
         <Node pos="r" depth="5" NCoef="0" IVar="-1" Cut="0.0000000000000000e+00" cType="1" res="5.3894702345132828e-02" rms="3.6285239458084106e-01" purity="8.4374916553497314e-01" nType="-99"/>
        </Node>
        <Node pos="r" depth="4" NCoef="0" IVar="-1" Cut="0.0000000000000000e+00" cType="1" res="4.2599551379680634e-02" rms="4.0564519166946411e-01" purity="7.9139178991317749e-01" nType="-99"/>
       </Node>
      </Node>
      <Node pos="r" depth="2" NCoef="0" IVar="5" Cut="3.4973251819610596e-01" cType="1" res="1.0301917791366577e-01" rms="4.8613560199737549e-01" purity="6.1424487829208374e-01" nType="0">
       <Node pos="l" depth="3" NCoef="0" IVar="3" Cut="6.3378305435180664e+00" cType="0" res="1.5347979962825775e-01" rms="4.7104910016059875e-01" purity="6.6576814651489258e-01" nType="0">
        <Node pos="l" depth="4" NCoef="0" IVar="-1" Cut="0.0000000000000000e+00" cType="1" res="3.6302123218774796e-02" rms="4.4201067090034485e-01" purity="7.3197162151336670e-01" nType="-99"/>
        <Node pos="r" depth="4" NCoef="0" IVar="-1" Cut="0.0000000000000000e+00" cType="1" res="1.2212712317705154e-02" rms="4.9367386102676392e-01" purity="5.7866787910461426e-01" nType="-99"/>
       </Node>
       <Node pos="r" depth="3" NCoef="0" IVar="-1" Cut="0.0000000000000000e+00" cType="1" res="1.0190188884735107e-02" rms="4.9848708510398865e-01" purity="5.3635960817337036e-01" nType="-99"/>
      </Node>
     </Node>
     <Node pos="r" depth="1" NCoef="0" IVar="3" Cut="5.6879491806030273e+00" cType="0" res="-2.1993573009967804e-01" rms="4.3567854166030884e-01" purity="2.5914204120635986e-01" nType="0">
      <Node pos="l" depth="2" NCoef="0" IVar="7" Cut="1.3618414306640625e+02" cType="0" res="-1.2542426586151123e-01" rms="4.7988197207450867e-01" purity="3.6219745874404907e-01" nType="0">
       <Node pos="l" depth="3" NCoef="0" IVar="-1" Cut="0.0000000000000000e+00" cType="1" res="-1.1049839667975903e-02" rms="4.9553659558296204e-01" purity="4.3821647763252258e-01" nType="-99"/>
       <Node pos="r" depth="3" NCoef="0" IVar="3" Cut="5.9627904891967773e+00" cType="0" res="-1.7051526904106140e-01" rms="4.6439078450202942e-01" purity="3.1623855233192444e-01" nType="0">
        <Node pos="l" depth="4" NCoef="0" IVar="-1" Cut="0.0000000000000000e+00" cType="1" res="-1.2704112567007542e-02" rms="4.9285066127777100e-01" purity="4.1501066088676453e-01" nType="-99"/>
        <Node pos="r" depth="4" NCoef="0" IVar="6" Cut="1.6953356933593750e+02" cType="0" res="-2.1459139883518219e-01" rms="4.4368883967399597e-01" purity="2.7025294303894043e-01" nType="0">
         <Node pos="l" depth="5" NCoef="0" IVar="-1" Cut="0.0000000000000000e+00" cType="1" res="-3.0502667650580406e-02" rms="4.5089158415794373e-01" purity="2.8540569543838501e-01" nType="-99"/>
         <Node pos="r" depth="5" NCoef="0" IVar="-1" Cut="0.0000000000000000e+00" cType="1" res="-4.3144959956407547e-02" rms="4.3621295690536499e-01" purity="2.5533181428909302e-01" nType="-99"/>
        </Node>
       </Node>
      </Node>
      <Node pos="r" depth="2" NCoef="0" IVar="6" Cut="2.5893414306640625e+02" cType="0" res="-3.0486136674880981e-01" rms="3.7176713347434998e-01" purity="1.6653898358345032e-01" nType="0">
       <Node pos="l" depth="3" NCoef="0" IVar="-1" Cut="0.0000000000000000e+00" cType="1" res="-3.1842552125453949e-02" rms="4.5217078924179077e-01" purity="2.8709504008293152e-01" nType="-99"/>
       <Node pos="r" depth="3" NCoef="0" IVar="6" Cut="8.8110534667968750e+01" cType="0" res="-3.3321800827980042e-01" rms="3.4335359930992126e-01" purity="1.3699746131896973e-01" nType="0">
        <Node pos="l" depth="4" NCoef="0" IVar="4" Cut="4.4560882449150085e-01" cType="1" res="-3.0070200562477112e-01" rms="3.7724447250366211e-01" purity="1.7191445827484131e-01" nType="0">
         <Node pos="l" depth="5" NCoef="0" IVar="-1" Cut="0.0000000000000000e+00" cType="1" res="-4.9107540398836136e-02" rms="4.0932133793830872e-01" purity="2.1313929557800293e-01" nType="-99"/>
         <Node pos="r" depth="5" NCoef="0" IVar="-1" Cut="0.0000000000000000e+00" cType="1" res="-5.9608906507492065e-02" rms="3.3383533358573914e-01" purity="1.2789098918437958e-01" nType="-99"/>
        </Node>
        <Node pos="r" depth="4" NCoef="0" IVar="-1" Cut="0.0000000000000000e+00" cType="1" res="-6.5585993230342865e-02" rms="2.7227878570556641e-01" purity="8.0788157880306244e-02" nType="-99"/>
       </Node>
      </Node>
     </Node>
    </Node>
   </BinaryTree>
   <BinaryTree type="DecisionTree" boostWeight="1.0000000000000000e+00" itree="2">
    <Node pos="s" depth="0" NCoef="0" IVar="3" Cut="6.1222949028015137e+00" cType="0" res="-2.5797595735639334e-03" rms="4.7507226467132568e-01" purity="4.9459439516067505e-01" nType="0">
     <Node pos="l" depth="1" NCoef="0" IVar="3" Cut="6.5694832801818848e+00" cType="0" res="2.3303604125976562e-01" rms="4.1152921319007874e-01" purity="7.7321040630340576e-01" nType="0">
      <Node pos="l" depth="2" NCoef="0" IVar="0" Cut="1.1488781738281250e+02" cType="0" res="3.2447245717048645e-01" rms="3.2321834564208984e-01" purity="8.7907654047012329e-01" nType="0">
       <Node pos="l" depth="3" NCoef="0" IVar="3" Cut="7.0536136627197266e+00" cType="0" res="3.5711780190467834e-01" rms="2.7741882205009460e-01" purity="9.1484344005584717e-01" nType="0">
        <Node pos="l" depth="4" NCoef="0" IVar="-1" Cut="0.0000000000000000e+00" cType="1" res="6.0113251209259033e-02" rms="1.8599455058574677e-01" purity="9.6384179592132568e-01" nType="-99"/>
        <Node pos="r" depth="4" NCoef="0" IVar="5" Cut="2.6656955480575562e-01" cType="1" res="3.2048478722572327e-01" rms="3.3026072382926941e-01" purity="8.7427991628646851e-01" nType="0">
         <Node pos="l" depth="5" NCoef="0" IVar="-1" Cut="0.0000000000000000e+00" cType="1" res="5.4446283727884293e-02" rms="2.6956379413604736e-01" purity="9.2086082696914673e-01" nType="-99"/>
         <Node pos="r" depth="5" NCoef="0" IVar="-1" Cut="0.0000000000000000e+00" cType="1" res="4.4296830892562866e-02" rms="3.7751632928848267e-01" purity="8.2682305574417114e-01" nType="-99"/>
        </Node>
       </Node>
       <Node pos="r" depth="3" NCoef="0" IVar="-1" Cut="0.0000000000000000e+00" cType="1" res="3.7605173885822296e-02" rms="4.1984140872955322e-01" purity="7.6808273792266846e-01" nType="-99"/>
      </Node>
      <Node pos="r" depth="2" NCoef="0" IVar="5" Cut="1.8775211274623871e-01" cType="1" res="9.6847802400588989e-02" rms="4.8476794362068176e-01" purity="6.1553019285202026e-01" nType="0">
       <Node pos="l" depth="3" NCoef="0" IVar="-1" Cut="0.0000000000000000e+00" cType="1" res="2.4237072095274925e-02" rms="4.5853856205940247e-01" purity="6.9795912504196167e-01" nType="-99"/>
       <Node pos="r" depth="3" NCoef="0" IVar="2" Cut="3.3714559078216553e+00" cType="1" res="5.5732756853103638e-02" rms="4.9332970380783081e-01" purity="5.7146507501602173e-01" nType="0">
        <Node pos="l" depth="4" NCoef="0" IVar="-1" Cut="0.0000000000000000e+00" cType="1" res="1.8190979957580566e-02" rms="4.8237982392311096e-01" purity="6.2889117002487183e-01" nType="-99"/>
        <Node pos="r" depth="4" NCoef="0" IVar="-1" Cut="0.0000000000000000e+00" cType="1" res="-1.2818260584026575e-03" rms="4.9770724773406982e-01" purity="4.8981979489326477e-01" nType="-99"/>
       </Node>
      </Node>
     </Node>
     <Node pos="r" depth="1" NCoef="0" IVar="3" Cut="5.6816897392272949e+00" cType="0" res="-2.0778425037860870e-01" rms="4.2930310964584351e-01" purity="2.5193971395492554e-01" nType="0">
      <Node pos="l" depth="2" NCoef="0" IVar="0" Cut="1.0632640075683594e+02" cType="0" res="-1.2141018360853195e-01" rms="4.7671526670455933e-01" purity="3.5450050234794617e-01" nType="0">
       <Node pos="l" depth="3" NCoef="0" IVar="7" Cut="1.2707399749755859e+02" cType="0" res="-7.7745303511619568e-02" rms="4.8812207579612732e-01" purity="4.0018719434738159e-01" nType="0">
        <Node pos="l" depth="4" NCoef="0" IVar="-1" Cut="0.0000000000000000e+00" cType="1" res="-2.3861147928982973e-03" rms="4.9966189265251160e-01" purity="4.8348301649093628e-01" nType="-99"/>
        <Node pos="r" depth="4" NCoef="0" IVar="-1" Cut="0.0000000000000000e+00" cType="1" res="-2.3375794291496277e-02" rms="4.7142753005027771e-01" purity="3.3890852332115173e-01" nType="-99"/>
       </Node>
       <Node pos="r" depth="3" NCoef="0" IVar="4" Cut="2.6956173777580261e-01" cType="1" res="-1.8643973767757416e-01" rms="4.5144039392471313e-01" purity="2.8645986318588257e-01" nType="0">
        <Node pos="l" depth="4" NCoef="0" IVar="-1" Cut="0.0000000000000000e+00" cType="1" res="-2.3831160739064217e-02" rms="4.7055083513259888e-01" purity="3.3248788118362427e-01" nType="-99"/>
        <Node pos="r" depth="4" NCoef="0" IVar="-1" Cut="0.0000000000000000e+00" cType="1" res="-3.6662645637989044e-02" rms="4.2542144656181335e-01" purity="2.3890067636966705e-01" nType="-99"/>
       </Node>
      </Node>
      <Node pos="r" depth="2" NCoef="0" IVar="6" Cut="2.2650473022460938e+02" cType="0" res="-2.8474116325378418e-01" rms="3.6532017588615417e-01" purity="1.6056089103221893e-01" nType="0">
       <Node pos="l" depth="3" NCoef="0" IVar="-1" Cut="0.0000000000000000e+00" cType="1" res="-3.1784795224666595e-02" rms="4.4092068076133728e-01" purity="2.6513227820396423e-01" nType="-99"/>
       <Node pos="r" depth="3" NCoef="0" IVar="3" Cut="5.4690165519714355e+00" cType="0" res="-3.1921270489692688e-01" rms="3.2609862089157104e-01" purity="1.2153720855712891e-01" nType="0">
        <Node pos="l" depth="4" NCoef="0" IVar="1" Cut="6.2160377502441406e+01" cType="1" res="-2.8353574872016907e-01" rms="3.6680030822753906e-01" purity="1.6034033894538879e-01" nType="0">
         <Node pos="l" depth="5" NCoef="0" IVar="-1" Cut="0.0000000000000000e+00" cType="1" res="-4.6049535274505615e-02" rms="4.0056547522544861e-01" purity="2.0094187557697296e-01" nType="-99"/>
         <Node pos="r" depth="5" NCoef="0" IVar="-1" Cut="0.0000000000000000e+00" cType="1" res="-5.2600976079702377e-02" rms="3.1874731183052063e-01" purity="1.1491268873214722e-01" nType="-99"/>
        </Node>
        <Node pos="r" depth="4" NCoef="0" IVar="7" Cut="5.9118621826171875e+01" cType="0" res="-3.5717093944549561e-01" rms="2.7118223905563354e-01" purity="8.0252967774868011e-02" nType="0">
         <Node pos="l" depth="5" NCoef="0" IVar="-1" Cut="0.0000000000000000e+00" cType="1" res="-5.6608073413372040e-02" rms="2.9815205931663513e-01" purity="9.9442429840564728e-02" nType="-99"/>
         <Node pos="r" depth="5" NCoef="0" IVar="-1" Cut="0.0000000000000000e+00" cType="1" res="-6.2260888516902924e-02" rms="2.3983505368232727e-01" purity="6.1149135231971741e-02" nType="-99"/>
        </Node>
       </Node>
      </Node>
     </Node>
    </Node>
   </BinaryTree>
   <BinaryTree type="DecisionTree" boostWeight="1.0000000000000000e+00" itree="3">
    <Node pos="s" depth="0" NCoef="0" IVar="3" Cut="6.2907919883728027e+00" cType="0" res="-6.6820536740124226e-03" rms="4.6647879481315613e-01" purity="4.8971578478813171e-01" nType="0">
     <Node pos="l" depth="1" NCoef="0" IVar="3" Cut="6.5666213035583496e+00" cType="0" res="2.3012661933898926e-01" rms="3.9615356922149658e-01" purity="7.9389429092407227e-01" nType="0">
      <Node pos="l" depth="2" NCoef="0" IVar="0" Cut="1.1701342773437500e+02" cType="0" res="2.8281456232070923e-01" rms="3.4180516004562378e-01" purity="8.6155986785888672e-01" nType="0">
       <Node pos="l" depth="3" NCoef="0" IVar="4" Cut="3.5725727677345276e-01" cType="1" res="3.1665167212486267e-01" rms="2.9694980382919312e-01" purity="9.0085202455520630e-01" nType="0">
        <Node pos="l" depth="4" NCoef="0" IVar="6" Cut="3.8624356079101562e+02" cType="0" res="3.4087574481964111e-01" rms="2.5934401154518127e-01" purity="9.2676353454589844e-01" nType="0">
         <Node pos="l" depth="5" NCoef="0" IVar="-1" Cut="0.0000000000000000e+00" cType="1" res="5.6508377194404602e-02" rms="2.2272618114948273e-01" purity="9.4722479581832886e-01" nType="-99"/>
         <Node pos="r" depth="5" NCoef="0" IVar="-1" Cut="0.0000000000000000e+00" cType="1" res="4.9968924373388290e-02" rms="3.0985063314437866e-01" purity="8.9179849624633789e-01" nType="-99"/>
        </Node>
        <Node pos="r" depth="4" NCoef="0" IVar="-1" Cut="0.0000000000000000e+00" cType="1" res="4.2710039764642715e-02" rms="3.7418547272682190e-01" purity="8.2905358076095581e-01" nType="-99"/>
       </Node>
       <Node pos="r" depth="3" NCoef="0" IVar="-1" Cut="0.0000000000000000e+00" cType="1" res="3.4884754568338394e-02" rms="4.2844659090042114e-01" purity="7.5396704673767090e-01" nType="-99"/>
      </Node>
      <Node pos="r" depth="2" NCoef="0" IVar="5" Cut="3.2838526368141174e-01" cType="1" res="1.0709168016910553e-01" rms="4.7851201891899109e-01" purity="6.3588422536849976e-01" nType="0">
       <Node pos="l" depth="3" NCoef="0" IVar="-1" Cut="0.0000000000000000e+00" cType="1" res="2.7795847505331039e-02" rms="4.5607477426528931e-01" purity="7.0172071456909180e-01" nType="-99"/>
       <Node pos="r" depth="3" NCoef="0" IVar="-1" Cut="0.0000000000000000e+00" cType="1" res="1.1633232235908508e-02" rms="4.9489292502403259e-01" purity="5.5943524837493896e-01" nType="-99"/>
      </Node>
     </Node>
     <Node pos="r" depth="1" NCoef="0" IVar="3" Cut="5.7208580970764160e+00" cType="0" res="-1.6481275856494904e-01" rms="4.4233447313308716e-01" purity="2.8659832477569580e-01" nType="0">
      <Node pos="l" depth="2" NCoef="0" IVar="3" Cut="5.9805750846862793e+00" cType="0" res="-7.9103216528892517e-02" rms="4.8487800359725952e-01" purity="3.9981797337532043e-01" nType="0">
       <Node pos="l" depth="3" NCoef="0" IVar="4" Cut="3.8055118918418884e-01" cType="1" res="-1.4179822988808155e-02" rms="4.9698162078857422e-01" purity="4.8342683911323547e-01" nType="0">
        <Node pos="l" depth="4" NCoef="0" IVar="-1" Cut="0.0000000000000000e+00" cType="1" res="3.9992523379623890e-03" rms="4.9731466174125671e-01" purity="5.2379494905471802e-01" nType="-99"/>
        <Node pos="r" depth="4" NCoef="0" IVar="-1" Cut="0.0000000000000000e+00" cType="1" res="-1.1211640201508999e-02" rms="4.8953583836555481e-01" purity="4.1624224185943604e-01" nType="-99"/>
       </Node>
       <Node pos="r" depth="3" NCoef="0" IVar="6" Cut="2.4186134338378906e+02" cType="0" res="-1.3979673385620117e-01" rms="4.6515887975692749e-01" purity="3.2165637612342834e-01" nType="0">
        <Node pos="l" depth="4" NCoef="0" IVar="-1" Cut="0.0000000000000000e+00" cType="1" res="-1.4659755863249302e-02" rms="4.8667436838150024e-01" purity="3.9357924461364746e-01" nType="-99"/>
        <Node pos="r" depth="4" NCoef="0" IVar="-1" Cut="0.0000000000000000e+00" cType="1" res="-2.7524909004569054e-02" rms="4.4859689474105835e-01" purity="2.8083083033561707e-01" nType="-99"/>
       </Node>
      </Node>
      <Node pos="r" depth="2" NCoef="0" IVar="0" Cut="1.5384341430664062e+02" cType="0" res="-2.4915705621242523e-01" rms="3.7748929858207703e-01" purity="1.7518213391304016e-01" nType="0">
       <Node pos="l" depth="3" NCoef="0" IVar="-1" Cut="0.0000000000000000e+00" cType="1" res="-2.7371600270271301e-02" rms="4.4822850823402405e-01" purity="2.8448903560638428e-01" nType="-99"/>
       <Node pos="r" depth="3" NCoef="0" IVar="0" Cut="7.0013816833496094e+01" cType="0" res="-2.6965799927711487e-01" rms="3.5712400078773499e-01" purity="1.5162086486816406e-01" nType="0">
        <Node pos="l" depth="4" NCoef="0" IVar="2" Cut="2.0567164421081543e+00" cType="0" res="-2.4733076989650726e-01" rms="3.7723618745803833e-01" purity="1.7405451834201813e-01" nType="0">
         <Node pos="l" depth="5" NCoef="0" IVar="-1" Cut="0.0000000000000000e+00" cType="1" res="-4.0690228343009949e-02" rms="4.1217777132987976e-01" purity="2.1970099210739136e-01" nType="-99"/>
         <Node pos="r" depth="5" NCoef="0" IVar="-1" Cut="0.0000000000000000e+00" cType="1" res="-4.8148944973945618e-02" rms="3.3924680948257446e-01" purity="1.3385517895221710e-01" nType="-99"/>
        </Node>
        <Node pos="r" depth="4" NCoef="0" IVar="-1" Cut="0.0000000000000000e+00" cType="1" res="-5.6343182921409607e-02" rms="2.8219065070152283e-01" purity="8.7260574102401733e-02" nType="-99"/>
       </Node>
      </Node>
     </Node>
    </Node>
   </BinaryTree>
   <BinaryTree type="DecisionTree" boostWeight="1.0000000000000000e+00" itree="4">
    <Node pos="s" depth="0" NCoef="0" IVar="3" Cut="6.1356515884399414e+00" cType="0" res="4.4810855761170387e-03" rms="4.5900207757949829e-01" purity="5.0183564424514771e-01" nType="0">
     <Node pos="l" depth="1" NCoef="0" IVar="3" Cut="6.8174595832824707e+00" cType="0" res="1.9224938750267029e-01" rms="4.1167017817497253e-01" purity="7.6581531763076782e-01" nType="0">
      <Node pos="l" depth="2" NCoef="0" IVar="0" Cut="1.3417495727539062e+02" cType="0" res="3.0471324920654297e-01" rms="2.8013172745704651e-01" purity="9.1198879480361938e-01" nType="0">
       <Node pos="l" depth="3" NCoef="0" IVar="4" Cut="1.7906431853771210e-01" cType="1" res="3.3309331536293030e-01" rms="2.2221472859382629e-01" purity="9.4753307104110718e-01" nType="0">
        <Node pos="l" depth="4" NCoef="0" IVar="-1" Cut="0.0000000000000000e+00" cType="1" res="5.5420797318220139e-02" rms="1.6830162703990936e-01" purity="9.7086644172668457e-01" nType="-99"/>
        <Node pos="r" depth="4" NCoef="0" IVar="-1" Cut="0.0000000000000000e+00" cType="1" res="4.9925789237022400e-02" rms="2.5658535957336426e-01" purity="9.2854630947113037e-01" nType="-99"/>
       </Node>
       <Node pos="r" depth="3" NCoef="0" IVar="-1" Cut="0.0000000000000000e+00" cType="1" res="4.2377505451440811e-02" rms="3.7143707275390625e-01" purity="8.3213090896606445e-01" nType="-99"/>
      </Node>
      <Node pos="r" depth="2" NCoef="0" IVar="0" Cut="9.0422378540039062e+01" cType="0" res="1.1524790525436401e-01" rms="4.6603420376777649e-01" purity="6.6573369503021240e-01" nType="0">
       <Node pos="l" depth="3" NCoef="0" IVar="5" Cut="3.9852944016456604e-01" cType="1" res="1.4599816501140594e-01" rms="4.5242002606391907e-01" purity="7.0040839910507202e-01" nType="0">
        <Node pos="l" depth="4" NCoef="0" IVar="4" Cut="2.8400388360023499e-01" cType="1" res="1.9680717587471008e-01" rms="4.2268550395965576e-01" purity="7.5842064619064331e-01" nType="0">
         <Node pos="l" depth="5" NCoef="0" IVar="-1" Cut="0.0000000000000000e+00" cType="1" res="3.6543413996696472e-02" rms="3.7874066829681396e-01" purity="8.2128852605819702e-01" nType="-99"/>
         <Node pos="r" depth="5" NCoef="0" IVar="-1" Cut="0.0000000000000000e+00" cType="1" res="2.3121293634176254e-02" rms="4.5761308073997498e-01" purity="6.8836164474487305e-01" nType="-99"/>
        </Node>
        <Node pos="r" depth="4" NCoef="0" IVar="-1" Cut="0.0000000000000000e+00" cType="1" res="1.5475695021450520e-02" rms="4.8722538352012634e-01" purity="6.0052198171615601e-01" nType="-99"/>
       </Node>
       <Node pos="r" depth="3" NCoef="0" IVar="-1" Cut="0.0000000000000000e+00" cType="1" res="-2.7892829384654760e-03" rms="4.9846294522285461e-01" purity="5.2551764249801636e-01" nType="-99"/>
      </Node>
     </Node>
     <Node pos="r" depth="1" NCoef="0" IVar="3" Cut="5.9280633926391602e+00" cType="0" res="-1.6634333133697510e-01" rms="4.3234050273895264e-01" purity="2.6167687773704529e-01" nType="0">
      <Node pos="l" depth="2" NCoef="0" IVar="6" Cut="2.3048773193359375e+02" cType="0" res="-5.6056536734104156e-02" rms="4.9125784635543823e-01" purity="4.1512054204940796e-01" nType="0">
       <Node pos="l" depth="3" NCoef="0" IVar="-1" Cut="0.0000000000000000e+00" cType="1" res="-2.4227092508226633e-03" rms="4.9896621704101562e-01" purity="4.8803457617759705e-01" nType="-99"/>
       <Node pos="r" depth="3" NCoef="0" IVar="-1" Cut="0.0000000000000000e+00" cType="1" res="-1.5564826317131519e-02" rms="4.7131323814392090e-01" purity="3.3698543906211853e-01" nType="-99"/>
      </Node>
      <Node pos="r" depth="2" NCoef="0" IVar="0" Cut="1.4899472045898438e+02" cType="0" res="-1.9550870358943939e-01" rms="4.1043978929519653e-01" purity="2.2109866142272949e-01" nType="0">
       <Node pos="l" depth="3" NCoef="0" IVar="-1" Cut="0.0000000000000000e+00" cType="1" res="-2.1569708362221718e-02" rms="4.6007016301155090e-01" purity="3.1302556395530701e-01" nType="-99"/>
       <Node pos="r" depth="3" NCoef="0" IVar="0" Cut="6.8682334899902344e+01" cType="0" res="-2.1828754246234894e-01" rms="3.9056506752967834e-01" purity="1.9179251790046692e-01" nType="0">
        <Node pos="l" depth="4" NCoef="0" IVar="6" Cut="1.2524895477294922e+02" cType="0" res="-2.0019544661045074e-01" rms="4.0530920028686523e-01" purity="2.1181271970272064e-01" nType="0">
         <Node pos="l" depth="5" NCoef="0" IVar="4" Cut="4.1902300715446472e-01" cType="1" res="-1.6393490135669708e-01" rms="4.3634998798370361e-01" purity="2.5855103135108948e-01" nType="0">
          <Node pos="l" depth="6" NCoef="0" IVar="-1" Cut="0.0000000000000000e+00" cType="1" res="-1.9310018047690392e-02" rms="4.5907321572303772e-01" purity="3.1014326214790344e-01" nType="-99"/>
          <Node pos="r" depth="6" NCoef="0" IVar="-1" Cut="0.0000000000000000e+00" cType="1" res="-3.6268476396799088e-02" rms="4.1593092679977417e-01" purity="2.2162653505802155e-01" nType="-99"/>
         </Node>
         <Node pos="r" depth="5" NCoef="0" IVar="3" Cut="5.5264325141906738e+00" cType="0" res="-2.4435161054134369e-01" rms="3.5904049873352051e-01" purity="1.5489724278450012e-01" nType="0">
          <Node pos="l" depth="6" NCoef="0" IVar="-1" Cut="0.0000000000000000e+00" cType="1" res="-3.5173308104276657e-02" rms="4.1067734360694885e-01" purity="2.1644583344459534e-01" nType="-99"/>
          <Node pos="r" depth="6" NCoef="0" IVar="-1" Cut="0.0000000000000000e+00" cType="1" res="-5.5335570126771927e-02" rms="2.9169163107872009e-01" purity="9.3699201941490173e-02" nType="-99"/>
         </Node>
        </Node>
        <Node pos="r" depth="4" NCoef="0" IVar="-1" Cut="0.0000000000000000e+00" cType="1" res="-4.6998616307973862e-02" rms="3.3259800076484680e-01" purity="1.2777024507522583e-01" nType="-99"/>
       </Node>
      </Node>
     </Node>
    </Node>
   </BinaryTree>
   <BinaryTree type="DecisionTree" boostWeight="1.0000000000000000e+00" itree="5">
    <Node pos="s" depth="0" NCoef="0" IVar="3" Cut="6.3121066093444824e+00" cType="0" res="1.9199096132069826e-03" rms="4.5034757256507874e-01" purity="4.9877682328224182e-01" nType="0">
     <Node pos="l" depth="1" NCoef="0" IVar="3" Cut="6.6487350463867188e+00" cType="0" res="2.1230603754520416e-01" rms="3.7793141603469849e-01" purity="8.1407117843627930e-01" nType="0">
      <Node pos="l" depth="2" NCoef="0" IVar="4" Cut="2.3467102646827698e-01" cType="1" res="2.6611402630805969e-01" rms="3.0737617611885071e-01" purity="8.9133918285369873e-01" nType="0">
       <Node pos="l" depth="3" NCoef="0" IVar="7" Cut="2.8935311889648438e+02" cType="1" res="3.0371192097663879e-01" rms="2.5044074654579163e-01" purity="9.3078660964965820e-01" nType="0">
        <Node pos="l" depth="4" NCoef="0" IVar="-1" Cut="0.0000000000000000e+00" cType="1" res="4.9435582011938095e-02" rms="2.0964334905147552e-01" purity="9.5342642068862915e-01" nType="-99"/>
        <Node pos="r" depth="4" NCoef="0" IVar="-1" Cut="0.0000000000000000e+00" cType="1" res="4.6133648604154587e-02" rms="2.7899280190467834e-01" purity="9.1138446331024170e-01" nType="-99"/>
       </Node>
       <Node pos="r" depth="3" NCoef="0" IVar="-1" Cut="0.0000000000000000e+00" cType="1" res="3.8789696991443634e-02" rms="3.6903879046440125e-01" purity="8.3311718702316284e-01" nType="-99"/>
      </Node>
      <Node pos="r" depth="2" NCoef="0" IVar="2" Cut="3.2942750453948975e+00" cType="1" res="1.1288554966449738e-01" rms="4.6576568484306335e-01" purity="6.7130374908447266e-01" nType="0">
       <Node pos="l" depth="3" NCoef="0" IVar="-1" Cut="0.0000000000000000e+00" cType="1" res="2.6042822748422623e-02" rms="4.3561762571334839e-01" purity="7.4322468042373657e-01" nType="-99"/>
       <Node pos="r" depth="3" NCoef="0" IVar="-1" Cut="0.0000000000000000e+00" cType="1" res="1.4641514047980309e-02" rms="4.8212268948554993e-01" purity="6.0999792814254761e-01" nType="-99"/>
      </Node>
     </Node>
     <Node pos="r" depth="1" NCoef="0" IVar="3" Cut="5.7298088073730469e+00" cType="0" res="-1.3371667265892029e-01" rms="4.4107753038406372e-01" purity="2.9550555348396301e-01" nType="0">
      <Node pos="l" depth="2" NCoef="0" IVar="0" Cut="1.0210414123535156e+02" cType="0" res="-5.3793489933013916e-02" rms="4.8617804050445557e-01" purity="4.1793835163116455e-01" nType="0">
       <Node pos="l" depth="3" NCoef="0" IVar="6" Cut="1.5474772644042969e+02" cType="0" res="-1.4420145191252232e-02" rms="4.9229964613914490e-01" purity="4.6518629789352417e-01" nType="0">
        <Node pos="l" depth="4" NCoef="0" IVar="4" Cut="5.9164571762084961e-01" cType="1" res="1.8989296630024910e-02" rms="4.9566987156867981e-01" purity="5.0504535436630249e-01" nType="0">
         <Node pos="l" depth="5" NCoef="0" IVar="-1" Cut="0.0000000000000000e+00" cType="1" res="7.4770967476069927e-03" rms="4.9220526218414307e-01" purity="5.6577247381210327e-01" nType="-99"/>
         <Node pos="r" depth="5" NCoef="0" IVar="-1" Cut="0.0000000000000000e+00" cType="1" res="-1.2353792786598206e-02" rms="4.8718065023422241e-01" purity="4.0007239580154419e-01" nType="-99"/>
        </Node>
        <Node pos="r" depth="4" NCoef="0" IVar="-1" Cut="0.0000000000000000e+00" cType="1" res="-1.5779146924614906e-02" rms="4.6844577789306641e-01" purity="3.4728243947029114e-01" nType="-99"/>
       </Node>
       <Node pos="r" depth="3" NCoef="0" IVar="4" Cut="2.5480854511260986e-01" cType="1" res="-1.3126263022422791e-01" rms="4.6425426006317139e-01" purity="3.2497546076774597e-01" nType="0">
        <Node pos="l" depth="4" NCoef="0" IVar="-1" Cut="0.0000000000000000e+00" cType="1" res="-1.5319645404815674e-02" rms="4.7681108117103577e-01" purity="3.6248999834060669e-01" nType="-99"/>
        <Node pos="r" depth="4" NCoef="0" IVar="-1" Cut="0.0000000000000000e+00" cType="1" res="-2.5533515959978104e-02" rms="4.4854602217674255e-01" purity="2.8816130757331848e-01" nType="-99"/>
       </Node>
      </Node>
      <Node pos="r" depth="2" NCoef="0" IVar="7" Cut="1.5770989990234375e+02" cType="0" res="-2.1492563188076019e-01" rms="3.7278884649276733e-01" purity="1.7110309004783630e-01" nType="0">
       <Node pos="l" depth="3" NCoef="0" IVar="-1" Cut="0.0000000000000000e+00" cType="1" res="-2.5016982108354568e-02" rms="4.3633887171745300e-01" purity="2.6432964205741882e-01" nType="-99"/>
       <Node pos="r" depth="3" NCoef="0" IVar="6" Cut="1.9912698364257812e+02" cType="0" res="-2.3329524695873260e-01" rms="3.5427245497703552e-01" purity="1.5001085400581360e-01" nType="0">
        <Node pos="l" depth="4" NCoef="0" IVar="-1" Cut="0.0000000000000000e+00" cType="1" res="-2.8415510430932045e-02" rms="4.1498285531997681e-01" purity="2.2385574877262115e-01" nType="-99"/>
        <Node pos="r" depth="4" NCoef="0" IVar="3" Cut="5.5075392723083496e+00" cType="0" res="-2.5250795483589172e-01" rms="3.2686427235603333e-01" purity="1.2265086919069290e-01" nType="0">
         <Node pos="l" depth="5" NCoef="0" IVar="-1" Cut="0.0000000000000000e+00" cType="1" res="-3.9090417325496674e-02" rms="3.6944895982742310e-01" purity="1.6269171237945557e-01" nType="-99"/>
         <Node pos="r" depth="5" NCoef="0" IVar="-1" Cut="0.0000000000000000e+00" cType="1" res="-5.0542209297418594e-02" rms="2.8507816791534424e-01" purity="8.9770615100860596e-02" nType="-99"/>
        </Node>
       </Node>
      </Node>
     </Node>
    </Node>
   </BinaryTree>
   <BinaryTree type="DecisionTree" boostWeight="1.0000000000000000e+00" itree="6">
    <Node pos="s" depth="0" NCoef="0" IVar="3" Cut="6.1976757049560547e+00" cType="0" res="3.2549838069826365e-03" rms="4.4442278146743774e-01" purity="4.9819472432136536e-01" nType="0">
     <Node pos="l" depth="1" NCoef="0" IVar="3" Cut="6.7282710075378418e+00" cType="0" res="1.8299943208694458e-01" rms="3.9434680342674255e-01" purity="7.9027843475341797e-01" nType="0">
      <Node pos="l" depth="2" NCoef="0" IVar="3" Cut="7.2172799110412598e+00" cType="0" res="2.4159730970859528e-01" rms="3.1141081452369690e-01" purity="8.8884353637695312e-01" nType="0">
       <Node pos="l" depth="3" NCoef="0" IVar="-1" Cut="0.0000000000000000e+00" cType="1" res="4.9717769026756287e-02" rms="2.1546743810176849e-01" purity="9.5072805881500244e-01" nType="-99"/>
       <Node pos="r" depth="3" NCoef="0" IVar="2" Cut="4.4775729179382324e+00" cType="1" res="2.1084426343441010e-01" rms="3.5094508528709412e-01" purity="8.5359609127044678e-01" nType="0">
        <Node pos="l" depth="4" NCoef="0" IVar="-1" Cut="0.0000000000000000e+00" cType="1" res="4.5093744993209839e-02" rms="3.0653822422027588e-01" purity="8.9469802379608154e-01" nType="-99"/>
        <Node pos="r" depth="4" NCoef="0" IVar="-1" Cut="0.0000000000000000e+00" cType="1" res="3.0334325507283211e-02" rms="4.0556424856185913e-01" purity="7.8876078128814697e-01" nType="-99"/>
       </Node>
      </Node>
      <Node pos="r" depth="2" NCoef="0" IVar="5" Cut="2.0959179103374481e-01" cType="1" res="1.2187992036342621e-01" rms="4.5743179321289062e-01" purity="6.8747174739837646e-01" nType="0">
       <Node pos="l" depth="3" NCoef="0" IVar="-1" Cut="0.0000000000000000e+00" cType="1" res="2.4814143776893616e-02" rms="4.2259249091148376e-01" purity="7.6063185930252075e-01" nType="-99"/>
       <Node pos="r" depth="3" NCoef="0" IVar="0" Cut="1.3794535827636719e+02" cType="0" res="8.4859684109687805e-02" rms="4.7333246469497681e-01" purity="6.4345091581344604e-01" nType="0">
        <Node pos="l" depth="4" NCoef="0" IVar="-1" Cut="0.0000000000000000e+00" cType="1" res="1.8501609563827515e-02" rms="4.5776170492172241e-01" purity="6.9543236494064331e-01" nType="-99"/>
        <Node pos="r" depth="4" NCoef="0" IVar="-1" Cut="0.0000000000000000e+00" cType="1" res="-1.5820107364561409e-04" rms="4.8814615607261658e-01" purity="5.6662780046463013e-01" nType="-99"/>
       </Node>
      </Node>
     </Node>
     <Node pos="r" depth="1" NCoef="0" IVar="3" Cut="5.7969079017639160e+00" cType="0" res="-1.3617546856403351e-01" rms="4.3080231547355652e-01" purity="2.7162101864814758e-01" nType="0">
      <Node pos="l" depth="2" NCoef="0" IVar="0" Cut="9.6972496032714844e+01" cType="0" res="-5.0880741328001022e-02" rms="4.8469567298889160e-01" purity="4.0849938988685608e-01" nType="0">
       <Node pos="l" depth="3" NCoef="0" IVar="7" Cut="1.3635099792480469e+02" cType="0" res="-1.1024372652173042e-02" rms="4.9198651313781738e-01" purity="4.5553055405616760e-01" nType="0">
        <Node pos="l" depth="4" NCoef="0" IVar="-1" Cut="0.0000000000000000e+00" cType="1" res="7.3792464099824429e-03" rms="4.9774050712585449e-01" purity="5.4510241746902466e-01" nType="-99"/>
        <Node pos="r" depth="4" NCoef="0" IVar="-1" Cut="0.0000000000000000e+00" cType="1" res="-1.1777433566749096e-02" rms="4.8219323158264160e-01" purity="3.9896312355995178e-01" nType="-99"/>
       </Node>
       <Node pos="r" depth="3" NCoef="0" IVar="-1" Cut="0.0000000000000000e+00" cType="1" res="-1.9800921902060509e-02" rms="4.5603713393211365e-01" purity="3.0469861626625061e-01" nType="-99"/>
      </Node>
      <Node pos="r" depth="2" NCoef="0" IVar="6" Cut="2.5139950561523438e+02" cType="0" res="-1.8903693556785583e-01" rms="3.8432988524436951e-01" purity="1.8679052591323853e-01" nType="0">
       <Node pos="l" depth="3" NCoef="0" IVar="-1" Cut="0.0000000000000000e+00" cType="1" res="-1.9089652225375175e-02" rms="4.5211890339851379e-01" purity="2.9140836000442505e-01" nType="-99"/>
       <Node pos="r" depth="3" NCoef="0" IVar="3" Cut="5.5351715087890625e+00" cType="0" res="-2.1143768727779388e-01" rms="3.5799643397331238e-01" purity="1.5466438233852386e-01" nType="0">
        <Node pos="l" depth="4" NCoef="0" IVar="7" Cut="7.3313804626464844e+01" cType="0" res="-1.8791542947292328e-01" rms="3.9444074034690857e-01" purity="1.9641792774200439e-01" nType="0">
         <Node pos="l" depth="5" NCoef="0" IVar="-1" Cut="0.0000000000000000e+00" cType="1" res="-2.5506855919957161e-02" rms="4.2784208059310913e-01" purity="2.4470786750316620e-01" nType="-99"/>
         <Node pos="r" depth="5" NCoef="0" IVar="-1" Cut="0.0000000000000000e+00" cType="1" res="-3.7997938692569733e-02" rms="3.5413327813148499e-01" purity="1.4979255199432373e-01" nType="-99"/>
        </Node>
        <Node pos="r" depth="4" NCoef="0" IVar="6" Cut="9.4993972778320312e+01" cType="0" res="-2.3369744420051575e-01" rms="3.1810706853866577e-01" purity="1.1515182256698608e-01" nType="0">
         <Node pos="l" depth="5" NCoef="0" IVar="-1" Cut="0.0000000000000000e+00" cType="1" res="-3.9329439401626587e-02" rms="3.5069090127944946e-01" purity="1.4370620250701904e-01" nType="-99"/>
         <Node pos="r" depth="5" NCoef="0" IVar="-1" Cut="0.0000000000000000e+00" cType="1" res="-5.0472937524318695e-02" rms="2.7569192647933960e-01" purity="8.3189912140369415e-02" nType="-99"/>
        </Node>
       </Node>
      </Node>
     </Node>
    </Node>
   </BinaryTree>
   <BinaryTree type="DecisionTree" boostWeight="1.0000000000000000e+00" itree="7">
    <Node pos="s" depth="0" NCoef="0" IVar="3" Cut="6.1222057342529297e+00" cType="0" res="9.6597913652658463e-03" rms="4.3820893764495850e-01" purity="5.0637972354888916e-01" nType="0">
     <Node pos="l" depth="1" NCoef="0" IVar="3" Cut="6.7258663177490234e+00" cType="0" res="1.5842150151729584e-01" rms="4.0157631039619446e-01" purity="7.7144199609756470e-01" nType="0">
      <Node pos="l" depth="2" NCoef="0" IVar="0" Cut="1.4479570007324219e+02" cType="0" res="2.3618984222412109e-01" rms="2.9061177372932434e-01" purity="9.0398257970809937e-01" nType="0">
       <Node pos="l" depth="3" NCoef="0" IVar="3" Cut="7.0618352890014648e+00" cType="0" res="2.6728630065917969e-01" rms="2.2859668731689453e-01" purity="9.4382429122924805e-01" nType="0">
        <Node pos="l" depth="4" NCoef="0" IVar="-1" Cut="0.0000000000000000e+00" cType="1" res="4.8033028841018677e-02" rms="1.7163085937500000e-01" purity="9.6932238340377808e-01" nType="-99"/>
        <Node pos="r" depth="4" NCoef="0" IVar="-1" Cut="0.0000000000000000e+00" cType="1" res="4.1513819247484207e-02" rms="2.8183612227439880e-01" purity="9.1231030225753784e-01" nType="-99"/>
       </Node>
       <Node pos="r" depth="3" NCoef="0" IVar="-1" Cut="0.0000000000000000e+00" cType="1" res="3.3478613942861557e-02" rms="3.6909091472625732e-01" purity="8.3414691686630249e-01" nType="-99"/>
      </Node>
      <Node pos="r" depth="2" NCoef="0" IVar="5" Cut="2.5145047903060913e-01" cType="1" res="9.0923734009265900e-02" rms="4.6703633666038513e-01" purity="6.5640550851821899e-01" nType="0">
       <Node pos="l" depth="3" NCoef="0" IVar="4" Cut="2.6787248253822327e-01" cType="1" res="1.5769083797931671e-01" rms="4.3408226966857910e-01" purity="7.3707938194274902e-01" nType="0">
        <Node pos="l" depth="4" NCoef="0" IVar="-1" Cut="0.0000000000000000e+00" cType="1" res="2.5868898257613182e-02" rms="4.0941780805587769e-01" purity="7.7744877338409424e-01" nType="-99"/>
        <Node pos="r" depth="4" NCoef="0" IVar="-1" Cut="0.0000000000000000e+00" cType="1" res="1.5832640230655670e-02" rms="4.5756843686103821e-01" purity="6.9111824035644531e-01" nType="-99"/>
       </Node>
       <Node pos="r" depth="3" NCoef="0" IVar="1" Cut="7.0218452453613281e+01" cType="0" res="3.7084635347127914e-02" rms="4.8536092042922974e-01" purity="5.9135228395462036e-01" nType="0">
        <Node pos="l" depth="4" NCoef="0" IVar="-1" Cut="0.0000000000000000e+00" cType="1" res="1.3681137934327126e-02" rms="4.7026067972183228e-01" purity="6.5951454639434814e-01" nType="-99"/>
        <Node pos="r" depth="4" NCoef="0" IVar="-1" Cut="0.0000000000000000e+00" cType="1" res="-4.3123629875481129e-03" rms="4.9359354376792908e-01" purity="4.7367817163467407e-01" nType="-99"/>
       </Node>
      </Node>
     </Node>
     <Node pos="r" depth="1" NCoef="0" IVar="3" Cut="5.7713398933410645e+00" cType="0" res="-1.2976825237274170e-01" rms="4.2506316304206848e-01" purity="2.5794818997383118e-01" nType="0">
      <Node pos="l" depth="2" NCoef="0" IVar="0" Cut="1.3620932006835938e+02" cType="0" res="-5.1824271678924561e-02" rms="4.8239016532897949e-01" purity="3.8854160904884338e-01" nType="0">
       <Node pos="l" depth="3" NCoef="0" IVar="-1" Cut="0.0000000000000000e+00" cType="1" res="-4.6681747771799564e-03" rms="4.9500328302383423e-01" purity="4.6514832973480225e-01" nType="-99"/>
       <Node pos="r" depth="3" NCoef="0" IVar="3" Cut="5.9415321350097656e+00" cType="0" res="-9.8641164600849152e-02" rms="4.6724694967269897e-01" purity="3.3090242743492126e-01" nType="0">
        <Node pos="l" depth="4" NCoef="0" IVar="-1" Cut="0.0000000000000000e+00" cType="1" res="-9.7020789980888367e-03" rms="4.8509564995765686e-01" purity="3.8826200366020203e-01" nType="-99"/>
        <Node pos="r" depth="4" NCoef="0" IVar="-1" Cut="0.0000000000000000e+00" cType="1" res="-1.9111080095171928e-02" rms="4.4779065251350403e-01" purity="2.8013074398040771e-01" nType="-99"/>
       </Node>
      </Node>
      <Node pos="r" depth="2" NCoef="0" IVar="6" Cut="6.7724945068359375e+01" cType="0" res="-1.7527143657207489e-01" rms="3.8038349151611328e-01" purity="1.8170861899852753e-01" nType="0">
       <Node pos="l" depth="3" NCoef="0" IVar="0" Cut="7.3104270935058594e+01" cType="0" res="-1.5899617969989777e-01" rms="3.9919936656951904e-01" purity="2.0434746146202087e-01" nType="0">
        <Node pos="l" depth="4" NCoef="0" IVar="6" Cut="2.8154916381835938e+02" cType="0" res="-1.4075501263141632e-01" rms="4.1546311974525452e-01" purity="2.2665087878704071e-01" nType="0">
         <Node pos="l" depth="5" NCoef="0" IVar="-1" Cut="0.0000000000000000e+00" cType="1" res="-1.1944550089538097e-02" rms="4.5885178446769714e-01" purity="3.0429372191429138e-01" nType="-99"/>
         <Node pos="r" depth="5" NCoef="0" IVar="2" Cut="2.1738655567169189e+00" cType="0" res="-1.5575239062309265e-01" rms="3.9954689145088196e-01" purity="2.0201216638088226e-01" nType="0">
          <Node pos="l" depth="6" NCoef="0" IVar="-1" Cut="0.0000000000000000e+00" cType="1" res="-2.5842187926173210e-02" rms="4.3230643868446350e-01" purity="2.5394630432128906e-01" nType="-99"/>
          <Node pos="r" depth="6" NCoef="0" IVar="6" Cut="1.4791638183593750e+02" cType="0" res="-1.8151339888572693e-01" rms="3.7817689776420593e-01" purity="1.7394323647022247e-01" nType="0">
           <Node pos="l" depth="7" NCoef="0" IVar="-1" Cut="0.0000000000000000e+00" cType="1" res="-2.7948506176471710e-02" rms="4.2023169994354248e-01" purity="2.2623254358768463e-01" nType="-99"/>
           <Node pos="r" depth="7" NCoef="0" IVar="-1" Cut="0.0000000000000000e+00" cType="1" res="-4.0745530277490616e-02" rms="3.2689338922500610e-01" purity="1.2199176847934723e-01" nType="-99"/>
          </Node>
         </Node>
        </Node>
        <Node pos="r" depth="4" NCoef="0" IVar="-1" Cut="0.0000000000000000e+00" cType="1" res="-4.1897062212228775e-02" rms="3.1974145770072937e-01" purity="1.1861462891101837e-01" nType="-99"/>
       </Node>
       <Node pos="r" depth="3" NCoef="0" IVar="-1" Cut="0.0000000000000000e+00" cType="1" res="-4.3113879859447479e-02" rms="2.7595457434654236e-01" purity="8.5112787783145905e-02" nType="-99"/>
      </Node>
     </Node>
    </Node>
   </BinaryTree>
   <BinaryTree type="DecisionTree" boostWeight="1.0000000000000000e+00" itree="8">
    <Node pos="s" depth="0" NCoef="0" IVar="3" Cut="6.5418152809143066e+00" cType="0" res="9.1956174001097679e-03" rms="4.3907099962234497e-01" purity="5.0418418645858765e-01" nType="0">
     <Node pos="l" depth="1" NCoef="0" IVar="5" Cut="2.6617625355720520e-01" cType="1" res="1.9570398330688477e-01" rms="3.3485862612724304e-01" purity="8.6442786455154419e-01" nType="0">
      <Node pos="l" depth="2" NCoef="0" IVar="3" Cut="7.1836667060852051e+00" cType="0" res="2.2851046919822693e-01" rms="2.8967577219009399e-01" purity="9.0337079763412476e-01" nType="0">
       <Node pos="l" depth="3" NCoef="0" IVar="-1" Cut="0.0000000000000000e+00" cType="1" res="4.5745607465505600e-02" rms="1.8446789681911469e-01" purity="9.6429616212844849e-01" nType="-99"/>
       <Node pos="r" depth="3" NCoef="0" IVar="5" Cut="1.2121113389730453e-01" cType="1" res="2.0773547887802124e-01" rms="3.2922071218490601e-01" purity="8.7193059921264648e-01" nType="0">
        <Node pos="l" depth="4" NCoef="0" IVar="-1" Cut="0.0000000000000000e+00" cType="1" res="3.9027836173772812e-02" rms="2.9104471206665039e-01" purity="9.0391397476196289e-01" nType="-99"/>
        <Node pos="r" depth="4" NCoef="0" IVar="-1" Cut="0.0000000000000000e+00" cType="1" res="3.1414229422807693e-02" rms="3.5723263025283813e-01" purity="8.4343659877777100e-01" nType="-99"/>
       </Node>
      </Node>
      <Node pos="r" depth="2" NCoef="0" IVar="1" Cut="9.7834503173828125e+01" cType="0" res="1.4744772017002106e-01" rms="3.8694417476654053e-01" purity="8.0714517831802368e-01" nType="0">
       <Node pos="l" depth="3" NCoef="0" IVar="-1" Cut="0.0000000000000000e+00" cType="1" res="3.6816865205764771e-02" rms="3.3256536722183228e-01" purity="8.6859315633773804e-01" nType="-99"/>
       <Node pos="r" depth="3" NCoef="0" IVar="-1" Cut="0.0000000000000000e+00" cType="1" res="2.0220810547471046e-02" rms="4.3326839804649353e-01" purity="7.3775970935821533e-01" nType="-99"/>
      </Node>
     </Node>
     <Node pos="r" depth="1" NCoef="0" IVar="3" Cut="5.9754924774169922e+00" cType="0" res="-6.8191945552825928e-02" rms="4.5368081331253052e-01" purity="3.5470893979072571e-01" nType="0">
      <Node pos="l" depth="2" NCoef="0" IVar="2" Cut="3.9069094657897949e+00" cType="1" res="1.9992390647530556e-02" rms="4.9095860123634338e-01" purity="5.4549294710159302e-01" nType="0">
       <Node pos="l" depth="3" NCoef="0" IVar="4" Cut="4.6501863002777100e-01" cType="1" res="4.4849682599306107e-02" rms="4.8728540539741516e-01" purity="5.7114052772521973e-01" nType="0">
        <Node pos="l" depth="4" NCoef="0" IVar="3" Cut="6.2167148590087891e+00" cType="0" res="7.9082369804382324e-02" rms="4.8127302527427673e-01" purity="6.0828012228012085e-01" nType="0">
         <Node pos="l" depth="5" NCoef="0" IVar="-1" Cut="0.0000000000000000e+00" cType="1" res="2.0647376775741577e-02" rms="4.6245202422142029e-01" purity="6.8536996841430664e-01" nType="-99"/>
         <Node pos="r" depth="5" NCoef="0" IVar="-1" Cut="0.0000000000000000e+00" cType="1" res="6.5703946165740490e-03" rms="4.9658209085464478e-01" purity="5.3490543365478516e-01" nType="-99"/>
        </Node>
        <Node pos="r" depth="4" NCoef="0" IVar="-1" Cut="0.0000000000000000e+00" cType="1" res="-4.6885940246284008e-03" rms="4.9194222688674927e-01" purity="4.8934340476989746e-01" nType="-99"/>
       </Node>
       <Node pos="r" depth="3" NCoef="0" IVar="-1" Cut="0.0000000000000000e+00" cType="1" res="-4.7350660897791386e-03" rms="4.9391618371009827e-01" purity="4.5704996585845947e-01" nType="-99"/>
      </Node>
      <Node pos="r" depth="2" NCoef="0" IVar="6" Cut="3.9497131347656250e+02" cType="0" res="-1.1946126818656921e-01" rms="4.2214161157608032e-01" purity="2.4378937482833862e-01" nType="0">
       <Node pos="l" depth="3" NCoef="0" IVar="-1" Cut="0.0000000000000000e+00" cType="1" res="-2.7489808853715658e-03" rms="4.8164260387420654e-01" purity="3.8342422246932983e-01" nType="-99"/>
       <Node pos="r" depth="3" NCoef="0" IVar="4" Cut="1.1752661317586899e-01" cType="1" res="-1.3237021863460541e-01" rms="4.1189604997634888e-01" purity="2.2530177235603333e-01" nType="0">
        <Node pos="l" depth="4" NCoef="0" IVar="-1" Cut="0.0000000000000000e+00" cType="1" res="-1.9319061189889908e-02" rms="4.4406938552856445e-01" purity="2.8178006410598755e-01" nType="-99"/>
        <Node pos="r" depth="4" NCoef="0" IVar="5" Cut="9.9631381034851074e-01" cType="0" res="-1.4681017398834229e-01" rms="4.0187829732894897e-01" purity="2.1066020429134369e-01" nType="0">
         <Node pos="l" depth="5" NCoef="0" IVar="-1" Cut="0.0000000000000000e+00" cType="1" res="-2.2508010268211365e-02" rms="4.4170084595680237e-01" purity="2.7870157361030579e-01" nType="-99"/>
         <Node pos="r" depth="5" NCoef="0" IVar="4" Cut="3.6799591779708862e-01" cType="1" res="-1.6147305071353912e-01" rms="3.9112430810928345e-01" purity="1.9581936299800873e-01" nType="0">
          <Node pos="l" depth="6" NCoef="0" IVar="0" Cut="8.4143554687500000e+01" cType="0" res="-1.3429875671863556e-01" rms="4.0909418463706970e-01" purity="2.2079241275787354e-01" nType="0">
           <Node pos="l" depth="7" NCoef="0" IVar="-1" Cut="0.0000000000000000e+00" cType="1" res="-2.4009861052036285e-02" rms="4.3287864327430725e-01" purity="2.6277452707290649e-01" nType="-99"/>
           <Node pos="r" depth="7" NCoef="0" IVar="-1" Cut="0.0000000000000000e+00" cType="1" res="-3.5336934030056000e-02" rms="3.7398847937583923e-01" purity="1.6787189245223999e-01" nType="-99"/>
          </Node>
          <Node pos="r" depth="6" NCoef="0" IVar="6" Cut="2.2750268554687500e+02" cType="0" res="-1.8338961899280548e-01" rms="3.7457272410392761e-01" purity="1.7567814886569977e-01" nType="0">
           <Node pos="l" depth="7" NCoef="0" IVar="-1" Cut="0.0000000000000000e+00" cType="1" res="-2.5900634005665779e-02" rms="4.2959380149841309e-01" purity="2.5037115812301636e-01" nType="-99"/>
           <Node pos="r" depth="7" NCoef="0" IVar="-1" Cut="0.0000000000000000e+00" cType="1" res="-3.9054520428180695e-02" rms="3.3870181441307068e-01" purity="1.3488437235355377e-01" nType="-99"/>
          </Node>
         </Node>
        </Node>
       </Node>
      </Node>
     </Node>
    </Node>
   </BinaryTree>
   <BinaryTree type="DecisionTree" boostWeight="1.0000000000000000e+00" itree="9">
    <Node pos="s" depth="0" NCoef="0" IVar="3" Cut="6.0306525230407715e+00" cType="0" res="1.9258165732026100e-02" rms="4.2810881137847900e-01" purity="5.1526248455047607e-01" nType="0">
     <Node pos="l" depth="1" NCoef="0" IVar="3" Cut="6.6356630325317383e+00" cType="0" res="1.3548424839973450e-01" rms="4.0167394280433655e-01" purity="7.5762522220611572e-01" nType="0">
      <Node pos="l" depth="2" NCoef="0" IVar="4" Cut="3.4571531414985657e-01" cType="1" res="2.1040961146354675e-01" rms="2.8799432516098022e-01" purity="9.0538227558135986e-01" nType="0">
       <Node pos="l" depth="3" NCoef="0" IVar="6" Cut="4.1637744140625000e+02" cType="0" res="2.2662003338336945e-01" rms="2.6068955659866333e-01" purity="9.2387789487838745e-01" nType="0">
        <Node pos="l" depth="4" NCoef="0" IVar="4" Cut="1.7433066666126251e-01" cType="1" res="2.5028979778289795e-01" rms="2.0546227693557739e-01" purity="9.5444560050964355e-01" nType="0">
         <Node pos="l" depth="5" NCoef="0" IVar="-1" Cut="0.0000000000000000e+00" cType="1" res="4.6124376356601715e-02" rms="1.6687868535518646e-01" purity="9.7139292955398560e-01" nType="-99"/>
         <Node pos="r" depth="5" NCoef="0" IVar="-1" Cut="0.0000000000000000e+00" cType="1" res="3.6684293299913406e-02" rms="2.3788851499557495e-01" purity="9.3698734045028687e-01" nType="-99"/>
        </Node>
        <Node pos="r" depth="4" NCoef="0" IVar="-1" Cut="0.0000000000000000e+00" cType="1" res="3.3035218715667725e-02" rms="3.1467092037200928e-01" purity="8.8508433103561401e-01" nType="-99"/>
       </Node>
       <Node pos="r" depth="3" NCoef="0" IVar="-1" Cut="0.0000000000000000e+00" cType="1" res="2.7350798249244690e-02" rms="3.5864683985710144e-01" purity="8.4438091516494751e-01" nType="-99"/>
      </Node>
      <Node pos="r" depth="2" NCoef="0" IVar="0" Cut="9.3225265502929688e+01" cType="0" res="5.9649504721164703e-02" rms="4.7881299257278442e-01" purity="6.0807478427886963e-01" nType="0">
       <Node pos="l" depth="3" NCoef="0" IVar="4" Cut="4.8170098662376404e-01" cType="1" res="8.8352724909782410e-02" rms="4.7037309408187866e-01" purity="6.4652806520462036e-01" nType="0">
        <Node pos="l" depth="4" NCoef="0" IVar="6" Cut="2.6587173461914062e+02" cType="0" res="1.2473134696483612e-01" rms="4.5669555664062500e-01" purity="6.8874830007553101e-01" nType="0">
         <Node pos="l" depth="5" NCoef="0" IVar="-1" Cut="0.0000000000000000e+00" cType="1" res="2.1887307986617088e-02" rms="4.2757537961006165e-01" purity="7.5261259078979492e-01" nType="-99"/>
         <Node pos="r" depth="5" NCoef="0" IVar="-1" Cut="0.0000000000000000e+00" cType="1" res="1.2194484472274780e-02" rms="4.7901615500450134e-01" purity="6.2400376796722412e-01" nType="-99"/>
        </Node>
        <Node pos="r" depth="4" NCoef="0" IVar="-1" Cut="0.0000000000000000e+00" cType="1" res="-7.2502542752772570e-04" rms="4.9253401160240173e-01" purity="5.2920526266098022e-01" nType="-99"/>
       </Node>
       <Node pos="r" depth="3" NCoef="0" IVar="-1" Cut="0.0000000000000000e+00" cType="1" res="-9.7922747954726219e-03" rms="4.9455276131629944e-01" purity="4.6555578708648682e-01" nType="-99"/>
      </Node>
     </Node>
     <Node pos="r" depth="1" NCoef="0" IVar="6" Cut="3.9497131347656250e+02" cType="0" res="-1.0917769372463226e-01" rms="4.1963472962379456e-01" purity="2.4743902683258057e-01" nType="0">
      <Node pos="l" depth="2" NCoef="0" IVar="-1" Cut="0.0000000000000000e+00" cType="1" res="-2.3031539749354124e-03" rms="4.9422833323478699e-01" purity="4.4125679135322571e-01" nType="-99"/>
      <Node pos="r" depth="2" NCoef="0" IVar="3" Cut="5.5447845458984375e+00" cType="0" res="-1.2780348956584930e-01" rms="4.0507829189300537e-01" purity="2.2172859311103821e-01" nType="0">
       <Node pos="l" depth="3" NCoef="0" IVar="7" Cut="1.0167094421386719e+02" cType="0" res="-9.7238495945930481e-02" rms="4.4173580408096313e-01" purity="2.8022101521492004e-01" nType="0">
        <Node pos="l" depth="4" NCoef="0" IVar="1" Cut="6.5433532714843750e+01" cType="0" res="-5.6719195097684860e-02" rms="4.6631053090095520e-01" purity="3.3740851283073425e-01" nType="0">
         <Node pos="l" depth="5" NCoef="0" IVar="-1" Cut="0.0000000000000000e+00" cType="1" res="-7.9508488997817039e-03" rms="4.8009693622589111e-01" purity="3.7999764084815979e-01" nType="-99"/>
         <Node pos="r" depth="5" NCoef="0" IVar="-1" Cut="0.0000000000000000e+00" cType="1" res="-1.2656096369028091e-02" rms="4.5030266046524048e-01" purity="2.9518616199493408e-01" nType="-99"/>
        </Node>
        <Node pos="r" depth="4" NCoef="0" IVar="6" Cut="1.3732862854003906e+02" cType="0" res="-1.2470033019781113e-01" rms="4.2206603288650513e-01" purity="2.4146242439746857e-01" nType="0">
         <Node pos="l" depth="5" NCoef="0" IVar="-1" Cut="0.0000000000000000e+00" cType="1" res="-2.0856976509094238e-02" rms="4.4783133268356323e-01" purity="2.8740683197975159e-01" nType="-99"/>
         <Node pos="r" depth="5" NCoef="0" IVar="-1" Cut="0.0000000000000000e+00" cType="1" res="-2.9749408364295959e-02" rms="3.8618561625480652e-01" purity="1.8720035254955292e-01" nType="-99"/>
        </Node>
       </Node>
       <Node pos="r" depth="3" NCoef="0" IVar="6" Cut="1.0390456390380859e+02" cType="0" res="-1.7452138662338257e-01" rms="3.3620056509971619e-01" purity="1.3232427835464478e-01" nType="0">
        <Node pos="l" depth="4" NCoef="0" IVar="-1" Cut="0.0000000000000000e+00" cType="1" res="-3.0915312469005585e-02" rms="3.8012662529945374e-01" purity="1.7596177756786346e-01" nType="-99"/>
        <Node pos="r" depth="4" NCoef="0" IVar="-1" Cut="0.0000000000000000e+00" cType="1" res="-4.2101252824068069e-02" rms="2.6556929945945740e-01" purity="7.6577186584472656e-02" nType="-99"/>
       </Node>
      </Node>
     </Node>
    </Node>
   </BinaryTree>
   <BinaryTree type="DecisionTree" boostWeight="1.0000000000000000e+00" itree="10">
    <Node pos="s" depth="0" NCoef="0" IVar="3" Cut="6.3357858657836914e+00" cType="0" res="5.4405974224209785e-03" rms="4.2839735746383667e-01" purity="5.0102913379669189e-01" nType="0">
     <Node pos="l" depth="1" NCoef="0" IVar="3" Cut="6.9835367202758789e+00" cType="0" res="1.4738360047340393e-01" rms="3.7071064114570618e-01" purity="8.1687271595001221e-01" nType="0">
      <Node pos="l" depth="2" NCoef="0" IVar="4" Cut="2.2013105452060699e-01" cType="1" res="2.1186944842338562e-01" rms="2.4593386054039001e-01" purity="9.3401992321014404e-01" nType="0">
       <Node pos="l" depth="3" NCoef="0" IVar="-1" Cut="0.0000000000000000e+00" cType="1" res="4.1980221867561340e-02" rms="2.1573917567729950e-01" purity="9.5056432485580444e-01" nType="-99"/>
       <Node pos="r" depth="3" NCoef="0" IVar="-1" Cut="0.0000000000000000e+00" cType="1" res="3.3425435423851013e-02" rms="2.8145939111709595e-01" purity="9.1109317541122437e-01" nType="-99"/>
      </Node>
      <Node pos="r" depth="2" NCoef="0" IVar="5" Cut="2.6644486188888550e-01" cType="1" res="1.1053064465522766e-01" rms="4.2150181531906128e-01" purity="7.4992430210113525e-01" nType="0">
       <Node pos="l" depth="3" NCoef="0" IVar="4" Cut="2.2387878596782684e-01" cType="1" res="1.5920141339302063e-01" rms="3.8026666641235352e-01" purity="8.1638324260711670e-01" nType="0">
        <Node pos="l" depth="4" NCoef="0" IVar="-1" Cut="0.0000000000000000e+00" cType="1" res="3.5031497478485107e-02" rms="3.2947656512260437e-01" purity="8.7412428855895996e-01" nType="-99"/>
        <Node pos="r" depth="4" NCoef="0" IVar="-1" Cut="0.0000000000000000e+00" cType="1" res="2.0936153829097748e-02" rms="4.1944974660873413e-01" purity="7.5680923461914062e-01" nType="-99"/>
       </Node>
       <Node pos="r" depth="3" NCoef="0" IVar="0" Cut="1.6951286315917969e+02" cType="0" res="5.7967204600572586e-02" rms="4.5612260699272156e-01" purity="6.7814999818801880e-01" nType="0">
        <Node pos="l" depth="4" NCoef="0" IVar="-1" Cut="0.0000000000000000e+00" cType="1" res="1.9988872110843658e-02" rms="4.2851483821868896e-01" purity="7.4310016632080078e-01" nType="-99"/>
        <Node pos="r" depth="4" NCoef="0" IVar="-1" Cut="0.0000000000000000e+00" cType="1" res="5.7961279526352882e-03" rms="4.7889298200607300e-01" purity="6.0906523466110229e-01" nType="-99"/>
       </Node>
      </Node>
     </Node>
     <Node pos="r" depth="1" NCoef="0" IVar="3" Cut="5.8424782752990723e+00" cType="0" res="-8.0646641552448273e-02" rms="4.3800890445709229e-01" purity="3.0947268009185791e-01" nType="0">
      <Node pos="l" depth="2" NCoef="0" IVar="0" Cut="9.4039848327636719e+01" cType="0" res="-1.4926164411008358e-02" rms="4.8613953590393066e-01" purity="4.6277162432670593e-01" nType="0">
       <Node pos="l" depth="3" NCoef="0" IVar="7" Cut="1.7781715393066406e+02" cType="0" res="2.5742188096046448e-02" rms="4.8852485418319702e-01" purity="5.1808249950408936e-01" nType="0">
        <Node pos="l" depth="4" NCoef="0" IVar="-1" Cut="0.0000000000000000e+00" cType="1" res="1.0023460723459721e-02" rms="4.8263201117515564e-01" purity="6.1538052558898926e-01" nType="-99"/>
        <Node pos="r" depth="4" NCoef="0" IVar="2" Cut="2.6099627017974854e+00" cType="0" res="-1.0533013381063938e-02" rms="4.8702973127365112e-01" purity="4.7262358665466309e-01" nType="0">
         <Node pos="l" depth="5" NCoef="0" IVar="-1" Cut="0.0000000000000000e+00" cType="1" res="8.4514595801010728e-04" rms="4.8772206902503967e-01" purity="5.2553522586822510e-01" nType="-99"/>
         <Node pos="r" depth="5" NCoef="0" IVar="-1" Cut="0.0000000000000000e+00" cType="1" res="-5.5706859566271305e-03" rms="4.8362615704536438e-01" purity="4.2845082283020020e-01" nType="-99"/>
        </Node>
       </Node>
       <Node pos="r" depth="3" NCoef="0" IVar="-1" Cut="0.0000000000000000e+00" cType="1" res="-1.5556007623672485e-02" rms="4.6308007836341858e-01" purity="3.1737264990806580e-01" nType="-99"/>
      </Node>
      <Node pos="r" depth="2" NCoef="0" IVar="7" Cut="1.5726957702636719e+02" cType="0" res="-1.2497211247682571e-01" rms="3.9619988203048706e-01" purity="2.0607957243919373e-01" nType="0">
       <Node pos="l" depth="3" NCoef="0" IVar="-1" Cut="0.0000000000000000e+00" cType="1" res="-1.1992359533905983e-02" rms="4.6687400341033936e-01" purity="3.4111240506172180e-01" nType="-99"/>
       <Node pos="r" depth="3" NCoef="0" IVar="4" Cut="1.4965017139911652e-01" cType="1" res="-1.4935743808746338e-01" rms="3.7318944931030273e-01" purity="1.7369201779365540e-01" nType="0">
        <Node pos="l" depth="4" NCoef="0" IVar="-1" Cut="0.0000000000000000e+00" cType="1" res="-2.0018991082906723e-02" rms="4.0598496794700623e-01" purity="2.1929800510406494e-01" nType="-99"/>
        <Node pos="r" depth="4" NCoef="0" IVar="2" Cut="2.8609685897827148e+00" cType="1" res="-1.6211621463298798e-01" rms="3.6334389448165894e-01" purity="1.6219267249107361e-01" nType="0">
         <Node pos="l" depth="5" NCoef="0" IVar="6" Cut="2.2718142700195312e+02" cType="0" res="-1.4756864309310913e-01" rms="3.7647098302841187e-01" purity="1.7758955061435699e-01" nType="0">
          <Node pos="l" depth="6" NCoef="0" IVar="-1" Cut="0.0000000000000000e+00" cType="1" res="-1.4222323894500732e-02" rms="4.4642001390457153e-01" purity="2.7625173330307007e-01" nType="-99"/>
          <Node pos="r" depth="6" NCoef="0" IVar="5" Cut="3.0977621674537659e-01" cType="0" res="-1.6898848116397858e-01" rms="3.3970198035240173e-01" purity="1.3506419956684113e-01" nType="0">
           <Node pos="l" depth="7" NCoef="0" IVar="-1" Cut="0.0000000000000000e+00" cType="1" res="-3.3662915229797363e-02" rms="3.6146655678749084e-01" purity="1.5643137693405151e-01" nType="-99"/>
           <Node pos="r" depth="7" NCoef="0" IVar="-1" Cut="0.0000000000000000e+00" cType="1" res="-3.3816613256931305e-02" rms="3.0034235119819641e-01" purity="1.0214872658252716e-01" nType="-99"/>
          </Node>
         </Node>
         <Node pos="r" depth="5" NCoef="0" IVar="-1" Cut="0.0000000000000000e+00" cType="1" res="-3.6176312714815140e-02" rms="3.0370870232582092e-01" purity="1.0500109195709229e-01" nType="-99"/>
        </Node>
       </Node>
      </Node>
     </Node>
    </Node>
   </BinaryTree>
   <BinaryTree type="DecisionTree" boostWeight="1.0000000000000000e+00" itree="11">
    <Node pos="s" depth="0" NCoef="0" IVar="3" Cut="6.0307588577270508e+00" cType="0" res="2.4970208760350943e-03" rms="4.2621260881423950e-01" purity="4.9776208400726318e-01" nType="0">
     <Node pos="l" depth="1" NCoef="0" IVar="3" Cut="6.4263210296630859e+00" cType="0" res="9.6259742975234985e-02" rms="4.1481220722198486e-01" purity="7.3249953985214233e-01" nType="0">
      <Node pos="l" depth="2" NCoef="0" IVar="3" Cut="7.0842261314392090e+00" cType="0" res="1.3974781334400177e-01" rms="3.6031824350357056e-01" purity="8.3424991369247437e-01" nType="0">
       <Node pos="l" depth="3" NCoef="0" IVar="-1" Cut="0.0000000000000000e+00" cType="1" res="3.8871925324201584e-02" rms="2.5402897596359253e-01" purity="9.2933392524719238e-01" nType="-99"/>
       <Node pos="r" depth="3" NCoef="0" IVar="2" Cut="4.5405969619750977e+00" cType="1" res="1.1561563611030579e-01" rms="3.9919328689575195e-01" purity="7.8863984346389771e-01" nType="0">
        <Node pos="l" depth="4" NCoef="0" IVar="5" Cut="3.1390821933746338e-01" cType="1" res="1.3901656866073608e-01" rms="3.8233759999275208e-01" purity="8.1374347209930420e-01" nType="0">
         <Node pos="l" depth="5" NCoef="0" IVar="-1" Cut="0.0000000000000000e+00" cType="1" res="3.1992513686418533e-02" rms="3.4214842319488525e-01" purity="8.6038607358932495e-01" nType="-99"/>
         <Node pos="r" depth="5" NCoef="0" IVar="-1" Cut="0.0000000000000000e+00" cType="1" res="1.8725264817476273e-02" rms="4.2712819576263428e-01" purity="7.4988889694213867e-01" nType="-99"/>
        </Node>
        <Node pos="r" depth="4" NCoef="0" IVar="-1" Cut="0.0000000000000000e+00" cType="1" res="1.2144726701080799e-02" rms="4.3396002054214478e-01" purity="7.2377783060073853e-01" nType="-99"/>
       </Node>
      </Node>
      <Node pos="r" depth="2" NCoef="0" IVar="5" Cut="1.9958974421024323e-01" cType="1" res="1.8312856554985046e-02" rms="4.8817360401153564e-01" purity="5.5012488365173340e-01" nType="0">
       <Node pos="l" depth="3" NCoef="0" IVar="-1" Cut="0.0000000000000000e+00" cType="1" res="8.5007175803184509e-03" rms="4.8020941019058228e-01" purity="6.1912047863006592e-01" nType="-99"/>
       <Node pos="r" depth="3" NCoef="0" IVar="2" Cut="2.8123266696929932e+00" cType="1" res="-1.7082626000046730e-02" rms="4.8977452516555786e-01" purity="5.0698524713516235e-01" nType="0">
        <Node pos="l" depth="4" NCoef="0" IVar="-1" Cut="0.0000000000000000e+00" cType="1" res="6.1178179457783699e-03" rms="4.8414203524589539e-01" purity="5.9631943702697754e-01" nType="-99"/>
        <Node pos="r" depth="4" NCoef="0" IVar="-1" Cut="0.0000000000000000e+00" cType="1" res="-7.8673837706446648e-03" rms="4.8508197069168091e-01" purity="4.3315136432647705e-01" nType="-99"/>
       </Node>
      </Node>
     </Node>
     <Node pos="r" depth="1" NCoef="0" IVar="0" Cut="1.4353128051757812e+02" cType="0" res="-1.0056100040674210e-01" rms="4.1462242603302002e-01" purity="2.3975355923175812e-01" nType="0">
      <Node pos="l" depth="2" NCoef="0" IVar="6" Cut="2.5976971435546875e+02" cType="0" res="-4.2179793119430542e-02" rms="4.6228605508804321e-01" purity="3.3687117695808411e-01" nType="0">
       <Node pos="l" depth="3" NCoef="0" IVar="-1" Cut="0.0000000000000000e+00" cType="1" res="6.3049147138372064e-04" rms="4.9092826247215271e-01" purity="4.3303656578063965e-01" nType="-99"/>
       <Node pos="r" depth="3" NCoef="0" IVar="-1" Cut="0.0000000000000000e+00" cType="1" res="-1.7536772415041924e-02" rms="4.3854877352714539e-01" purity="2.7579519152641296e-01" nType="-99"/>
      </Node>
      <Node pos="r" depth="2" NCoef="0" IVar="4" Cut="4.3916177749633789e-01" cType="1" res="-1.2303815037012100e-01" rms="3.9243128895759583e-01" purity="2.0236267149448395e-01" nType="0">
       <Node pos="l" depth="3" NCoef="0" IVar="6" Cut="1.4227848815917969e+02" cType="0" res="-1.0172089189291000e-01" rms="4.0467432141304016e-01" purity="2.2271865606307983e-01" nType="0">
        <Node pos="l" depth="4" NCoef="0" IVar="-1" Cut="0.0000000000000000e+00" cType="1" res="-8.7293367832899094e-03" rms="4.4822174310684204e-01" purity="3.1115439534187317e-01" nType="-99"/>
        <Node pos="r" depth="4" NCoef="0" IVar="2" Cut="2.5677642822265625e+00" cType="0" res="-1.3136264681816101e-01" rms="3.7554049491882324e-01" purity="1.7452691495418549e-01" nType="0">
         <Node pos="l" depth="5" NCoef="0" IVar="-1" Cut="0.0000000000000000e+00" cType="1" res="-2.1250059828162193e-02" rms="4.0881651639938354e-01" purity="2.1477383375167847e-01" nType="-99"/>
         <Node pos="r" depth="5" NCoef="0" IVar="-1" Cut="0.0000000000000000e+00" cType="1" res="-3.1074542552232742e-02" rms="3.2672029733657837e-01" purity="1.2512664496898651e-01" nType="-99"/>
        </Node>
       </Node>
       <Node pos="r" depth="3" NCoef="0" IVar="5" Cut="4.7173368930816650e-01" cType="1" res="-1.5578579902648926e-01" rms="3.7045916914939880e-01" purity="1.7109173536300659e-01" nType="0">
        <Node pos="l" depth="4" NCoef="0" IVar="-1" Cut="0.0000000000000000e+00" cType="1" res="-2.5758521631360054e-02" rms="3.8921016454696655e-01" purity="1.9825892150402069e-01" nType="-99"/>
        <Node pos="r" depth="4" NCoef="0" IVar="-1" Cut="0.0000000000000000e+00" cType="1" res="-3.1012231484055519e-02" rms="3.3775529265403748e-01" purity="1.3193574547767639e-01" nType="-99"/>
       </Node>
      </Node>
     </Node>
    </Node>
   </BinaryTree>
   <BinaryTree type="DecisionTree" boostWeight="1.0000000000000000e+00" itree="12">
    <Node pos="s" depth="0" NCoef="0" IVar="3" Cut="6.3052725791931152e+00" cType="0" res="2.5615163613110781e-03" rms="4.2264527082443237e-01" purity="4.9815997481346130e-01" nType="0">
     <Node pos="l" depth="1" NCoef="0" IVar="0" Cut="8.7443832397460938e+01" cType="0" res="1.2519231438636780e-01" rms="3.7392467260360718e-01" purity="8.1207245588302612e-01" nType="0">
      <Node pos="l" depth="2" NCoef="0" IVar="3" Cut="6.6341619491577148e+00" cType="0" res="1.4335791766643524e-01" rms="3.5328873991966248e-01" purity="8.3778560161590576e-01" nType="0">
       <Node pos="l" depth="3" NCoef="0" IVar="5" Cut="3.7377253174781799e-01" cType="1" res="1.7517653107643127e-01" rms="2.8117775917053223e-01" purity="9.1185992956161499e-01" nType="0">
        <Node pos="l" depth="4" NCoef="0" IVar="7" Cut="3.2509329223632812e+02" cType="0" res="1.9010023772716522e-01" rms="2.5043120980262756e-01" purity="9.3123400211334229e-01" nType="0">
         <Node pos="l" depth="5" NCoef="0" IVar="-1" Cut="0.0000000000000000e+00" cType="1" res="3.8664475083351135e-02" rms="1.7477463185787201e-01" purity="9.6776854991912842e-01" nType="-99"/>
         <Node pos="r" depth="5" NCoef="0" IVar="-1" Cut="0.0000000000000000e+00" cType="1" res="3.5453755408525467e-02" rms="2.8129667043685913e-01" purity="9.1180831193923950e-01" nType="-99"/>
        </Node>
        <Node pos="r" depth="4" NCoef="0" IVar="-1" Cut="0.0000000000000000e+00" cType="1" res="2.6904223486781120e-02" rms="3.5043632984161377e-01" purity="8.5715931653976440e-01" nType="-99"/>
       </Node>
       <Node pos="r" depth="3" NCoef="0" IVar="5" Cut="3.1776699423789978e-01" cType="1" res="8.2053460180759430e-02" rms="4.5525133609771729e-01" purity="6.9506752490997314e-01" nType="0">
        <Node pos="l" depth="4" NCoef="0" IVar="-1" Cut="0.0000000000000000e+00" cType="1" res="2.1272648125886917e-02" rms="4.2370244860649109e-01" purity="7.6286286115646362e-01" nType="-99"/>
        <Node pos="r" depth="4" NCoef="0" IVar="-1" Cut="0.0000000000000000e+00" cType="1" res="7.7898604795336723e-03" rms="4.8208719491958618e-01" purity="6.2257635593414307e-01" nType="-99"/>
       </Node>
      </Node>
      <Node pos="r" depth="2" NCoef="0" IVar="-1" Cut="0.0000000000000000e+00" cType="1" res="2.4347074795514345e-03" rms="4.6431213617324829e-01" purity="6.5878760814666748e-01" nType="-99"/>
     </Node>
     <Node pos="r" depth="1" NCoef="0" IVar="3" Cut="5.6171369552612305e+00" cType="0" res="-7.7599525451660156e-02" rms="4.3329185247421265e-01" purity="2.9296234250068665e-01" nType="0">
      <Node pos="l" depth="2" NCoef="0" IVar="7" Cut="1.4809989929199219e+02" cType="0" res="-4.7145139425992966e-02" rms="4.6965977549552917e-01" purity="3.7304255366325378e-01" nType="0">
       <Node pos="l" depth="3" NCoef="0" IVar="5" Cut="7.4726545810699463e-01" cType="1" res="3.3246888779103756e-03" rms="4.9101075530052185e-01" purity="4.5278313755989075e-01" nType="0">
        <Node pos="l" depth="4" NCoef="0" IVar="-1" Cut="0.0000000000000000e+00" cType="1" res="-5.7024660054594278e-04" rms="4.9247732758522034e-01" purity="4.8884209990501404e-01" nType="-99"/>
        <Node pos="r" depth="4" NCoef="0" IVar="-1" Cut="0.0000000000000000e+00" cType="1" res="-2.9260334558784962e-03" rms="4.8567587137222290e-01" purity="3.9258760213851929e-01" nType="-99"/>
       </Node>
       <Node pos="r" depth="3" NCoef="0" IVar="4" Cut="1.4739973843097687e-01" cType="1" res="-7.5107939541339874e-02" rms="4.5499765872955322e-01" purity="3.2886233925819397e-01" nType="0">
        <Node pos="l" depth="4" NCoef="0" IVar="-1" Cut="0.0000000000000000e+00" cType="1" res="-1.7357242759317160e-03" rms="4.7109821438789368e-01" purity="3.9309021830558777e-01" nType="-99"/>
        <Node pos="r" depth="4" NCoef="0" IVar="6" Cut="2.1993870544433594e+02" cType="0" res="-9.4671174883842468e-02" rms="4.4800251722335815e-01" purity="3.0850279331207275e-01" nType="0">
         <Node pos="l" depth="5" NCoef="0" IVar="-1" Cut="0.0000000000000000e+00" cType="1" res="-5.8937082067131996e-03" rms="4.7097986936569214e-01" purity="3.7695530056953430e-01" nType="-99"/>
         <Node pos="r" depth="5" NCoef="0" IVar="-1" Cut="0.0000000000000000e+00" cType="1" res="-2.1234728395938873e-02" rms="4.1962343454360962e-01" purity="2.3932152986526489e-01" nType="-99"/>
        </Node>
       </Node>
      </Node>
      <Node pos="r" depth="2" NCoef="0" IVar="7" Cut="5.4378555297851562e+01" cType="0" res="-1.2953436374664307e-01" rms="3.5701885819435120e-01" purity="1.5639902651309967e-01" nType="0">
       <Node pos="l" depth="3" NCoef="0" IVar="0" Cut="1.0348035430908203e+02" cType="0" res="-1.0510285198688507e-01" rms="3.8435900211334229e-01" purity="1.8798367679119110e-01" nType="0">
        <Node pos="l" depth="4" NCoef="0" IVar="-1" Cut="0.0000000000000000e+00" cType="1" res="-1.6084196045994759e-02" rms="4.1796901822090149e-01" purity="2.3762749135494232e-01" nType="-99"/>
        <Node pos="r" depth="4" NCoef="0" IVar="-1" Cut="0.0000000000000000e+00" cType="1" res="-2.9555333778262138e-02" rms="3.4474796056747437e-01" purity="1.3885098695755005e-01" nType="-99"/>
       </Node>
       <Node pos="r" depth="3" NCoef="0" IVar="-1" Cut="0.0000000000000000e+00" cType="1" res="-3.1643867492675781e-02" rms="3.0479529500007629e-01" purity="1.0635160654783249e-01" nType="-99"/>
      </Node>
     </Node>
    </Node>
   </BinaryTree>
   <BinaryTree type="DecisionTree" boostWeight="1.0000000000000000e+00" itree="13">
    <Node pos="s" depth="0" NCoef="0" IVar="3" Cut="6.1356515884399414e+00" cType="0" res="2.7095116674900055e-03" rms="4.2124947905540466e-01" purity="4.9749144911766052e-01" nType="0">
     <Node pos="l" depth="1" NCoef="0" IVar="3" Cut="6.6362214088439941e+00" cType="0" res="9.4191625714302063e-02" rms="3.9870235323905945e-01" purity="7.6592057943344116e-01" nType="0">
      <Node pos="l" depth="2" NCoef="0" IVar="4" Cut="2.0174983143806458e-01" cType="1" res="1.4323614537715912e-01" rms="3.0979722738265991e-01" purity="8.8743388652801514e-01" nType="0">
       <Node pos="l" depth="3" NCoef="0" IVar="1" Cut="8.3130241394042969e+01" cType="0" res="1.7941445112228394e-01" rms="2.4951981008052826e-01" purity="9.3056607246398926e-01" nType="0">
        <Node pos="l" depth="4" NCoef="0" IVar="-1" Cut="0.0000000000000000e+00" cType="1" res="3.8326650857925415e-02" rms="1.8405088782310486e-01" purity="9.6440112590789795e-01" nType="-99"/>
        <Node pos="r" depth="4" NCoef="0" IVar="-1" Cut="0.0000000000000000e+00" cType="1" res="3.1204460188746452e-02" rms="3.0367842316627502e-01" purity="8.9374440908432007e-01" nType="-99"/>
       </Node>
       <Node pos="r" depth="3" NCoef="0" IVar="1" Cut="9.8089256286621094e+01" cType="0" res="1.0661525279283524e-01" rms="3.5698035359382629e-01" purity="8.4377408027648926e-01" nType="0">
        <Node pos="l" depth="4" NCoef="0" IVar="-1" Cut="0.0000000000000000e+00" cType="1" res="3.1242478638887405e-02" rms="2.9911410808563232e-01" purity="8.9799630641937256e-01" nType="-99"/>
        <Node pos="r" depth="4" NCoef="0" IVar="-1" Cut="0.0000000000000000e+00" cType="1" res="1.4518076553940773e-02" rms="4.0882793068885803e-01" purity="7.8049796819686890e-01" nType="-99"/>
       </Node>
      </Node>
      <Node pos="r" depth="2" NCoef="0" IVar="1" Cut="5.8133277893066406e+01" cType="0" res="3.7559084594249725e-02" rms="4.7509324550628662e-01" purity="6.2560707330703735e-01" nType="0">
       <Node pos="l" depth="3" NCoef="0" IVar="4" Cut="2.0743781328201294e-01" cType="1" res="6.6495038568973541e-02" rms="4.6719893813133240e-01" purity="6.6400986909866333e-01" nType="0">
        <Node pos="l" depth="4" NCoef="0" IVar="-1" Cut="0.0000000000000000e+00" cType="1" res="1.7548976466059685e-02" rms="4.5192182064056396e-01" purity="7.0907086133956909e-01" nType="-99"/>
        <Node pos="r" depth="4" NCoef="0" IVar="-1" Cut="0.0000000000000000e+00" cType="1" res="6.0657896101474762e-03" rms="4.7471189498901367e-01" purity="6.3595330715179443e-01" nType="-99"/>
       </Node>
       <Node pos="r" depth="3" NCoef="0" IVar="-1" Cut="0.0000000000000000e+00" cType="1" res="2.8055976144969463e-04" rms="4.8705092072486877e-01" purity="5.2573668956756592e-01" nType="-99"/>
      </Node>
     </Node>
     <Node pos="r" depth="1" NCoef="0" IVar="0" Cut="1.4459579467773438e+02" cType="0" res="-7.8588396310806274e-02" rms="4.2406827211380005e-01" purity="2.5894513726234436e-01" nType="0">
      <Node pos="l" depth="2" NCoef="0" IVar="2" Cut="1.3404858112335205e+00" cType="0" res="-2.6428533717989922e-02" rms="4.6781113743782043e-01" purity="3.6155915260314941e-01" nType="0">
       <Node pos="l" depth="3" NCoef="0" IVar="-1" Cut="0.0000000000000000e+00" cType="1" res="-8.4826117381453514e-04" rms="4.8577871918678284e-01" purity="4.3570518493652344e-01" nType="-99"/>
       <Node pos="r" depth="3" NCoef="0" IVar="-1" Cut="0.0000000000000000e+00" cType="1" res="-1.5624195337295532e-02" rms="4.2464354634284973e-01" purity="2.4717947840690613e-01" nType="-99"/>
      </Node>
      <Node pos="r" depth="2" NCoef="0" IVar="5" Cut="4.1794535517692566e-01" cType="1" res="-9.9801890552043915e-02" rms="4.0300199389457703e-01" purity="2.1721185743808746e-01" nType="0">
       <Node pos="l" depth="3" NCoef="0" IVar="7" Cut="6.8182426452636719e+01" cType="0" res="-7.8052163124084473e-02" rms="4.1863507032394409e-01" purity="2.4400791525840759e-01" nType="0">
        <Node pos="l" depth="4" NCoef="0" IVar="-1" Cut="0.0000000000000000e+00" cType="1" res="-7.6127396896481514e-03" rms="4.5292243361473083e-01" purity="3.0844151973724365e-01" nType="-99"/>
        <Node pos="r" depth="4" NCoef="0" IVar="1" Cut="5.4796573638916016e+01" cType="0" res="-1.0384828597307205e-01" rms="3.9326918125152588e-01" purity="2.0330876111984253e-01" nType="0">
         <Node pos="l" depth="5" NCoef="0" IVar="-1" Cut="0.0000000000000000e+00" cType="1" res="-2.2066498175263405e-02" rms="4.2791676521301270e-01" purity="2.4957624077796936e-01" nType="-99"/>
         <Node pos="r" depth="5" NCoef="0" IVar="-1" Cut="0.0000000000000000e+00" cType="1" res="-2.3825192824006081e-02" rms="3.5265612602233887e-01" purity="1.5882547199726105e-01" nType="-99"/>
        </Node>
       </Node>
       <Node pos="r" depth="3" NCoef="0" IVar="0" Cut="9.4058471679687500e+01" cType="0" res="-1.2977920472621918e-01" rms="3.7836000323295593e-01" purity="1.8027925491333008e-01" nType="0">
        <Node pos="l" depth="4" NCoef="0" IVar="-1" Cut="0.0000000000000000e+00" cType="1" res="-1.7574012279510498e-02" rms="4.0131196379661560e-01" purity="2.1281847357749939e-01" nType="-99"/>
        <Node pos="r" depth="4" NCoef="0" IVar="-1" Cut="0.0000000000000000e+00" cType="1" res="-2.7076791971921921e-02" rms="3.4212458133697510e-01" purity="1.3699722290039062e-01" nType="-99"/>
       </Node>
      </Node>
     </Node>
    </Node>
   </BinaryTree>
   <BinaryTree type="DecisionTree" boostWeight="1.0000000000000000e+00" itree="14">
    <Node pos="s" depth="0" NCoef="0" IVar="3" Cut="6.1978454589843750e+00" cType="0" res="1.2698330916464329e-02" rms="4.1832065582275391e-01" purity="5.0801217555999756e-01" nType="0">
     <Node pos="l" depth="1" NCoef="0" IVar="0" Cut="8.9341186523437500e+01" cType="0" res="1.0387836396694183e-01" rms="3.8265195488929749e-01" purity="7.9169833660125732e-01" nType="0">
      <Node pos="l" depth="2" NCoef="0" IVar="4" Cut="1.9269980490207672e-01" cType="1" res="1.2375681847333908e-01" rms="3.6108580231666565e-01" purity="8.2437074184417725e-01" nType="0">
       <Node pos="l" depth="3" NCoef="0" IVar="6" Cut="4.0768066406250000e+02" cType="0" res="1.7060625553131104e-01" rms="2.9126146435737610e-01" purity="8.9498984813690186e-01" nType="0">
        <Node pos="l" depth="4" NCoef="0" IVar="-1" Cut="0.0000000000000000e+00" cType="1" res="3.8488015532493591e-02" rms="1.8425950407981873e-01" purity="9.6223914623260498e-01" nType="-99"/>
        <Node pos="r" depth="4" NCoef="0" IVar="-1" Cut="0.0000000000000000e+00" cType="1" res="2.4631964042782784e-02" rms="3.4483286738395691e-01" purity="8.4890615940093994e-01" nType="-99"/>
       </Node>
       <Node pos="r" depth="3" NCoef="0" IVar="5" Cut="3.4827861189842224e-01" cType="1" res="9.0449206531047821e-02" rms="4.0012085437774658e-01" purity="7.7416408061981201e-01" nType="0">
        <Node pos="l" depth="4" NCoef="0" IVar="5" Cut="1.8292121589183807e-01" cType="1" res="1.2496667355298996e-01" rms="3.6447456479072571e-01" purity="8.2743763923645020e-01" nType="0">
         <Node pos="l" depth="5" NCoef="0" IVar="-1" Cut="0.0000000000000000e+00" cType="1" res="2.5502445176243782e-02" rms="3.3707338571548462e-01" purity="8.5649949312210083e-01" nType="-99"/>
         <Node pos="r" depth="5" NCoef="0" IVar="-1" Cut="0.0000000000000000e+00" cType="1" res="1.7883006483316422e-02" rms="3.9957308769226074e-01" purity="7.8327459096908569e-01" nType="-99"/>
        </Node>
        <Node pos="r" depth="4" NCoef="0" IVar="-1" Cut="0.0000000000000000e+00" cType="1" res="6.9935163483023643e-03" rms="4.4540849328041077e-01" purity="6.8978637456893921e-01" nType="-99"/>
       </Node>
      </Node>
      <Node pos="r" depth="2" NCoef="0" IVar="-1" Cut="0.0000000000000000e+00" cType="1" res="-7.7829975634813309e-04" rms="4.6656343340873718e-01" purity="6.2011933326721191e-01" nType="-99"/>
     </Node>
     <Node pos="r" depth="1" NCoef="0" IVar="6" Cut="2.2280638122558594e+02" cType="0" res="-5.9184219688177109e-02" rms="4.3103820085525513e-01" purity="2.8436574339866638e-01" nType="0">
      <Node pos="l" depth="2" NCoef="0" IVar="0" Cut="9.3970268249511719e+01" cType="0" res="4.5972340740263462e-03" rms="4.7731795907020569e-01" purity="4.0304291248321533e-01" nType="0">
       <Node pos="l" depth="3" NCoef="0" IVar="4" Cut="8.7342602014541626e-01" cType="1" res="3.7979077547788620e-02" rms="4.8793035745620728e-01" purity="4.5538592338562012e-01" nType="0">
        <Node pos="l" depth="4" NCoef="0" IVar="-1" Cut="0.0000000000000000e+00" cType="1" res="4.7842734493315220e-03" rms="4.8972430825233459e-01" purity="5.0679022073745728e-01" nType="-99"/>
        <Node pos="r" depth="4" NCoef="0" IVar="-1" Cut="0.0000000000000000e+00" cType="1" res="-7.9095913097262383e-03" rms="4.7774237394332886e-01" purity="3.6101165413856506e-01" nType="-99"/>
       </Node>
       <Node pos="r" depth="3" NCoef="0" IVar="-1" Cut="0.0000000000000000e+00" cType="1" res="-1.6729947179555893e-02" rms="4.3615773320198059e-01" purity="2.6532119512557983e-01" nType="-99"/>
      </Node>
      <Node pos="r" depth="2" NCoef="0" IVar="7" Cut="1.0242034149169922e+02" cType="0" res="-9.6941865980625153e-02" rms="3.9632549881935120e-01" purity="2.1411068737506866e-01" nType="0">
       <Node pos="l" depth="3" NCoef="0" IVar="0" Cut="1.0817993927001953e+02" cType="0" res="-6.1961561441421509e-02" rms="4.4269230961799622e-01" purity="2.8905224800109863e-01" nType="0">
        <Node pos="l" depth="4" NCoef="0" IVar="-1" Cut="0.0000000000000000e+00" cType="1" res="-4.4610751792788506e-03" rms="4.6094217896461487e-01" purity="3.3578655123710632e-01" nType="-99"/>
        <Node pos="r" depth="4" NCoef="0" IVar="-1" Cut="0.0000000000000000e+00" cType="1" res="-1.5703503042459488e-02" rms="4.2153853178024292e-01" purity="2.4152158200740814e-01" nType="-99"/>
       </Node>
       <Node pos="r" depth="3" NCoef="0" IVar="1" Cut="4.3073482513427734e+01" cType="1" res="-1.1328033357858658e-01" rms="3.7157091498374939e-01" purity="1.7910726368427277e-01" nType="0">
        <Node pos="l" depth="4" NCoef="0" IVar="-1" Cut="0.0000000000000000e+00" cType="1" res="-2.4239616468548775e-02" rms="3.9617285132408142e-01" purity="2.1517111361026764e-01" nType="-99"/>
        <Node pos="r" depth="4" NCoef="0" IVar="6" Cut="1.3554458618164062e+02" cType="0" res="-1.2739035487174988e-01" rms="3.6235383152961731e-01" purity="1.6778180003166199e-01" nType="0">
         <Node pos="l" depth="5" NCoef="0" IVar="-1" Cut="0.0000000000000000e+00" cType="1" res="-1.5664581209421158e-02" rms="4.1695976257324219e-01" purity="2.3839975893497467e-01" nType="-99"/>
         <Node pos="r" depth="5" NCoef="0" IVar="6" Cut="8.8091415405273438e+01" cType="1" res="-1.4861704409122467e-01" rms="3.2477369904518127e-01" purity="1.2697254121303558e-01" nType="0">
          <Node pos="l" depth="6" NCoef="0" IVar="-1" Cut="0.0000000000000000e+00" cType="1" res="-2.7618994936347008e-02" rms="3.3819261193275452e-01" purity="1.4080649614334106e-01" nType="-99"/>
          <Node pos="r" depth="6" NCoef="0" IVar="-1" Cut="0.0000000000000000e+00" cType="1" res="-2.6439739391207695e-02" rms="3.0646604299545288e-01" purity="1.1147600412368774e-01" nType="-99"/>
         </Node>
        </Node>
       </Node>
      </Node>
     </Node>
    </Node>
   </BinaryTree>
   <BinaryTree type="DecisionTree" boostWeight="1.0000000000000000e+00" itree="15">
    <Node pos="s" depth="0" NCoef="0" IVar="3" Cut="6.2320394515991211e+00" cType="0" res="9.1802878305315971e-03" rms="4.1562265157699585e-01" purity="5.0498193502426147e-01" nType="0">
     <Node pos="l" depth="1" NCoef="0" IVar="0" Cut="1.1516543579101562e+02" cType="0" res="1.0137563943862915e-01" rms="3.7904453277587891e-01" purity="8.0212086439132690e-01" nType="0">
      <Node pos="l" depth="2" NCoef="0" IVar="5" Cut="4.2615273594856262e-01" cType="1" res="1.2382881343364716e-01" rms="3.4952321648597717e-01" purity="8.4314066171646118e-01" nType="0">
       <Node pos="l" depth="3" NCoef="0" IVar="4" Cut="1.0305425524711609e-01" cType="1" res="1.3851879537105560e-01" rms="3.2110685110092163e-01" purity="8.7411189079284668e-01" nType="0">
        <Node pos="l" depth="4" NCoef="0" IVar="-1" Cut="0.0000000000000000e+00" cType="1" res="3.3469930291175842e-02" rms="2.3366852104663849e-01" purity="9.3795251846313477e-01" nType="-99"/>
        <Node pos="r" depth="4" NCoef="0" IVar="6" Cut="5.9102288818359375e+02" cType="0" res="1.2054570764303207e-01" rms="3.4447577595710754e-01" purity="8.5198986530303955e-01" nType="0">
         <Node pos="l" depth="5" NCoef="0" IVar="-1" Cut="0.0000000000000000e+00" cType="1" res="3.1112601980566978e-02" rms="2.8361344337463379e-01" purity="9.0713280439376831e-01" nType="-99"/>
         <Node pos="r" depth="5" NCoef="0" IVar="-1" Cut="0.0000000000000000e+00" cType="1" res="2.0183226093649864e-02" rms="3.7672507762908936e-01" purity="8.1680631637573242e-01" nType="-99"/>
        </Node>
       </Node>
       <Node pos="r" depth="3" NCoef="0" IVar="-1" Cut="0.0000000000000000e+00" cType="1" res="1.2887835502624512e-02" rms="4.1626441478729248e-01" purity="7.5633955001831055e-01" nType="-99"/>
      </Node>
      <Node pos="r" depth="2" NCoef="0" IVar="4" Cut="1.9832719862461090e-01" cType="1" res="4.1927643120288849e-02" rms="4.4243884086608887e-01" purity="6.9351512193679810e-01" nType="0">
       <Node pos="l" depth="3" NCoef="0" IVar="-1" Cut="0.0000000000000000e+00" cType="1" res="1.5712993219494820e-02" rms="4.1079023480415344e-01" purity="7.5662457942962646e-01" nType="-99"/>
       <Node pos="r" depth="3" NCoef="0" IVar="-1" Cut="0.0000000000000000e+00" cType="1" res="-4.1725272312760353e-03" rms="4.7060573101043701e-01" purity="6.1920994520187378e-01" nType="-99"/>
      </Node>
     </Node>
     <Node pos="r" depth="1" NCoef="0" IVar="3" Cut="5.8251605033874512e+00" cType="0" res="-5.9847362339496613e-02" rms="4.2822477221488953e-01" purity="2.8251090645790100e-01" nType="0">
      <Node pos="l" depth="2" NCoef="0" IVar="4" Cut="2.7288463711738586e-01" cType="1" res="-9.3959895893931389e-03" rms="4.8248291015625000e-01" purity="4.3012374639511108e-01" nType="0">
       <Node pos="l" depth="3" NCoef="0" IVar="-1" Cut="0.0000000000000000e+00" cType="1" res="1.9397999858483672e-03" rms="4.8354145884513855e-01" purity="4.7886824607849121e-01" nType="-99"/>
       <Node pos="r" depth="3" NCoef="0" IVar="0" Cut="1.4814155578613281e+02" cType="0" res="-4.2411394417285919e-02" rms="4.7902587056159973e-01" purity="3.9426273107528687e-01" nType="0">
        <Node pos="l" depth="4" NCoef="0" IVar="-1" Cut="0.0000000000000000e+00" cType="1" res="-9.9744729232043028e-04" rms="4.9290230870246887e-01" purity="4.7507238388061523e-01" nType="-99"/>
        <Node pos="r" depth="4" NCoef="0" IVar="-1" Cut="0.0000000000000000e+00" cType="1" res="-9.3747647479176521e-03" rms="4.6293231844902039e-01" purity="3.2796862721443176e-01" nType="-99"/>
       </Node>
      </Node>
      <Node pos="r" depth="2" NCoef="0" IVar="7" Cut="1.8329496765136719e+02" cType="0" res="-8.9155748486518860e-02" rms="3.9029923081398010e-01" purity="1.9675910472869873e-01" nType="0">
       <Node pos="l" depth="3" NCoef="0" IVar="-1" Cut="0.0000000000000000e+00" cType="1" res="-4.3542576022446156e-03" rms="4.5141240954399109e-01" purity="3.1571373343467712e-01" nType="-99"/>
       <Node pos="r" depth="3" NCoef="0" IVar="1" Cut="7.2674964904785156e+01" cType="0" res="-1.0270477086305618e-01" rms="3.7705159187316895e-01" purity="1.7612269520759583e-01" nType="0">
        <Node pos="l" depth="4" NCoef="0" IVar="-1" Cut="0.0000000000000000e+00" cType="1" res="-1.8053311854600906e-02" rms="4.1147580742835999e-01" purity="2.1809777617454529e-01" nType="-99"/>
        <Node pos="r" depth="4" NCoef="0" IVar="4" Cut="5.2835094928741455e-01" cType="1" res="-1.1834955215454102e-01" rms="3.5905349254608154e-01" purity="1.5683807432651520e-01" nType="0">
         <Node pos="l" depth="5" NCoef="0" IVar="5" Cut="2.2995209693908691e-01" cType="1" res="-9.6369013190269470e-02" rms="3.7107625603675842e-01" purity="1.7230713367462158e-01" nType="0">
          <Node pos="l" depth="6" NCoef="0" IVar="-1" Cut="0.0000000000000000e+00" cType="1" res="-1.7070636153221130e-02" rms="3.9655619859695435e-01" purity="2.1081845462322235e-01" nType="-99"/>
          <Node pos="r" depth="6" NCoef="0" IVar="-1" Cut="0.0000000000000000e+00" cType="1" res="-2.0025474950671196e-02" rms="3.5321050882339478e-01" purity="1.4924378693103790e-01" nType="-99"/>
         </Node>
         <Node pos="r" depth="5" NCoef="0" IVar="-1" Cut="0.0000000000000000e+00" cType="1" res="-2.6697432622313499e-02" rms="3.2469704747200012e-01" purity="1.2175238132476807e-01" nType="-99"/>
        </Node>
       </Node>
      </Node>
     </Node>
    </Node>
   </BinaryTree>
   <BinaryTree type="DecisionTree" boostWeight="1.0000000000000000e+00" itree="16">
    <Node pos="s" depth="0" NCoef="0" IVar="3" Cut="6.2370424270629883e+00" cType="0" res="9.2482250183820724e-03" rms="4.1537976264953613e-01" purity="5.0571966171264648e-01" nType="0">
     <Node pos="l" depth="1" NCoef="0" IVar="1" Cut="8.0150291442871094e+01" cType="0" res="9.3661025166511536e-02" rms="3.7457403540611267e-01" purity="8.0280345678329468e-01" nType="0">
      <Node pos="l" depth="2" NCoef="0" IVar="4" Cut="4.1362601518630981e-01" cType="1" res="1.2863563001155853e-01" rms="3.3434352278709412e-01" purity="8.5850620269775391e-01" nType="0">
       <Node pos="l" depth="3" NCoef="0" IVar="3" Cut="7.0420269966125488e+00" cType="0" res="1.4650397002696991e-01" rms="2.9826578497886658e-01" purity="8.9262145757675171e-01" nType="0">
        <Node pos="l" depth="4" NCoef="0" IVar="-1" Cut="0.0000000000000000e+00" cType="1" res="3.6994453519582748e-02" rms="1.6527582705020905e-01" purity="9.7079217433929443e-01" nType="-99"/>
        <Node pos="r" depth="4" NCoef="0" IVar="-1" Cut="0.0000000000000000e+00" cType="1" res="2.0122943446040154e-02" rms="3.5737416148185730e-01" purity="8.4273052215576172e-01" nType="-99"/>
       </Node>
       <Node pos="r" depth="3" NCoef="0" IVar="-1" Cut="0.0000000000000000e+00" cType="1" res="1.1941201984882355e-02" rms="4.0802961587905884e-01" purity="7.7250236272811890e-01" nType="-99"/>
      </Node>
      <Node pos="r" depth="2" NCoef="0" IVar="3" Cut="6.5195164680480957e+00" cType="0" res="5.0787620246410370e-02" rms="4.1464358568191528e-01" purity="7.3452061414718628e-01" nType="0">
       <Node pos="l" depth="3" NCoef="0" IVar="5" Cut="2.1557730436325073e-01" cType="1" res="9.3269772827625275e-02" rms="3.6563274264335632e-01" purity="8.2749032974243164e-01" nType="0">
